#pragma once
/*
    model_data_nam_a2.h

    NAM A2 model weight collection for the A2Player runtime.

    This file is analogous to model_data_nam.h for the legacy WaveNet module.
    All models here must use the A2 Nano/Lite architecture:
      C=3 channels, 23 layers, 1871 weights (kA2WeightCount).

    To add a new model:
      1. Convert the .nam JSON file to a float array (same format as below).
      2. Declare the array with NAM_A2_MODEL_DATA (read-only weights; see the
         macro in nam_a2_runtime.h — defaults to .rodata / SRAM under BOOT_SRAM).
      3. Add a NamA2ModelEntry entry to kNamA2Models[] (set outputGain from the
         value nam_to_cpp_array.py suggests, for loudness matching).
      4. The MODEL parameter's valueBinCount and names update automatically from
         kNamA2Models (kNamA2ModelCount and the .name fields).
*/

#include "nam_a2_runtime.h"   // for NAM_A2_MODEL_DATA, NAM_A2_ALIGN32, kA2WeightCount
#include <cstddef>

namespace nam_a2_models
{

// ---------------------------------------------------------------------------
// Marshall JCM800 2203 Modified (EL34) – SM58 (A2 Nano, 1871 weights)
//   Source: [AMP] JCM800-2203-MODIFIED TEST - SM58.nam
//   SlimmableContainer submodel 0 (max_value=0.5, low-CPU)
// ---------------------------------------------------------------------------
// [AMP] JCM800-2203-MODIFIED TEST - SM58.nam (1871 weights)
NAM_A2_MODEL_DATA NAM_A2_ALIGN32
inline constexpr float kWeightsJcm800[nam_a2_daisy::kA2WeightCount] = {
    2.377100706100464f, -6.823434352874756f, 2.1432182788848877f, 0.416054368019104f, 0.10882864147424698f, 0.8033588528633118f, -0.12163367122411728f, -1.1774497032165527f,
    -0.9754211902618408f, -0.6761243343353271f, -0.0873921662569046f, -0.9264541864395142f, 0.06719056516885757f, 1.5316495895385742f, 1.1023013591766357f, 0.5197492837905884f,
    0.28540870547294617f, 0.6435091495513916f, 0.020677130669355392f, -1.0733153820037842f, -0.9592129588127136f, -0.14812389016151428f, 0.24539120495319366f, 0.021311461925506592f,
    -0.18792542815208435f, -0.5765356421470642f, 0.557056725025177f, -0.00211693299934268f, -0.11775600910186768f, -0.1313515156507492f, 0.2990037798881531f, 0.4992591440677643f,
    -0.541862428188324f, 0.04182489588856697f, 0.15279774367809296f, 0.003431395860388875f, -0.2395455539226532f, -0.5173185467720032f, 0.46713584661483765f, 0.44215402007102966f,
    0.5179612040519714f, 0.26629069447517395f, -0.637901782989502f, -1.3190144300460815f, -0.9533345103263855f, -0.47226452827453613f, -0.5205580592155457f, -0.4982379972934723f,
    0.561174750328064f, 1.6663213968276978f, 1.2446904182434082f, 0.4941830039024353f, 0.39792653918266296f, 0.33430540561676025f, -0.5356057286262512f, -1.1762648820877075f,
    -0.8944657444953918f, 2.0033726692199707f, -0.007224372122436762f, 0.8622673749923706f, -0.6968520879745483f, 0.6635923385620117f, -0.5231887698173523f, -1.0322341918945312f,
    1.034199595451355f, -0.8114665150642395f, 1.0160207748413086f, -0.05260886996984482f, 0.953308641910553f, -0.6969248652458191f, -1.7018390893936157f, -0.27506500482559204f,
    -0.3587239980697632f, -0.025989409536123276f, -0.22864796221256256f, 0.10550127178430557f, 0.0610974095761776f, 0.03626813739538193f, -0.04371541738510132f, 0.09633094072341919f,
    -0.17192578315734863f, -0.049089640378952026f, -0.07159105688333511f, 0.03044320084154606f, 0.057009369134902954f, 0.059435781091451645f, -0.1878582239151001f, -0.3263791501522064f,
    -0.21228022873401642f, -0.1926017552614212f, -0.17793738842010498f, -0.28297159075737f, -0.10776561498641968f, -0.28802427649497986f, -0.21177244186401367f, -0.17621327936649323f,
    -0.19785605370998383f, -0.13145962357521057f, -0.0382041297852993f, -0.15060874819755554f, 0.019799860194325447f, 0.18454740941524506f, -0.049555759876966476f, -0.04463835060596466f,
    0.05675768852233887f, 0.03519134595990181f, 0.07330282032489777f, 0.12447994947433472f, 0.16142983734607697f, 0.16629791259765625f, 0.14547404646873474f, 0.08209945261478424f,
    0.2838796377182007f, 0.21524406969547272f, 0.04123266041278839f, -0.07064797729253769f, -0.2705193758010864f, -0.08793482929468155f, 0.21196508407592773f, 0.07210824638605118f,
    0.035699401050806046f, -0.3981192409992218f, -0.46836456656455994f, -0.18710581958293915f, -0.22938193380832672f, -0.10861724615097046f, -0.2255326807498932f, -0.29629838466644287f,
    -0.06809534877538681f, -0.17643038928508759f, -0.07404378056526184f, -0.06520311534404755f, -1.9202632904052734f, 1.142879605293274f, 1.5053000450134277f, 0.3718585968017578f,
    0.25060734152793884f, 0.4536389410495758f, 0.29908689856529236f, -0.15329718589782715f, -1.084756851196289f, -0.2044551968574524f, 0.5154801607131958f, -0.12528863549232483f,
    -0.40393131971359253f, -0.5994815230369568f, 0.004330776631832123f, -0.13661901652812958f, -0.25818273425102234f, -0.2456480711698532f, -0.11090432107448578f, -0.24803602695465088f,
    0.016241975128650665f, 0.12783026695251465f, -0.014404451474547386f, 0.09746168553829193f, 0.04527183622121811f, -0.02884024754166603f, -0.22943760454654694f, 0.05727958306670189f,
    -0.19818145036697388f, -0.10248792916536331f, -0.34548085927963257f, -0.2548481523990631f, -0.3412621021270752f, 0.04567749425768852f, -0.026463665068149567f, 0.012000404298305511f,
    0.10906317830085754f, 0.2508920729160309f, -0.2746678292751312f, -0.0017952185589820147f, 0.02354893460869789f, 0.07534610480070114f, 0.1228579729795456f, 0.32564544677734375f,
    -0.24790401756763458f, -0.06947395950555801f, 0.07228919118642807f, 0.1506587564945221f, 0.12752081453800201f, 0.20750100910663605f, 0.7731546759605408f, 0.11907739192247391f,
    0.20476621389389038f, 0.21185584366321564f, 0.24286653101444244f, 0.3862781822681427f, -0.10006353259086609f, 0.009087939746677876f, 0.12524645030498505f, 0.11572906374931335f,
    0.1299837976694107f, 0.10255437344312668f, 0.4915779232978821f, -0.1804850995540619f, -0.24911397695541382f, -0.27942830324172974f, -0.34052279591560364f, -0.38364821672439575f,
    -0.04310118034482002f, 0.5122625827789307f, -0.0634620413184166f, -0.08225962519645691f, 1.0989859104156494f, 0.022584768012166023f, 0.5242508053779602f, 0.23586741089820862f,
    0.29520902037620544f, 0.4952701926231384f, 0.014685393311083317f, 0.7266198396682739f, -0.28822061419487f, 0.3629298508167267f, -0.750971257686615f, -0.2774026095867157f,
    -0.24678483605384827f, -0.4114503562450409f, 0.45080146193504333f, 0.02410353720188141f, 0.05263100564479828f, 0.037524349987506866f, 0.06309602409601212f, 0.054357435554265976f,
    0.12317336350679398f, -0.047562066465616226f, -0.03904326632618904f, -0.06849820911884308f, -0.12996108829975128f, -0.18124322593212128f, 0.3766482174396515f, -0.08074454963207245f,
    -0.09549112617969513f, -0.11568515747785568f, -0.24378064274787903f, -0.2206217497587204f, -0.49468329548835754f, 0.0699273869395256f, -0.010858825407922268f, 0.09709648787975311f,
    0.05259210616350174f, -0.23938311636447906f, 0.09546122699975967f, 0.0063553680665791035f, -0.041440848261117935f, 0.03451624512672424f, -0.0382528118789196f, -0.3748739957809448f,
    0.020158326253294945f, -0.08137845993041992f, -0.03367239981889725f, 0.052045613527297974f, 0.08942655473947525f, -0.06553895026445389f, -0.19211925566196442f, -0.02771306037902832f,
    0.0036118244752287865f, 0.040312692523002625f, -0.023213542997837067f, 0.014584786258637905f, -0.6691682934761047f, 0.10291383415460587f, 0.07260493189096451f, 0.1273995190858841f,
    0.07573192566633224f, 0.3898000717163086f, -0.6697067022323608f, 0.16131332516670227f, 0.05107159912586212f, 0.08349502086639404f, 0.03924373909831047f, 0.3029320240020752f,
    0.3874828815460205f, -1.5774104595184326f, -0.6297693252563477f, 0.05358708277344704f, -0.5579081773757935f, -0.0618627667427063f, 1.472923994064331f, 0.8887705206871033f,
    -0.5584508776664734f, 0.7222803235054016f, -0.8014812469482422f, -0.07066752761602402f, -0.05116012692451477f, 1.133373737335205f, -0.115780308842659f, -0.034036118537187576f,
    -0.19437676668167114f, -0.6605153679847717f, 0.6082541346549988f, -0.02913530357182026f, -0.011337238363921642f, -0.06632973253726959f, -0.19027292728424072f, -0.3772784471511841f,
    -0.8656442761421204f, -0.008066804148256779f, -0.004603143781423569f, -0.01813211292028427f, -0.1375533491373062f, -0.4640880227088928f, 0.36780086159706116f, 0.02106570452451706f,
    -0.010174443013966084f, 0.07347200065851212f, 0.09122756868600845f, 0.06403370946645737f, 0.10970953106880188f, -0.012920868583023548f, -0.062443796545267105f, -0.049255527555942535f,
    -0.025868438184261322f, -0.06857088208198547f, -0.6239559054374695f, -0.029771797358989716f, -0.0709301233291626f, -0.09634366631507874f, -0.09401829540729523f, -0.2204158753156662f,
    0.3114297688007355f, -0.016883425414562225f, 0.008932347409427166f, -0.04837542772293091f, -0.029931379482150078f, -0.12858569622039795f, 0.15987122058868408f, -0.09757593274116516f,
    -0.2188127189874649f, -0.22717463970184326f, -0.2396073341369629f, -0.3338685631752014f, -0.09614914655685425f, 0.001238568569533527f, -0.041715048253536224f, -0.049751877784729004f,
    -0.026917755603790283f, -0.27592116594314575f, 0.2198936939239502f, 0.14644667506217957f, 0.24087709188461304f, 0.22053924202919006f, 0.3300704061985016f, 0.23969610035419464f,
    0.18554696440696716f, 0.280085027217865f, 0.646030843257904f, 0.24970769882202148f, -1.101322054862976f, -1.6562716960906982f, -0.5134499073028564f, -0.42081528902053833f,
    -0.009331734851002693f, -0.5914169549942017f, 0.28943976759910583f, 0.7459906339645386f, -0.1687590330839157f, -0.22655697166919708f, -0.3333858549594879f, -0.056781984865665436f,
    -0.1553126573562622f, -0.4362969398498535f, -0.4562734067440033f, -0.0679767057299614f, -0.09228388220071793f, -0.2363189160823822f, -0.16262312233448029f, -0.3856900930404663f,
    -0.2780982553958893f, -0.036374568939208984f, -0.07298262417316437f, -0.13205251097679138f, -0.08501674979925156f, -0.28695234656333923f, 0.25851619243621826f, 0.029789425432682037f,
    0.021372081711888313f, 0.10391097515821457f, 0.0828784704208374f, 0.009967046789824963f, -0.4035157561302185f, 0.0070798215456306934f, 0.011874147690832615f, 0.021533852443099022f,
    0.013015815056860447f, -0.011853381060063839f, 0.5991988182067871f, -4.435485243448056e-05f, 0.0017717842711135745f, 0.013443201780319214f, -0.0027023539878427982f, -0.025404930114746094f,
    0.1287022829055786f, -0.0037155738100409508f, -0.006562070455402136f, -0.003525456879287958f, -0.015454736538231373f, 0.00897165760397911f, 0.6262322068214417f, -0.04180194064974785f,
    -0.04885466769337654f, -0.08054295927286148f, -0.052743569016456604f, -0.12192722409963608f, -0.2860320508480072f, -0.029687052592635155f, -0.042606502771377563f, -0.09896843880414963f,
    -0.050895415246486664f, -0.13723547756671906f, 0.24191349744796753f, 0.009026536718010902f, 0.0037751386407762766f, -0.03279215097427368f, 0.0064041768200695515f, -0.05393482744693756f,
    -0.3884899914264679f, 0.20422276854515076f, -0.1298779547214508f, -0.22804053127765656f, -0.29572978615760803f, -0.39089152216911316f, -0.17643588781356812f, -0.32909414172172546f,
    -0.5534396171569824f, 0.5181741118431091f, 0.11313843727111816f, 0.16766779124736786f, 0.15085215866565704f, -0.006170845124870539f, -0.8928737044334412f, -0.09396665543317795f,
    0.4265654683113098f, -0.6105014681816101f, 0.029481641948223114f, -0.00545805087313056f, 0.003038491355255246f, -0.001858189469203353f, -0.008536563254892826f, -0.0032555509824305773f,
    0.010112778283655643f, -0.0005232192925177515f, 0.0026978168170899153f, -0.0032690532971173525f, -0.0025685459841042757f, -0.004564243834465742f, 0.26592573523521423f, 0.0005809824215248227f,
    -0.0007850482943467796f, -0.0045402804389595985f, 0.005833822302520275f, -0.007499426603317261f, 1.007431983947754f, -0.009072101674973965f, 0.0013468542601913214f, 0.007514857221394777f,
    0.01313984114676714f, 0.07542338222265244f, -0.3474820554256439f, -0.0020452437456697226f, -0.0002408357831882313f, 0.004506327211856842f, 0.011601296253502369f, 0.026161586865782738f,
    -0.16312628984451294f, -0.0018322167452424765f, -0.004512330051511526f, -0.011375527828931808f, -0.0019501184578984976f, -0.037543367594480515f, -0.31901851296424866f, 0.009083470329642296f,
    -0.002054401207715273f, -0.007215581368654966f, -0.011928685009479523f, -0.006800733041018248f, -0.34091252088546753f, 0.0010086066322401166f, 0.0006663085077889264f, -0.003654898377135396f,
    -0.004850406665354967f, -0.004952870309352875f, 0.12678271532058716f, -0.0007771921809762716f, -0.0009972993284463882f, 0.002731644781306386f, 0.00202511646784842f, 0.0033224141225218773f,
    0.4272506535053253f, -0.3948329985141754f, 0.2797248363494873f, -0.5826311707496643f, -0.4703746736049652f, -0.8205362558364868f, 0.24585190415382385f, -0.39818739891052246f,
    0.4927469491958618f, 0.6821658611297607f, -0.40491974353790283f, 0.2506850063800812f, -0.3702131509780884f, -0.5499577522277832f, 0.27699515223503113f, -0.26700663566589355f,
    0.5898816585540771f, -0.3615778386592865f, 0.2410864382982254f, -0.24946953356266022f, -0.2338194102048874f, 0.06511817127466202f, -0.02513677068054676f, 0.26897257566452026f,
    0.44418808817863464f, -0.06360780447721481f, -0.1801968514919281f, -0.08595595508813858f, 0.30677127838134766f, 0.052448708564043045f, -0.062240954488515854f, 0.1345003843307495f,
    0.28215837478637695f, 0.32478153705596924f, -0.41288721561431885f, 0.24013885855674744f, 0.5086712837219238f, 0.6701430082321167f, 0.1781318336725235f, 0.32555198669433594f,
    0.10224098712205887f, -0.04380176216363907f, -0.44816792011260986f, 0.3739127218723297f, 0.03763874992728233f, 0.15501658618450165f, -0.12643742561340332f, -0.3263276219367981f,
    -0.036401793360710144f, 0.08203631639480591f, 0.01720534637570381f, -0.06147775799036026f, -0.10660546272993088f, 0.1534026861190796f, 0.4313872456550598f, -0.0091860918328166f,
    0.03342392295598984f, -0.2359437495470047f, -0.09839192032814026f, 0.09323085099458694f, 0.3708566129207611f, -0.034357745200395584f, -0.025647390633821487f, -0.19198444485664368f,
    -0.07968216389417648f, -0.010783582925796509f, 0.5579201579093933f, 0.010725235566496849f, -0.05317157134413719f, -0.25077855587005615f, -0.0032809691037982702f, -0.10456222295761108f,
    -0.2557236850261688f, -0.19978100061416626f, 0.5845540165901184f, 0.2780672013759613f, 0.7673742175102234f, 0.5934733152389526f, 0.5322292447090149f, 0.5241895914077759f,
    0.4599817395210266f, -0.372674822807312f, -0.06965376436710358f, -0.5003082752227783f, -0.6441851854324341f, -0.8511419296264648f, -0.3856477737426758f, 0.15512213110923767f,
    -0.3116567134857178f, -0.11522646993398666f, -0.0644192323088646f, 0.11782865971326828f, 0.24267199635505676f, 0.24486440420150757f, 0.3427964746952057f, 0.6931815147399902f,
    -0.5625416040420532f, -0.007773565594106913f, 0.2662477493286133f, 0.01608571968972683f, 0.24038735032081604f, -0.16664473712444305f, -0.6980869174003601f, -0.1061728373169899f,
    0.06913318485021591f, 0.006153250578790903f, 0.29684028029441833f, 0.19930057227611542f, -0.006797865964472294f, 0.04732004925608635f, 0.18476039171218872f, -0.04362877085804939f,
    -0.12174760550260544f, -0.0613684244453907f, -0.05343114212155342f, 0.10000379383563995f, 0.11796799302101135f, 0.12304916977882385f, -0.0498773455619812f, 0.31414172053337097f,
    -0.536582887172699f, 0.010770081542432308f, -0.02354614995419979f, -0.09547112882137299f, -0.04326238855719566f, 0.2398069053888321f, 0.5771318078041077f, -0.03201537951827049f,
    -0.064491868019104f, -0.09033054858446121f, -0.08869076520204544f, 0.038317326456308365f, -0.23806947469711304f, 0.02838415466248989f, -0.09078202396631241f, -0.07218445092439651f,
    -0.07624287903308868f, 0.13112150132656097f, 0.18165329098701477f, 0.06114089861512184f, 0.02865791879594326f, -0.09088853746652603f, -0.09421885758638382f, 0.13107560575008392f,
    0.2657032608985901f, -0.14632827043533325f, 0.47776085138320923f, -1.256600260734558f, -0.024735696613788605f, 0.4200022518634796f, 0.39954903721809387f, 0.3479474186897278f,
    0.30678004026412964f, 0.603466272354126f, 0.11307252943515778f, -0.5464532375335693f, -1.3117725849151611f, -0.4486105144023895f, -0.47823280096054077f, -0.5590431690216064f,
    0.03561779484152794f, 0.4342493414878845f, 0.5206067562103271f, -0.0026850372087210417f, -0.05760293826460838f, -0.042705465108156204f, 0.009390219114720821f, -0.35071468353271484f,
    -1.0587478876113892f, -0.03829483687877655f, -0.04869803413748741f, -0.08146246522665024f, -0.0035446500405669212f, -0.29886385798454285f, 0.3574734628200531f, 0.007610970642417669f,
    -0.047174639999866486f, -0.0029353818390518427f, 0.09759149700403214f, -0.021004581823945045f, 0.49559539556503296f, -0.058788806200027466f, -0.19624581933021545f, -0.31713712215423584f,
    -0.4397282600402832f, -0.2716362178325653f, -0.09723833203315735f, 0.14485333859920502f, 0.08693359792232513f, 0.05340157076716423f, 0.05942276492714882f, 0.21420663595199585f,
    -0.4780053496360779f, -0.030030502006411552f, -0.31768274307250977f, -0.247684508562088f, -0.022163450717926025f, 0.4260205030441284f, 0.509404718875885f, 0.016588682308793068f,
    -0.05629958584904671f, 0.036471620202064514f, 0.050273437052965164f, -0.015564698725938797f, 0.9192448258399963f, 0.057036664336919785f, -0.059369735419750214f, 0.056903988122940063f,
    0.1101778969168663f, -0.06793125718832016f, -0.001883148681372404f, -0.1258980631828308f, 0.053797636181116104f, -0.056116268038749695f, -0.015394164249300957f, 0.14468222856521606f,
    -0.453473299741745f, 0.6188950538635254f, 0.02874116599559784f, 0.3143554925918579f, -0.11973743140697479f, 0.32216253876686096f, -0.02876831218600273f, -0.0016627679578959942f,
    0.8038887977600098f, -0.6618531942367554f, 1.3872157335281372f, 0.034543268382549286f, 0.4891928434371948f, 0.4025248885154724f, -0.4404134750366211f, 0.3003692924976349f,
    -0.02073274739086628f, 0.46752941608428955f, -0.5206727981567383f, -0.2731418013572693f, -0.27552273869514465f, -0.25092118978500366f, -0.3500000536441803f, -0.19638372957706451f,
    -0.6657056212425232f, -0.1256827712059021f, -0.10946958512067795f, -0.08902346342802048f, -0.14313635230064392f, -0.06553346663713455f, 0.360198974609375f, 0.06245730072259903f,
    0.04152986779808998f, -0.003907567355781794f, 0.09044705331325531f, 0.03559170663356781f, -0.11156737804412842f, 0.05362246185541153f, 0.09376299381256104f, 0.16506794095039368f,
    0.11905892193317413f, 0.16953326761722565f, -1.0160504579544067f, 0.03501296043395996f, 0.07333051413297653f, 0.12345913797616959f, 0.13902516663074493f, 0.12072527408599854f,
    -0.030687592923641205f, -0.0566752664744854f, -0.040601570159196854f, 0.0064565036445856094f, -0.08306441456079483f, 0.017879625782370567f, -0.6299894452095032f, -0.09784011542797089f,
    -0.13509297370910645f, -0.11117184907197952f, -0.1731753796339035f, -0.13864430785179138f, -0.15778666734695435f, -0.031054645776748657f, -0.04264245554804802f, -0.005193645600229502f,
    -0.03502156585454941f, -0.06457193195819855f, 0.30262473225593567f, -0.04634657874703407f, -0.010030335746705532f, -0.008597640320658684f, 0.07953416556119919f, 0.09541507065296173f,
    0.2090204358100891f, -0.779096245765686f, 0.1027616560459137f, 0.5093196034431458f, 0.18559609353542328f, -0.11120638251304626f, -1.190260887145996f, 0.6430537104606628f,
    0.5795757174491882f, -0.6933355927467346f, -0.9889576435089111f, -0.28061652183532715f, 0.15554334223270416f, -0.08285655081272125f, -0.02083962969481945f, 0.4087107181549072f,
    0.4419388473033905f, 0.03789769485592842f, 0.540327250957489f, -0.08358742296695709f, -0.05962643399834633f, -0.15550927817821503f, -0.10140373557806015f, -0.3279476463794708f,
    -0.29236900806427f, -0.03088468499481678f, -0.06506576389074326f, -0.1141996681690216f, -0.051240187138319016f, -0.1357082575559616f, 0.8196040987968445f, -0.04650680348277092f,
    0.055342257022857666f, 0.05895229056477547f, 0.003455748315900564f, -0.11196345835924149f, 0.6330440640449524f, -0.05892520770430565f, -0.04822568595409393f, -0.059191904962062836f,
    -0.0489063486456871f, -0.343973845243454f, 0.6269776225090027f, -0.0012083998881280422f, -0.029282040894031525f, -0.015522491186857224f, 0.011359828524291515f, -0.10922297835350037f,
    0.2156994640827179f, -0.07836024463176727f, -0.02529323846101761f, -0.04397335276007652f, -0.09767679125070572f, -0.1683901846408844f, -0.226578950881958f, -0.07817503064870834f,
    0.06517897546291351f, 0.18155378103256226f, 0.3565881848335266f, 0.07935319095849991f, -0.46493443846702576f, -0.029574250802397728f, -0.04814562946557999f, -0.01708962209522724f,
    0.050901807844638824f, -0.0922987312078476f, 0.024094942957162857f, -0.0511527881026268f, 0.16911666095256805f, 0.29266679286956787f, 0.3550299108028412f, 0.37833961844444275f,
    -0.20451638102531433f, 0.5625332593917847f, 0.40284791588783264f, 0.12539172172546387f, -0.8983757495880127f, -0.9233601093292236f, -0.381441205739975f, -0.5135390162467957f,
    -0.5875623226165771f, 0.16762413084506989f, 0.7770012617111206f, -0.4917714297771454f, -0.36536821722984314f, 0.367872953414917f, 0.6137060523033142f, 0.5560342073440552f,
    0.9954993724822998f, 0.5308029651641846f, -0.12829376757144928f, 0.02280060574412346f, 0.03032238408923149f, -0.00846156757324934f, 0.07433240860700607f, 0.26350364089012146f,
    0.45438212156295776f, -0.004729806445538998f, -0.010082155466079712f, -0.007495891768485308f, 0.021471481770277023f, 0.08147121220827103f, -0.1212613433599472f, 0.039452023804187775f,
    0.04213158041238785f, -0.01555327046662569f, 0.04739199951291084f, 0.1829097867012024f, -0.6634020805358887f, -0.02649972029030323f, 0.030903680250048637f, -0.08770272880792618f,
    -0.14942556619644165f, -0.4365371763706207f, -0.36285287141799927f, -0.0003988497192040086f, -0.014448145404458046f, -0.07206203043460846f, -0.09309100359678268f, -0.26047760248184204f,
    0.5001009106636047f, -0.02257578633725643f, 0.07516565918922424f, 0.06937652081251144f, 0.05682931840419769f, 0.07867207378149033f, 0.767000675201416f, -0.020901352167129517f,
    -0.03214302659034729f, -0.10944359004497528f, -0.2037886083126068f, -0.32175207138061523f, -0.911532461643219f, 0.003267577849328518f, -0.00538218766450882f, -0.02933921478688717f,
    -0.06859134137630463f, -0.1281261295080185f, 0.660922110080719f, -0.031954459846019745f, -0.029722215607762337f, -0.07787153124809265f, -0.08890031278133392f, -0.05807480216026306f,
    -0.15737546980381012f, 0.18296122550964355f, -0.07701264321804047f, -1.0815941095352173f, -0.1360761672258377f, -0.10046400129795074f, -0.31469056010246277f, 0.7849109172821045f,
    -0.20383398234844208f, 0.8884108662605286f, 0.006869410630315542f, 0.6474943161010742f, -1.2697287797927856f, -0.1045198142528534f, -0.8195513486862183f, -0.2997722327709198f,
    0.09885991364717484f, 0.7118055820465088f, 0.3480179011821747f, 0.1943485140800476f, -0.24105356633663177f, -0.12873594462871552f, -0.22297026216983795f, 0.16655859351158142f,
    0.4963286817073822f, 0.13427256047725677f, -0.12568996846675873f, -0.012160453014075756f, 0.10874048620462418f, 0.1010703444480896f, 0.19204631447792053f, 0.09306652098894119f,
    -0.13217593729496002f, -0.06826112419366837f, -0.10414031893014908f, 0.07917284965515137f, -0.4087257385253906f, 0.08687824755907059f, 0.025191977620124817f, -0.0031163205858319998f,
    0.05342676490545273f, 0.05481232330203056f, -0.5369195342063904f, 0.0525851733982563f, 0.03374974802136421f, -0.0009244242100976408f, 0.02558843605220318f, 0.038503050804138184f,
    0.045513369143009186f, 0.04730052128434181f, 0.010005295276641846f, 0.0019379128934815526f, 0.023675816133618355f, 0.030903883278369904f, -0.14314518868923187f, -0.0050030960701406f,
    -0.026262199506163597f, 0.02029939740896225f, -0.00724968034774065f, -0.08540970087051392f, -0.909325122833252f, -0.0050565325655043125f, -0.017748085781931877f, 0.0030997467692941427f,
    -0.018470879644155502f, -0.05931315943598747f, 0.5987707376480103f, -0.011717695742845535f, -0.02670496702194214f, 0.01049213670194149f, -0.014346550218760967f, -0.04662013426423073f,
    0.1099565252661705f, 0.14632724225521088f, 1.8202091455459595f, -0.6931126117706299f, 0.4508732557296753f, 0.15468189120292664f, 0.23620769381523132f, -0.9496061205863953f,
    -0.4292834997177124f, -0.1680019497871399f, -0.03838745877146721f, 1.1968624591827393f, -0.0667075514793396f, 0.2817435562610626f, -0.38621339201927185f, -1.0707634687423706f,
    0.7879576683044434f, 0.6845945715904236f, 0.6661949157714844f, -0.04167268052697182f, -0.05344299599528313f, 0.006759382784366608f, -0.0038312487304210663f, -0.0009869183413684368f,
    0.028947778046131134f, -0.035573363304138184f, 0.037503186613321304f, -0.10645131021738052f, -0.09319257736206055f, -0.17130233347415924f, -0.06736145168542862f, 0.03693379834294319f,
    0.0846145823597908f, 0.23094716668128967f, -0.07032231986522675f, -0.08534038066864014f, -0.09357713907957077f, -0.1235170066356659f, -0.043343618512153625f, 0.02360493689775467f,
    0.058559052646160126f, -0.061123788356781006f, -0.0768931657075882f, -0.3436445891857147f, -0.19694633781909943f, -0.20096735656261444f, 0.10493239015340805f, 0.5268329977989197f,
    0.6594159603118896f, -0.12182018905878067f, -0.009157698601484299f, -0.0719531998038292f, -0.13349346816539764f, -0.08559941500425339f, -0.03401198610663414f, -0.0849624052643776f,
    0.006793724838644266f, -0.1067606508731842f, -0.1802394986152649f, -0.23765112459659576f, -0.24554190039634705f, 0.1495833396911621f, 0.37506037950515747f, 0.8256031274795532f,
    -0.025283154100179672f, 0.012364932335913181f, -0.06752648204565048f, -0.008082243613898754f, -0.009996424429118633f, 0.0358116514980793f, -0.05657503381371498f, 0.06016593798995018f,
    0.06766116619110107f, 0.051776543259620667f, 0.01639273762702942f, 0.26883840560913086f, 0.13614512979984283f, 0.059696219861507416f, 0.19666139781475067f, 0.07748494297266006f,
    0.001058294903486967f, 0.03768235817551613f, 0.02234974317252636f, 0.11909860372543335f, -0.07520971447229385f, 0.14222091436386108f, -0.07574097812175751f, 0.038250476121902466f,
    0.1898331493139267f, 0.30938804149627686f, 0.11177773773670197f, 0.23806500434875488f, -0.1069255918264389f, -0.4769167900085449f, 0.040564317256212234f, 0.14660681784152985f,
    -0.09135986864566803f, 0.10719288885593414f, 0.05939020216464996f, 0.13836179673671722f, -0.09283740818500519f, 0.2015840858221054f, 0.1920291781425476f, 0.03787459805607796f,
    0.023716017603874207f, 0.6530001759529114f, 0.539604663848877f, 0.18311122059822083f, 0.5950250625610352f, 0.1392497420310974f, 0.17476199567317963f, 0.11016232520341873f,
    0.12161300331354141f, -0.08213819563388824f, -0.07066504657268524f, -0.12317080050706863f, -0.0942378118634224f, -0.08237472921609879f, -0.0004279156564734876f, 0.049680180847644806f,
    0.23790140450000763f, 0.27020499110221863f, 0.08468122035264969f, -0.15313343703746796f, 0.15338920056819916f, 0.07020106166601181f, 0.10853308439254761f, 0.1011037826538086f,
    0.03627490997314453f, -0.15268711745738983f, -0.2573009729385376f, -0.23196573555469513f, -0.1961265653371811f, 0.05137938633561134f, 0.13905958831310272f, 0.006820677779614925f,
    0.22756946086883545f, 0.21677877008914948f, -0.09652625024318695f, 0.000686993938870728f, 0.06098092347383499f, 0.0077426559291779995f, 0.1002543717622757f, 0.10690329223871231f,
    0.18142293393611908f, 0.07289966195821762f, 0.09196099638938904f, 0.18455049395561218f, 0.044044412672519684f, -0.1294744461774826f, -0.0073013813234865665f, 0.025857554748654366f,
    0.05465361848473549f, 0.20431901514530182f, -0.6775097846984863f, -0.7028612494468689f, 1.0962821245193481f, -0.505334198474884f, -0.49432069063186646f, 0.02807220071554184f,
    -0.4005928039550781f, 0.20642444491386414f, 0.5851958990097046f, 0.6789301037788391f, -0.8406991958618164f, 0.1765192598104477f, -0.7022665143013f, -0.3377995193004608f,
    -0.20283760130405426f, 0.5960853695869446f, 1.3698296546936035f, 1.4162644147872925f, 0.25211048126220703f, -0.05695544183254242f, -0.2661617398262024f, 0.16581258177757263f,
    -0.12982811033725739f, 0.2582787871360779f, -0.15117675065994263f, -0.03855948895215988f, 0.07595239579677582f, 0.3423365652561188f, 0.08906535804271698f, -0.053344618529081345f,
    0.12232676893472672f, -0.2864427864551544f, 0.4680454432964325f, 0.0900457426905632f, -0.005502873566001654f, -0.09312552958726883f, 0.09759028255939484f, 0.062113404273986816f,
    0.06646891683340073f, 0.12202737480401993f, 0.08498193323612213f, 0.1570197343826294f, -0.009059994481503963f, 0.23344992101192474f, -0.10711602121591568f, -0.05229871720075607f,
    -0.16667956113815308f, 0.18395791947841644f, -0.14031197130680084f, -0.043588440865278244f, 0.05238489806652069f, -0.10860880464315414f, 0.041025202721357346f, -0.06606430560350418f,
    -0.06500604003667831f, -0.09366808831691742f, -0.19816043972969055f, -0.16335342824459076f, -0.1710481345653534f, -0.0450206883251667f, -0.06891041994094849f, 0.21066175401210785f,
    -0.552874743938446f, 0.1574554145336151f, 0.24553175270557404f, 0.14208222925662994f, 0.056516896933317184f, -0.11407111585140228f, -0.2712206542491913f, 0.04381919279694557f,
    0.37524157762527466f, 0.5169476866722107f, -0.559223473072052f, 0.4230460822582245f, -0.04260643571615219f, -0.23299705982208252f, 0.06594373285770416f, -0.2570746839046478f,
    0.2179107367992401f, 0.23003734648227692f, 0.23821869492530823f, -0.13080431520938873f, 0.023071404546499252f, 0.10866712778806686f, -0.07480359822511673f, 0.43883758783340454f,
    0.3459942936897278f, 0.27823495864868164f, 0.22132593393325806f, 0.36862778663635254f, -0.10384949296712875f, 0.21864821016788483f, -0.20998211205005646f, -0.14528794586658478f,
    -0.0807504653930664f, -0.025039540603756905f, -0.08487741649150848f, -0.04015921801328659f, 0.022603951394557953f, -0.03702516108751297f, -0.2387998253107071f, -0.2780911922454834f,
    -0.13713501393795013f, -0.271819144487381f, -0.12998341023921967f, 0.06051259487867355f, 0.0491434670984745f, 0.22130252420902252f, 0.06359632313251495f, -0.2476912885904312f,
    0.016415942460298538f, 0.22085478901863098f, 0.5105599761009216f, 0.22917430102825165f, 0.23984181880950928f, 0.0055530439130961895f, -0.2655482888221741f, -0.022399554029107094f,
    0.0993628203868866f, -0.10817123204469681f, 0.12290020287036896f, 0.238766148686409f, 0.3185637891292572f, 0.09123371541500092f, -0.08778358995914459f, 0.040130872279405594f,
    0.04544253274798393f, 0.09917771816253662f, 0.061161793768405914f, -0.013330593705177307f, 0.0032252126839011908f, -0.18125440180301666f, 0.1271115243434906f, -0.00875393208116293f,
    0.03113464266061783f, -0.07419787347316742f, 0.10792723298072815f, 0.313933789730072f, -0.06073230132460594f, 0.04926198348402977f, -0.06295720487833023f, -0.058044128119945526f,
    -0.13233903050422668f, -0.096199169754982f, -0.03543001040816307f, -0.09016904979944229f, -0.05342194065451622f, -0.13680298626422882f, -0.18998770415782928f, -0.12477894127368927f,
    -0.09658581763505936f, -0.14205427467823029f, 0.13775937259197235f, -0.1809091866016388f, 0.7663116455078125f, 0.10630957782268524f, -0.030385959893465042f, -0.23543737828731537f,
    0.11771531403064728f, -0.49954086542129517f, 0.4463425874710083f, -0.5787926912307739f, -0.22793199121952057f, 0.1602363884449005f, -0.040784627199172974f, 0.19421011209487915f,
    -0.20260010659694672f, 0.2385326325893402f, 1.0932368040084839f, 1.2214202880859375f, 0.8030416369438171f, 0.002551947720348835f, 0.03596782684326172f, -0.09446723759174347f,
    0.23073339462280273f, 0.23511585593223572f, 0.10419875383377075f, -0.10314305871725082f, -0.001123536261729896f, 0.16773775219917297f, -0.11297143250703812f, -0.12394863367080688f,
    0.2660169303417206f, 0.15973351895809174f, -0.004420821089297533f, -0.1399400532245636f, 0.4646329879760742f, 0.3374089002609253f, 0.6434077620506287f, 0.07725461572408676f,
    -0.462822824716568f, -0.19234569370746613f, 0.07458353042602539f, -0.11535283923149109f, -0.008787442930042744f, 0.15961219370365143f, 0.6620818972587585f, 0.5205962061882019f,
    -0.05161247029900551f, -0.3787045180797577f, -0.06994645297527313f, 0.46529045701026917f, -0.12467712163925171f, -0.4748844802379608f, -0.05600173398852348f, -0.3132917881011963f,
    -0.486512690782547f, 0.111970454454422f, -0.3080255091190338f, -0.061026930809020996f, 0.2996472120285034f, -0.3701622188091278f, 0.05267607793211937f, 0.09251738339662552f,
    -0.02716835029423237f, -0.13164058327674866f, -0.09928907454013824f, 0.2848086655139923f, 0.41552117466926575f, -0.0849112868309021f, -0.36587098240852356f, -0.12080062925815582f,
    0.0840991884469986f, 0.14025630056858063f, 0.059199851006269455f, 0.7560113072395325f, 0.2570210099220276f, 0.10558052361011505f, 0.30379900336265564f, 0.1960296928882599f,
    0.14956407248973846f, 0.0652497336268425f, 0.22811773419380188f, -0.27072668075561523f, -0.5541306734085083f, -0.10640131682157516f, 0.4102797508239746f, -0.9281536936759949f,
    0.21634066104888916f, 0.15014609694480896f, 0.9280778765678406f, 1.3517440557479858f, -0.0372602641582489f, 0.014393625780940056f, 0.1259702444076538f, 0.027223290875554085f,
    0.10722363740205765f, 0.16829338669776917f, 0.09701404720544815f, 0.21493536233901978f, -0.22121404111385345f, -0.03312591090798378f, 0.43382903933525085f, -0.4116348624229431f,
    -0.3009612262248993f, 0.08408802002668381f, -0.16772884130477905f, 0.16836415231227875f, 0.4779649078845978f, -0.07129603624343872f, 0.1012793555855751f, 0.1545703262090683f,
    -0.1300031691789627f, 0.05251387879252434f, 0.17564299702644348f, 0.3003924787044525f, 0.1905011087656021f, -0.01961894892156124f, 0.25053346157073975f, 0.024723464623093605f,
    -0.2873821556568146f, 0.21616968512535095f, 0.2092244178056717f, 0.044503893703222275f, 0.12001308053731918f, 0.05498235300183296f, 0.0020875483751296997f, 0.943122386932373f,
    0.4837639629840851f, 0.12171375751495361f, -0.10261636227369308f, -0.0065613845363259315f, 0.046019699424505234f, -0.09119571000337601f, 0.012292531318962574f, -0.16877016425132751f,
    0.08750629425048828f, 0.07753109931945801f, -0.31540849804878235f, 0.16264884173870087f, 0.1612740010023117f, -0.040168240666389465f, 0.2938963770866394f, -0.0531042143702507f,
    0.055137064307928085f, -0.15085740387439728f, -0.1343114674091339f, -0.5007131695747375f, -0.009670395404100418f, -0.33924585580825806f, 0.13395290076732635f, -0.2153019905090332f,
    -0.04410026967525482f, -0.14497478306293488f, 0.05819038674235344f, 0.32644686102867126f, -0.0022961946669965982f, 0.21383123099803925f, -0.17048382759094238f, -0.39258304238319397f,
    1.040082573890686f, 0.34104910492897034f, 1.4464266300201416f, 1.289007306098938f, 0.9291210770606995f, 0.30972427129745483f, 0.3794529139995575f, 0.24471738934516907f,
    0.4714534878730774f, 0.0633506029844284f, -0.004783421289175749f, 0.37607690691947937f, -0.10860229283571243f, 0.10952141135931015f, 0.1584160476922989f, 0.35632598400115967f,
    -0.13811594247817993f, 0.2268800586462021f, -0.31211307644844055f, 0.029089877381920815f, 0.4138142764568329f, 0.2797977328300476f, -0.1911817342042923f, 0.3040638267993927f,
    0.377136766910553f, -0.08913777023553848f, 0.07147739827632904f, 0.3483850657939911f, 0.2886386811733246f, -0.07707007229328156f, 0.32127487659454346f, 0.11723563075065613f,
    0.36251625418663025f, 0.5986368656158447f, -0.08512735366821289f, -0.06945519149303436f, 0.0038601828273385763f, 0.056402385234832764f, -0.2249540537595749f, -0.25459709763526917f,
    0.8017445802688599f, 0.25879648327827454f, -0.05444006249308586f, 0.012731163762509823f, 0.40257200598716736f, 0.06802055984735489f, 0.08666488528251648f, 0.11082682758569717f,
    0.1590224951505661f, 0.4567832350730896f, 0.04070468619465828f, 0.15943415462970734f, 0.031862176954746246f, 0.08076871186494827f, 0.052211735397577286f, 0.020913565531373024f,
    -0.1779840737581253f, 0.006315555889159441f, 0.5838612914085388f, 0.10040433704853058f, 0.5233129262924194f, 0.8510366678237915f, 0.3534570038318634f, -0.3206442594528198f,
    0.15777359902858734f, -0.29294899106025696f, -0.5412566661834717f, 0.40557920932769775f, 0.6963638067245483f, -0.23009927570819855f, 0.7652677893638611f, 0.12727288901805878f,
    -0.4557250738143921f, -0.6762396693229675f, -0.022654129192233086f, 0.22134344279766083f, 0.09177423268556595f, -0.2511785626411438f, 0.5042186975479126f, -0.3256452977657318f,
    -0.11865977197885513f, -0.23646236956119537f, -0.3395949602127075f, 0.10061493515968323f, 0.14390410482883453f, -0.01713525503873825f, 0.5933945775032043f, 0.10931085050106049f,
    -0.2524150311946869f, 0.2522641718387604f, -0.1917417198419571f, -0.1702388972043991f, -0.3859356939792633f, -0.027352383360266685f, 0.1370706558227539f, 0.537291944026947f,
    -0.2510718107223511f, 0.4519336521625519f, -0.8491916656494141f, -0.17073187232017517f, 0.20482274889945984f, 0.16885852813720703f, 0.1616847664117813f, 0.3894653618335724f,
    -0.2051379233598709f, -0.17984963953495026f, -0.03530017286539078f, -0.06650751084089279f, 0.10041100531816483f, -0.12219378352165222f, -0.8278577923774719f, 0.076432965695858f,
    -0.6913068890571594f, 0.19961656630039215f, 0.29997867345809937f, -0.30234426259994507f, -0.003457357408478856f, 0.06174487993121147f, 0.1027117446064949f, 0.12373168021440506f,
    0.08276081830263138f, 0.15773065388202667f, -0.18508300185203552f, -0.13527199625968933f, 0.5885219573974609f, -0.22229112684726715f, -0.1464778631925583f, -0.07923579216003418f,
    0.18966399133205414f, -0.1356760412454605f, 0.25616124272346497f, 0.2962248921394348f, -0.1968691051006317f, 0.1978343278169632f, -0.111908458173275f, -0.260376900434494f,
    0.23394210636615753f, 0.24906645715236664f, 0.3351442813873291f, -0.564915657043457f, 0.006212929729372263f, 0.4327240586280823f, -0.749566912651062f, -0.62156742811203f,
    0.2742495536804199f, -0.37247756123542786f, 0.6347651481628418f, 0.1499543935060501f, 0.04060406982898712f, -0.029012365266680717f, -0.2859136164188385f, -0.02639775350689888f,
    0.13084052503108978f, 0.032867804169654846f, 0.4215274155139923f, -0.41361314058303833f, -0.06741196662187576f, -0.03240233659744263f, 0.27110162377357483f, 0.13988639414310455f,
    -0.2922431230545044f, 0.2704099118709564f, 0.25748735666275024f, 0.03826845437288284f, -0.13423441350460052f, -0.20534737408161163f, -0.056028783321380615f, -0.04724554345011711f,
    -0.06514892727136612f, 0.04542146250605583f, 0.2424873262643814f, -0.10888046026229858f, 0.2279357612133026f, -0.17334704101085663f, -0.03948630020022392f, -0.12648844718933105f,
    -0.025026317685842514f, 0.0749819353222847f, 0.1274411976337433f, -0.16152125597000122f, -0.22009146213531494f, 0.03575536981225014f, -0.06390984356403351f, -0.5178372859954834f,
    0.19335858523845673f, 0.03716292604804039f, 0.2725331485271454f, 0.024866122752428055f, -0.13423822820186615f, -0.02243368700146675f, -0.38415107131004333f, 0.4131111204624176f,
    0.051618561148643494f, 0.0379631482064724f, -0.3065139353275299f, -0.12461891025304794f, 0.24715250730514526f, -0.3025880455970764f, -0.2785591781139374f, -0.02959306351840496f,
    0.11143338680267334f, 0.19508664309978485f, 0.03348816931247711f, -0.37373340129852295f, 0.2705475091934204f, -0.09271293133497238f, 0.10631022602319717f, -0.021138601005077362f,
    0.24592353403568268f, -0.09473072737455368f, 0.01182649377733469f, 0.059734731912612915f, 0.5217990279197693f, -0.15985724329948425f, -0.5130873322486877f, -0.3289450407028198f,
    -1.2947452068328857f, 0.3265078365802765f, 0.4221601188182831f, 0.016584308817982674f, 0.11230941116809845f, -0.12975795567035675f, -0.4291795790195465f, -0.0035460605286061764f,
    0.15456536412239075f, -0.41279569268226624f, -0.001067057834006846f, -0.060515739023685455f, 0.1806761622428894f, -0.024825138971209526f, -0.42947906255722046f, 0.051191166043281555f,
    0.30294665694236755f, -0.18405963480472565f, -0.20002490282058716f, -0.2551673352718353f, -0.09954395890235901f, 0.19158992171287537f, 0.028996139764785767f, 0.08060482889413834f,
    0.015519889071583748f, 0.09803441911935806f, -0.058817215263843536f, 0.2025759518146515f, -0.005352526903152466f, -0.0021261977963149548f, 0.05380484461784363f, -0.0037869771476835012f,
    0.015931639820337296f, 0.2677990198135376f, 0.06012867018580437f, 0.026188591495156288f, -0.10205619037151337f, 0.03180783987045288f, -0.07862097024917603f, 0.20638422667980194f,
    -0.16386833786964417f, 0.12198592722415924f, 0.35760048031806946f, -0.03321440517902374f, -0.1397249400615692f, 0.3265686631202698f, 0.04681919887661934f, 0.10400505363941193f,
    -0.12363439798355103f, 0.026338689029216766f, 0.33047130703926086f, -0.029205715283751488f, -0.22392822802066803f, 0.1945476531982422f, 0.17439082264900208f, 0.190921813249588f,
    0.07663188129663467f, -0.16146224737167358f, -0.014567899517714977f, -0.126351997256279f, 0.8235718011856079f, 0.28187549114227295f, -0.08945862948894501f, -0.2436087727546692f,
    -0.022303784266114235f, -0.04516636207699776f, 0.4018445312976837f, -0.09696944802999496f, -0.08767572790384293f, -1.6182093620300293f, 0.11603353917598724f, -0.02261699177324772f,
    -0.453899085521698f, 0.08690181374549866f, 0.04515029489994049f, -0.019218450412154198f, 0.0023405742831528187f, 0.014514819718897343f, -0.0529647022485733f, -0.2124762088060379f,
    0.020637676119804382f, -0.06174859777092934f, 0.33755409717559814f, 0.11492719501256943f, 0.06258074194192886f, -0.22013109922409058f, 0.5643827319145203f, -0.01637909561395645f,
    0.016567934304475784f, 0.013339206576347351f, -0.007472056895494461f, -0.058639101684093475f, 0.044546835124492645f, 0.3975638151168823f, -0.1943638175725937f, -0.007312539964914322f,
    0.06587157398462296f, 0.18153397738933563f, 0.023218583315610886f, 0.07278572767972946f, 0.04162628576159477f, 0.019891921430826187f, -0.09691587090492249f, 0.1348288208246231f,
    -0.06594913452863693f, -0.05714353919029236f, 0.14470481872558594f, -0.10708246380090714f, 0.01656654290854931f, 0.1567068099975586f, 0.003646354889497161f, 0.04022609815001488f,
    -0.2666528820991516f, -0.004744718316942453f, 0.053971271961927414f, 0.20640002191066742f, -0.03636029362678528f, 0.03365664556622505f, -0.3233042359352112f, -0.09067860245704651f,
    -0.07396820187568665f, 0.19732190668582916f, -0.5434103012084961f, 0.046950824558734894f, -0.018218204379081726f, 0.000608210451900959f, 0.007960837334394455f, 0.04708824306726456f,
    -0.03641919791698456f, -0.4226972758769989f, 0.1920749396085739f, -0.04091556742787361f, 0.23063504695892334f, 0.2914874255657196f, 0.047655124217271805f, -0.17589935660362244f,
    0.15754880011081696f, -1.7205488665700792e-38f, 3.007513006983245e-39f, -1.4169792744003046e-38f, 8.475097953787352e-39f, 1.983802821661536e-38f, 1.2145443351276272e-38f, 1.54157320501851e-38f,
    -6.009696875906663e-39f, 9.200183028570657e-40f, 1.3090425786275284e-38f, 6.423903886379507e-39f, -8.044286957810723e-39f, 0.0017545637674629688f, 0.0063359541818499565f, 0.013187571428716183f,
    0.020331228151917458f, 0.024105388671159744f, 0.021634407341480255f, 0.010224991478025913f, -0.006939394399523735f, -0.025929434224963188f, -0.041457146406173706f, -0.050943560898303986f,
    -0.05238174647092819f, -0.04547009617090225f, -0.0329757034778595f, -0.01804407499730587f, -0.005960376001894474f, 0.0033318728674203157f, 0.0071235536597669125f, 0.005948551930487156f,
    -0.0033473335206508636f, -0.019224317744374275f, -0.03519861772656441f, -0.042332276701927185f, -0.03745165094733238f, -0.023898474872112274f, -0.007161487825214863f, 0.010440983809530735f,
    0.026577433571219444f, 0.037220533937215805f, 0.03693658858537674f, 0.02424241229891777f, 0.008554607629776001f, -0.004235878121107817f, -0.013395162299275398f, -0.023507587611675262f,
    -0.028537549078464508f, -0.024907207116484642f, -0.013674642890691757f, 0.001738889841362834f, 0.020235547795891762f, 0.04091352969408035f, 0.05699783191084862f, 0.0604260116815567f,
    0.05136687308549881f, 0.03806934505701065f, 0.024944890290498734f, 0.013169367797672749f, 0.0039007943123579025f, 0.05395841598510742f, 0.002114507369697094f,
};

// ---------------------------------------------------------------------------
// Ampeg SVT Classic – Gain 10, Ultra Lo/Hi, MD 421 (A2 Nano, 1871 weights)
//   Source: Ampeg SVT - Gain 10 Ultra Lo and Hi MD 421.nam
//   SlimmableContainer submodel 0 (max_value=0.5, low-CPU)
// ---------------------------------------------------------------------------
// Ampeg SVT - Gain 10 Ultra Lo and Hi MD 421.nam (1871 weights)
NAM_A2_MODEL_DATA NAM_A2_ALIGN32
inline constexpr float kWeightsAmpegSvt[nam_a2_daisy::kA2WeightCount] = {
    -1.918067216873169f, -1.3604862689971924f, 1.6154484748840332f, 0.3477683663368225f, 0.12823903560638428f, 0.11653127521276474f, 0.03262615203857422f, -0.36670437455177307f,
    -0.7844194769859314f, 0.26786094903945923f, 0.022468900308012962f, -0.018294168636202812f, -0.027830159291625023f, -0.2556135356426239f, -0.5982497930526733f, -0.25361815094947815f,
    -0.00887370016425848f, -0.016014553606510162f, -0.07481894642114639f, 0.1911795735359192f, 0.6874911189079285f, 0.2915246784687042f, -0.46799615025520325f, -0.830572247505188f,
    -0.17393642663955688f, 0.15313968062400818f, 0.22261112928390503f, 0.45681530237197876f, -0.3606976866722107f, -0.6841822862625122f, -0.16319018602371216f, 0.13426029682159424f,
    0.10873112827539444f, -0.3086751103401184f, 0.47215554118156433f, 0.9912335872650146f, 0.17712047696113586f, -0.022391576319932938f, -0.1960373967885971f, -0.15892784297466278f,
    0.501153290271759f, 1.0423755645751953f, 0.23319143056869507f, -0.2892405092716217f, -0.3956744968891144f, -0.19186462461948395f, 0.6263008713722229f, 0.7912135720252991f,
    0.11606312543153763f, -0.3162422776222229f, -0.18263660371303558f, 0.20030106604099274f, -0.6153301000595093f, -0.7734672427177429f, -0.21108226478099823f, 0.25450941920280457f,
    0.2903730273246765f, 0.2103452831506729f, 1.0363761186599731f, 0.5078020095825195f, 0.36614590883255005f, 0.5105382204055786f, 0.23030303418636322f, -0.6099755764007568f,
    0.11259516328573227f, -0.6234291195869446f, -0.30531153082847595f, -1.0195943117141724f, 0.7705307006835938f, -0.05568452924489975f, 0.02145632728934288f, -0.27870234847068787f,
    0.16358020901679993f, 0.2649548351764679f, -0.44444531202316284f, 0.008621291257441044f, 0.04890469089150429f, -0.16511979699134827f, -0.37036287784576416f, 1.588658332824707f,
    -0.10276194661855698f, -0.15385204553604126f, -0.03393400087952614f, -0.31988778710365295f, -0.045264873653650284f, 0.16473431885242462f, 0.016787558794021606f, -0.11894171684980392f,
    -0.17411449551582336f, 0.0862276628613472f, -0.31503093242645264f, -0.6512134075164795f, -0.12992672622203827f, 0.0398397259414196f, -0.08415503054857254f, -0.13629461824893951f,
    -0.43308645486831665f, 0.8379642963409424f, -0.27405691146850586f, 0.03680240362882614f, 0.13412362337112427f, 0.054405517876148224f, -0.2996915578842163f, -0.12379202246665955f,
    0.1697656512260437f, -0.13084222376346588f, 0.06125257536768913f, -0.07352600246667862f, -0.05583516135811806f, -0.12241479009389877f, -0.24297823011875153f, -0.37769171595573425f,
    -0.15050621330738068f, -0.26193127036094666f, -0.29934123158454895f, 1.2651890516281128f, -0.40038034319877625f, 0.20516341924667358f, -0.23268792033195496f, -0.1241704672574997f,
    -0.11036794632673264f, 0.12207247316837311f, 0.3198840618133545f, 0.08000659942626953f, -0.015600744634866714f, 0.017720751464366913f, -0.0891452357172966f, -0.3319185972213745f,
    -0.2900654673576355f, 0.21679119765758514f, 0.052187729626894f, 0.2917720377445221f, -0.03311847895383835f, -0.253976970911026f, -0.5731676816940308f, -0.29440972208976746f,
    -0.5207439661026001f, -0.5498071908950806f, 0.8991603851318359f, 0.32537364959716797f, 0.5843562483787537f, 0.20837324857711792f, -0.36913615465164185f, -0.3156525492668152f,
    -0.09901253134012222f, -0.16458216309547424f, 0.300854355096817f, -0.1607089638710022f, -0.009235196746885777f, 0.006222846452146769f, -0.12524253129959106f, 0.028983943164348602f,
    0.18676446378231049f, -0.039142508059740067f, 0.06810756027698517f, 0.14250294864177704f, -0.23638245463371277f, 0.043101370334625244f, -0.0527300164103508f, -0.31009432673454285f,
    -0.09655413031578064f, -0.17661911249160767f, 0.02384432591497898f, -0.21243014931678772f, 0.07720384746789932f, 0.020479407161474228f, -0.2004924714565277f, -0.11222854256629944f,
    -0.2064277082681656f, -0.38824260234832764f, 0.2394203394651413f, -0.03160516917705536f, -0.027728116139769554f, -0.005522840190678835f, 0.05950923264026642f, 0.12089990079402924f,
    -0.1688678115606308f, 0.2312716543674469f, 0.344414621591568f, 0.11370231211185455f, -0.010305263102054596f, -0.2722092270851135f, 0.2237888127565384f, -0.09645263105630875f,
    -0.15525032579898834f, 0.08833090215921402f, -0.18830540776252747f, -0.20234979689121246f, -0.04189750552177429f, -0.02782762236893177f, -0.1666780263185501f, -0.07925938069820404f,
    -0.031265031546354294f, -0.00819789431989193f, -0.03552437573671341f, 0.22160878777503967f, 0.2513768970966339f, -0.09399248659610748f, 0.07291847467422485f, -0.11469610035419464f,
    -0.08371555805206299f, 0.18116196990013123f, 0.3530246913433075f, 0.2801685929298401f, 0.2200881987810135f, 0.8456135392189026f, 0.43173450231552124f, 0.11271247267723083f,
    0.33023908734321594f, -0.18929007649421692f, 0.05757744982838631f, -0.5765644907951355f, -0.2034284621477127f, -0.2896714508533478f, 0.13458527624607086f, 0.23117458820343018f,
    0.25676432251930237f, -0.05588579177856445f, -0.711621105670929f, -0.06537530571222305f, -0.2812388241291046f, -0.48559001088142395f, -0.33980023860931396f, -0.2644997537136078f,
    -0.5246188044548035f, -0.06054504215717316f, -0.154954731464386f, -0.3639940321445465f, -0.2317477911710739f, -0.13971422612667084f, -0.03302953392267227f, 0.16168689727783203f,
    0.20599645376205444f, -0.1889510452747345f, 0.08056158572435379f, -0.09966827929019928f, -0.33923080563545227f, -0.05557764694094658f, 0.10938838869333267f, -0.13351120054721832f,
    -0.22442449629306793f, -0.19244599342346191f, 0.6911518573760986f, 0.11355692148208618f, 0.15882034599781036f, 0.010759423486888409f, -0.0694359540939331f, 0.25323039293289185f,
    -0.1758689284324646f, -0.16001637279987335f, -0.061459288001060486f, -0.0883181169629097f, -0.02808547019958496f, -0.24572888016700745f, 0.24284495413303375f, -0.0665915235877037f,
    -0.22343918681144714f, -0.37666648626327515f, -0.3277758061885834f, -0.15490375459194183f, 0.4910103678703308f, -0.05254495516419411f, -0.13391593098640442f, -0.24921195209026337f,
    -0.10027571022510529f, -0.03318355605006218f, -0.290727436542511f, -0.26550018787384033f, -0.0484386570751667f, 0.02413831278681755f, 0.17224599421024323f, 0.013752222061157227f,
    0.01714884676039219f, 0.4474812150001526f, 0.05031777173280716f, 0.4956560432910919f, 0.47072941064834595f, -0.13081738352775574f, 0.05850996822118759f, 0.6173502206802368f,
    -0.2996045649051666f, -0.4201097786426544f, -0.39239129424095154f, -0.22636348009109497f, -0.5576384663581848f, 0.11619551479816437f, -0.25959312915802f, 0.13367442786693573f,
    0.5769097805023193f, 0.1766909509897232f, -0.43190228939056396f, 0.11796976625919342f, 0.21954604983329773f, 0.1562509834766388f, 0.09033957868814468f, -0.004324791952967644f,
    0.47611328959465027f, -0.038602832704782486f, -0.014393540099263191f, -0.012149278074502945f, 0.014166595414280891f, 0.11832354217767715f, 0.6458113193511963f, -0.0828656330704689f,
    0.019650958478450775f, -0.17929941415786743f, -0.3113892078399658f, -0.46342045068740845f, -0.2740931212902069f, 0.23493123054504395f, -0.26097288727760315f, -0.3360785245895386f,
    0.009386416524648666f, 0.3631793260574341f, -0.17219136655330658f, -0.07234436273574829f, -0.13863323628902435f, -0.043687500059604645f, -0.0058786324225366116f, -0.11474122107028961f,
    0.07932771742343903f, 0.18939992785453796f, 0.2390223890542984f, 0.2571790814399719f, 0.019403429701924324f, -0.18967865407466888f, -0.042866066098213196f, -0.6097757816314697f,
    -0.4675811529159546f, -0.76272052526474f, -0.25465643405914307f, -0.22912980616092682f, 0.5443180203437805f, -0.06026742234826088f, 0.03612905740737915f, -0.018506139516830444f,
    -0.036355454474687576f, 0.046918835490942f, 0.04382264241576195f, -0.09464617818593979f, -0.13237890601158142f, -0.1763305962085724f, -0.05486910045146942f, 0.025227991864085197f,
    -0.08454450964927673f, 0.35038626194000244f, -0.024675710126757622f, -0.2745981812477112f, -0.35646384954452515f, 0.3193567395210266f, -0.015319062396883965f, -0.3221769630908966f,
    0.42920753359794617f, -0.5552061200141907f, 0.4147402048110962f, 0.15608052909374237f, -0.3929053246974945f, -0.4165146052837372f, -0.493213027715683f, -0.19314496219158173f,
    0.43033695220947266f, -0.20335617661476135f, -0.22098372876644135f, 0.3884962499141693f, 0.07851515710353851f, 0.09092739969491959f, 0.59883052110672f, 0.2793000042438507f,
    -0.6948373317718506f, 0.2372892200946808f, 0.0022304290905594826f, 0.11056488752365112f, -0.03504948690533638f, -0.009062682278454304f, -0.2684897780418396f, -0.019993897527456284f,
    -0.13059648871421814f, 0.007022465113550425f, -0.016814935952425003f, -0.0034469387028366327f, -0.16702939569950104f, 0.23861446976661682f, 0.06381399184465408f, 0.058720577508211136f,
    0.06254372745752335f, 0.1584637314081192f, -0.46580103039741516f, 0.0630994662642479f, 0.07802039384841919f, 0.0712474137544632f, 0.05719109997153282f, 0.054851554334163666f,
    0.8676214814186096f, 0.13577096164226532f, 0.29366376996040344f, 0.2650911808013916f, 0.16004779934883118f, 0.10785829275846481f, -0.21517419815063477f, -0.2919027507305145f,
    -0.3194320499897003f, -0.22023820877075195f, -0.1014886125922203f, -0.34437838196754456f, 0.7774571180343628f, 0.01605253666639328f, -0.06897957623004913f, -0.014021634124219418f,
    -0.056456658989191055f, -0.02522086352109909f, -0.11785447597503662f, 0.06537321209907532f, -0.21137170493602753f, -0.12919066846370697f, -0.08958674967288971f, 0.06956534832715988f,
    -0.36685651540756226f, 0.18336530029773712f, -0.10891895741224289f, -0.06951342523097992f, -0.01943531259894371f, -0.07606030255556107f, -0.1736522912979126f, 0.38790398836135864f,
    0.07436448335647583f, -0.4435335099697113f, 0.3368978202342987f, -0.8479650616645813f, -0.40431106090545654f, 0.54575115442276f, 0.4222469627857208f, 0.13140001893043518f,
    0.16135059297084808f, 0.7354851365089417f, 0.038175068795681f, 0.014812345616519451f, -0.01793443039059639f, 0.09966082870960236f, 0.08603326231241226f, 0.5116859674453735f,
    0.3069480061531067f, -0.07683612406253815f, -0.009003094397485256f, -0.05158305913209915f, -0.0039616781286895275f, -0.0896613597869873f, 0.06981004029512405f, -0.21886050701141357f,
    -0.06025724485516548f, -0.15045058727264404f, -0.049346718937158585f, -0.40034931898117065f, 0.0767890140414238f, 0.25413966178894043f, 0.3693810999393463f, 0.23649346828460693f,
    0.12117832154035568f, 0.2668534517288208f, 0.197191521525383f, 0.1405494064092636f, 0.04122953489422798f, 0.03166710585355759f, -0.08151539415121078f, -0.030020123347640038f,
    -0.08678048849105835f, 0.1665293276309967f, -0.08811619132757187f, 0.05679265037178993f, -0.2066584974527359f, -0.07307732105255127f, -0.10235513746738434f, -0.128223717212677f,
    -0.09517904371023178f, -0.21036405861377716f, -0.242850661277771f, -0.0874977856874466f, -0.38060733675956726f, -0.21193669736385345f, -0.030847474932670593f, -0.010157160460948944f,
    0.005943694151937962f, 0.008796858601272106f, -0.36602649092674255f, -0.48188742995262146f, -0.131614089012146f, -0.10219773650169373f, 0.0005790591822005808f, -0.12975230813026428f,
    -0.518129825592041f, 0.19893686473369598f, 0.06981459259986877f, 0.3548813760280609f, 0.17603322863578796f, 0.3745587468147278f, -0.4314623177051544f, -0.4342432916164398f,
    0.0992225855588913f, 0.46413978934288025f, 0.03265056386590004f, -0.2196030616760254f, 0.4722907543182373f, -0.5207903385162354f, -0.6074284315109253f, 0.7250017523765564f,
    0.04293807968497276f, 0.6034312844276428f, -0.25220227241516113f, -0.07327235490083694f, 0.06674317270517349f, -0.17236921191215515f, 0.2989464998245239f, 0.22924229502677917f,
    0.3819018304347992f, 0.10832245647907257f, 0.08408879488706589f, 0.29612964391708374f, -0.2492411732673645f, -0.27411332726478577f, -0.5296487212181091f, 0.02985316514968872f,
    0.0888071283698082f, -0.16174805164337158f, 0.09771516174077988f, 0.21718990802764893f, 0.6227477192878723f, -0.08231743425130844f, 0.04708032310009003f, 0.2158408910036087f,
    -0.025941111147403717f, 0.3928920030593872f, 0.45749834179878235f, -0.05424383655190468f, 0.22795623540878296f, 0.054509781301021576f, 0.1437646597623825f, -0.18879961967468262f,
    -0.22073638439178467f, 0.04636127129197121f, 0.19258539378643036f, -0.05047815665602684f, 0.0372772291302681f, -0.11870156973600388f, 0.1696350872516632f, 0.13609679043293f,
    -0.06787038594484329f, -0.010831959545612335f, -0.07045742124319077f, 0.011164619587361813f, -0.0010690662311390042f, 0.09518956393003464f, -0.060264863073825836f, 0.21850547194480896f,
    0.15400616824626923f, -0.12547826766967773f, -0.20013423264026642f, -0.036247618496418f, -0.02808615006506443f, -0.10957083106040955f, -0.2074820101261139f, 0.09973286837339401f,
    0.06053503230214119f, -0.03314117714762688f, 0.5981239080429077f, -0.6564485430717468f, 0.19478775560855865f, 0.4824722111225128f, -0.6347531676292419f, -0.43269702792167664f,
    -0.230178102850914f, 0.32990607619285583f, 0.3785587549209595f, -0.5227168202400208f, -0.568760335445404f, -0.18397776782512665f, 0.1873248666524887f, 0.4129910469055176f,
    -0.15738210082054138f, 0.2883698046207428f, 0.06183427944779396f, -0.04377506300806999f, -0.085579052567482f, 0.150296151638031f, 0.41887927055358887f, -0.030366478487849236f,
    -0.4350556433200836f, -0.06951391696929932f, 0.030633505433797836f, -0.024546930566430092f, -0.2357322722673416f, 0.009787176735699177f, 0.30123308300971985f, -0.14825861155986786f,
    -0.07389098405838013f, 0.17441870272159576f, 0.029009969905018806f, 0.08134006708860397f, -0.09919461607933044f, 0.13003110885620117f, 0.12436932325363159f, 0.0070432573556900024f,
    0.2450394481420517f, 0.2461356520652771f, 0.08475270122289658f, 0.13464267551898956f, 0.05012837424874306f, 0.15035121142864227f, -0.17871570587158203f, -0.066127248108387f,
    0.20494922995567322f, -0.10082381218671799f, 0.19555982947349548f, 0.16207757592201233f, 0.054432231932878494f, -0.08671331405639648f, -0.0033661136403679848f, -0.0912134051322937f,
    -0.04397951811552048f, 0.10467889904975891f, 0.06088751554489136f, 0.34676647186279297f, -0.194977268576622f, -0.09735707938671112f, -0.025257576256990433f, -0.07790997624397278f,
    0.07006357610225677f, 0.21475908160209656f, 0.5111088156700134f, -0.09193949401378632f, -0.15295904874801636f, -0.1747169941663742f, 0.06183290481567383f, -0.09370923787355423f,
    -0.42468225955963135f, -0.17963586747646332f, 0.6246284246444702f, 0.5917364954948425f, 0.4771530330181122f, -0.033400364220142365f, -0.4040033519268036f, 0.0829777643084526f,
    -0.4062482416629791f, -0.4110855460166931f, 0.6860479712486267f, 0.3394511342048645f, 0.6698822975158691f, -0.4634591042995453f, 0.24138504266738892f, -0.1413867026567459f,
    -0.6154909729957581f, -0.1580112725496292f, 0.2104916274547577f, 0.025699947029352188f, -0.12156171351671219f, -0.16364383697509766f, -0.2178773581981659f, 0.11256598681211472f,
    -0.013723076321184635f, 0.019207170233130455f, 0.1914101243019104f, 0.13186661899089813f, 0.03704264014959335f, 0.015725689008831978f, -0.05484175682067871f, -0.020362362265586853f,
    -0.030857184901833534f, -0.161885604262352f, 0.24301926791667938f, -0.0879165381193161f, 0.10173492133617401f, -0.061723481863737106f, -0.053960997611284256f, -0.055339645594358444f,
    0.03263908252120018f, 0.06349605321884155f, 0.1072908416390419f, 0.0144791379570961f, -0.0038853089790791273f, 0.008236694149672985f, -0.006431030109524727f, 0.0025567160919308662f,
    -0.7054789066314697f, 0.08977653086185455f, 0.009004952386021614f, 0.06901863217353821f, -0.006801445037126541f, 0.084505096077919f, 0.6269631385803223f, -0.07389567792415619f,
    0.00823595654219389f, -0.05777471140027046f, -0.05114123597741127f, -0.16350962221622467f, 0.20560793578624725f, -0.1512947976589203f, -0.11664873361587524f, -0.12378018349409103f,
    0.08834271878004074f, -0.22638922929763794f, 0.19833962619304657f, -0.20387475192546844f, -0.1603030562400818f, -0.41054636240005493f, -0.31446754932403564f, -0.16838015615940094f,
    0.19751882553100586f, 0.23141926527023315f, -0.7081700563430786f, 0.3385263681411743f, -0.05619549751281738f, 0.48926493525505066f, 0.1618034839630127f, -0.10178481787443161f,
    0.6469577550888062f, -0.20720602571964264f, 0.2312156856060028f, 1.025833249092102f, -0.14182063937187195f, 0.06720204651355743f, -0.4980420470237732f, -0.3747657239437103f,
    -0.6848862767219543f, -0.6123010516166687f, -0.1483604907989502f, 0.016844328492879868f, -0.05585663393139839f, -0.26349425315856934f, 0.018837250769138336f, -0.24995572865009308f,
    -0.017245683819055557f, -0.07246890664100647f, 0.09963521361351013f, 0.1184796690940857f, 0.17354673147201538f, -0.01106315478682518f, -0.11569414287805557f, 0.15431377291679382f,
    0.15862984955310822f, 0.1903715282678604f, 0.18066789209842682f, 0.07455014437437057f, -0.17018012702465057f, 0.005115790758281946f, 0.12322752922773361f, 0.058612119406461716f,
    0.09081174433231354f, 0.10540421307086945f, -0.22883673012256622f, -0.149415984749794f, -0.00942490715533495f, -0.17420494556427002f, -0.1754952371120453f, -0.0443667471408844f,
    0.12535139918327332f, -0.07210220396518707f, -0.01718876324594021f, 0.02762317843735218f, 0.014363680966198444f, 0.052094705402851105f, 0.03629782795906067f, 0.04366821423172951f,
    0.1271734982728958f, 0.07685647159814835f, 0.12076380848884583f, 0.17741237580776215f, 0.22436676919460297f, -0.06416388601064682f, -0.125138059258461f, -0.13006696105003357f,
    -0.10492131859064102f, 0.02020329236984253f, -0.27040693163871765f, 0.024160286411643028f, 0.017221136018633842f, 0.0669960081577301f, -0.0551140271127224f, -0.1651579737663269f,
    -0.16907620429992676f, 0.2948308289051056f, -0.044373754411935806f, -0.06427057832479477f, 0.0681866779923439f, -0.01713586412370205f, 0.04968159645795822f, -0.3021423816680908f,
    0.05868397653102875f, 0.4904637634754181f, -0.03550737351179123f, 0.31709277629852295f, -0.001669766497798264f, 0.07993917912244797f, -0.1560336947441101f, 0.09764580428600311f,
    -0.3545133173465729f, -0.3200802206993103f, -0.06371545046567917f, 0.5275977849960327f, 0.1989670693874359f, -0.1350603699684143f, 0.0750688910484314f, 0.04573109373450279f,
    -0.010320299305021763f, -0.19578032195568085f, -0.08571004867553711f, 0.05662914738059044f, 0.018272869288921356f, -0.08767867833375931f, 0.01862012781202793f, -0.0019029249669983983f,
    -0.12678316235542297f, -0.07634740322828293f, -0.08529562503099442f, -0.05633736029267311f, -0.03138849884271622f, -0.20708326995372772f, -0.16411714255809784f, -0.3733421862125397f,
    -0.30724847316741943f, -0.0383855402469635f, 0.03899265080690384f, 0.07356331497430801f, 0.12935975193977356f, 0.297603577375412f, 0.15317267179489136f, -0.008421683683991432f,
    -0.009652174077928066f, 0.02388703264296055f, 0.18209783732891083f, 0.23033224046230316f, 0.2190583050251007f, -0.11447630077600479f, 0.16745170950889587f, -0.1654408574104309f,
    0.038332756608724594f, 0.0883653536438942f, -0.07549243420362473f, -0.02886763960123062f, 0.1778709888458252f, 0.02616792544722557f, 0.03014984540641308f, 0.06755639612674713f,
    0.05635403096675873f, -0.021146409213542938f, -0.668792188167572f, 0.2860476076602936f, 0.1484745442867279f, 0.1887614130973816f, 0.14935530722141266f, 0.03039884939789772f,
    -0.07150193303823471f, 0.029711611568927765f, 0.2634756565093994f, 0.33769792318344116f, 0.02476309984922409f, -0.09239142388105392f, 0.5146087408065796f, 0.130779430270195f,
    -0.44704198837280273f, 0.06633927673101425f, 0.4178476333618164f, -0.16395047307014465f, 0.5435168147087097f, -0.20724162459373474f, -0.0879720076918602f, -0.09295208752155304f,
    -0.8002268671989441f, -0.6200608015060425f, -0.5432731509208679f, -0.20157229900360107f, -0.13498727977275848f, 0.07309137284755707f, -0.010511860251426697f, -0.0007555581978522241f,
    0.18530058860778809f, -0.026677735149860382f, -0.05760487914085388f, -0.2602650225162506f, 0.030983898788690567f, -0.006725254002958536f, 0.17500826716423035f, 0.08184437453746796f,
    0.01671038381755352f, 0.06475424766540527f, 0.20644885301589966f, -0.11020752787590027f, 0.20937208831310272f, 0.12876415252685547f, 0.007990684360265732f, -0.055043112486600876f,
    -0.04376998543739319f, 0.009132658131420612f, -0.12608210742473602f, 0.002375661628320813f, -0.09928637742996216f, -0.16704154014587402f, 0.04811282083392143f, -0.15765449404716492f,
    0.16252024471759796f, -0.15372273325920105f, -0.532724142074585f, -0.7878579497337341f, -0.40387776494026184f, -0.4086988568305969f, -0.2749064564704895f, 0.07841561734676361f,
    -0.12675166130065918f, -0.15129584074020386f, 0.06765396147966385f, 0.324494332075119f, 0.2745002806186676f, -0.045544303953647614f, -0.11251804232597351f, -0.07075870782136917f,
    -0.013649252243340015f, -0.049926143139600754f, -0.02375555783510208f, -0.03453980013728142f, 0.10171405971050262f, 0.0022742305882275105f, -0.02448205091059208f, -0.24963125586509705f,
    -0.38367900252342224f, 0.13209284842014313f, 0.2323552966117859f, -0.08990173786878586f, 0.0652294009923935f, 0.44843801856040955f, 0.07391224801540375f, -0.17230454087257385f,
    -0.09923163801431656f, 0.47715404629707336f, -0.13490639626979828f, 0.32340216636657715f, 0.08998046070337296f, -0.03157681226730347f, 0.7905011177062988f, 0.4735320806503296f,
    -0.7139109373092651f, -0.1797541081905365f, -0.07471707463264465f, -0.13786141574382782f, -0.22242912650108337f, -0.3115961253643036f, -0.29590460658073425f, -0.4878697395324707f,
    0.2532414495944977f, -0.008506400510668755f, -0.017815398052334785f, -0.05519597977399826f, -0.045416172593832016f, -0.09607091546058655f, -1.4896364212036133f, 0.06237602233886719f,
    -0.0650123730301857f, -0.03520636260509491f, -0.0004763538599945605f, 0.04547322914004326f, 0.36356380581855774f, 0.06294206529855728f, 0.042773839086294174f, -0.15626299381256104f,
    -0.3870788812637329f, -0.30178654193878174f, 0.08886124193668365f, 0.09167174994945526f, -0.00674359779804945f, -0.019270310178399086f, -0.07228538393974304f, -0.020377252250909805f,
    -0.023415150120854378f, 0.7030641436576843f, 0.17124369740486145f, 0.06767354905605316f, -0.032751962542533875f, -0.01300568226724863f, -0.22675615549087524f, -0.07364467531442642f,
    -0.09897982329130173f, -0.1717931479215622f, -0.18412485718727112f, -0.34384670853614807f, 0.15813757479190826f, 0.18157273530960083f, 0.10207118839025497f, -0.2021060436964035f,
    -0.0739588811993599f, -0.11322088539600372f, 0.05731762945652008f, -0.6116855144500732f, -0.5036146640777588f, -0.29277950525283813f, -0.18981844186782837f, 0.003661061404272914f,
    0.5149945616722107f, 1.0253782272338867f, 0.28614872694015503f, 0.11547911912202835f, 0.5545691847801208f, 0.22201868891716003f, 0.08145632594823837f, 0.45755723118782043f,
    -0.4753747582435608f, -0.27822965383529663f, -1.3469674587249756f, 0.7103126049041748f, -0.19081902503967285f, -0.04825969040393829f, 0.1486256867647171f, -0.7101831436157227f,
    -0.8629544377326965f, 0.034761201590299606f, 0.4657456576824188f, -0.3248245418071747f, -0.1614246964454651f, -0.06129000335931778f, -0.12741319835186005f, -0.19123131036758423f,
    -0.2481366991996765f, -0.07805955410003662f, -0.15062299370765686f, -0.41134002804756165f, -0.33062511682510376f, -0.22787036001682281f, -0.05648493766784668f, -0.1702108234167099f,
    -0.01859714463353157f, -0.11098022013902664f, 0.4041227400302887f, 0.13539960980415344f, 0.01931414008140564f, 0.21814920008182526f, 0.12609954178333282f, -0.7363987565040588f,
    -1.2008651494979858f, -0.4787294268608093f, 0.49286898970603943f, 0.5358021855354309f, 0.12921655178070068f, -0.19007663428783417f, -0.292053759098053f, -0.30091938376426697f,
    -0.014127617701888084f, -0.21948319673538208f, -0.3714632987976074f, -0.4319641888141632f, -0.23982448875904083f, 0.026617836207151413f, 0.1723819375038147f, 0.16069670021533966f,
    0.18535193800926208f, 0.17740875482559204f, 0.095648854970932f, 0.006003709975630045f, -0.029039617627859116f, -0.012109699659049511f, 0.04437973350286484f, 0.16952332854270935f,
    -0.006190640386193991f, -0.014345151372253895f, 0.21865618228912354f, 0.13734330236911774f, -0.010051104240119457f, -0.09168465435504913f, -0.05904563516378403f, 0.009608738124370575f,
    -0.00398833304643631f, 0.06048028543591499f, 0.1527491956949234f, 0.06812286376953125f, -0.04434528574347496f, 0.03300342708826065f, -0.017130356281995773f, 0.35102346539497375f,
    -0.016099492087960243f, -0.33591604232788086f, -0.33600887656211853f, -0.09406515210866928f, -0.06045091152191162f, 0.009361202828586102f, 0.044952668249607086f, -0.035815466195344925f,
    0.12349288165569305f, -0.12758605182170868f, 0.05093194171786308f, -0.03398379310965538f, 0.07216596603393555f, -0.011009635403752327f, -0.13481011986732483f, -0.07718777656555176f,
    -0.09860754758119583f, -0.11939485371112823f, -0.04401007294654846f, 0.013876580633223057f, 0.015534093603491783f, -0.025534354150295258f, -0.021079353988170624f, 0.0021089862566441298f,
    -0.008969840593636036f, -0.02265237458050251f, -0.05220865085721016f, -0.10288386046886444f, -0.15338943898677826f, 0.0731380432844162f, 0.07348200678825378f, 0.07244385778903961f,
    0.06761187314987183f, 0.06553356349468231f, 0.06794718652963638f, 0.06706977635622025f, 0.0650714561343193f, 0.06835092604160309f, 0.07358412444591522f, 0.07627671957015991f,
    0.07992512732744217f, 0.08907172083854675f, 0.09930276870727539f, 0.11237259954214096f, 0.004957370925694704f, 0.015443657524883747f, 0.01917843520641327f, 0.0056043206714093685f,
    -0.004030509386211634f, -0.00665012001991272f, -0.015748606994748116f, -0.002317962469533086f, -0.01322572398930788f, -0.002590649062767625f, 0.000708197068888694f, -0.0217007864266634f,
    -0.032407891005277634f, -0.041735850274562836f, -0.050518620759248734f, -0.07656526565551758f, -0.07305847853422165f, -0.06916838884353638f, -0.06463544070720673f, -0.060604970902204514f,
    -0.057486485689878464f, -0.054886650294065475f, -0.05431989207863808f, -0.05455499887466431f, -0.05715729668736458f, -0.059700559824705124f, -0.06217769905924797f, -0.06509646028280258f,
    -0.06871890276670456f, -0.07148368656635284f, 0.41254377365112305f, 0.019748838618397713f, -0.0143878860399127f, 0.055651139467954636f, 0.059971097856760025f, 0.00917910784482956f,
    -0.6312945485115051f, -0.4559131860733032f, -0.44060805439949036f, -0.1500367373228073f, -0.04842667281627655f, 0.08820434659719467f, -0.16388197243213654f, 0.28761783242225647f,
    -0.09726563096046448f, -0.06582561135292053f, 0.16275745630264282f, 0.371386855840683f, -0.0913105383515358f, -0.04875318333506584f, 0.050166670233011246f, -0.1502091884613037f,
    -0.07249375432729721f, -0.13461261987686157f, -0.0036849265452474356f, -0.22856804728507996f, -0.054072409868240356f, -0.11920394003391266f, -0.26937568187713623f, 0.07692067325115204f,
    -0.01268855482339859f, -0.08521514385938644f, -0.17076267302036285f, -0.05385268107056618f, -0.08068884164094925f, 0.1722838431596756f, 0.17498566210269928f, 0.029578138142824173f,
    0.3114306628704071f, 0.07597191631793976f, -0.02948741242289543f, -0.09555090963840485f, 0.39153024554252625f, 0.009628087282180786f, -0.3205793499946594f, -0.2626979351043701f,
    -0.81986403465271f, 0.09382260590791702f, 0.30062952637672424f, 0.18370583653450012f, 0.04634876549243927f, -0.1659468412399292f, 0.030008884146809578f, 0.15929986536502838f,
    0.1887550950050354f, 0.012961982749402523f, -0.06507069617509842f, 0.0320037305355072f, 0.10117041319608688f, 0.09913299977779388f, 0.2899499535560608f, 0.3953544497489929f,
    -0.2522507309913635f, -0.021872494369745255f, 0.06445061415433884f, -0.041683804243803024f, 0.09022035449743271f, -0.10619240254163742f, 0.033761050552129745f, -0.1551305055618286f,
    0.027304086834192276f, 0.0373225100338459f, -0.17392566800117493f, -0.07702427357435226f, -0.16015245020389557f, -0.20978794991970062f, -0.12298203259706497f, -0.014455647207796574f,
    -0.0062181176617741585f, 0.07063809782266617f, -0.1531258076429367f, -0.3641296327114105f, -0.2319796085357666f, -0.24174225330352783f, -0.26128464937210083f, -0.28296762704849243f,
    -0.01673964411020279f, -0.001292428933084011f, -0.2744362950325012f, 0.21287257969379425f, -0.48772817850112915f, 0.5793561935424805f, -0.3215840756893158f, -0.010240037925541401f,
    0.167046919465065f, 0.4531087577342987f, 0.561672568321228f, 0.005717087537050247f, -0.11799444258213043f, -0.21037261188030243f, 0.11496704071760178f, 0.17011165618896484f,
    0.01365732867270708f, -0.017013181000947952f, -0.07849321514368057f, -0.14307403564453125f, -0.17357942461967468f, 0.21931132674217224f, -0.08194053173065186f, 0.04395990073680878f,
    0.07698293030261993f, -0.08620824664831161f, -0.13069769740104675f, -0.1441648304462433f, 0.02573571912944317f, 0.12639252841472626f, -0.029469070956110954f, -0.05900401994585991f,
    -0.14926016330718994f, -0.14385485649108887f, -0.025713587179780006f, 0.018998345360159874f, -0.2896462380886078f, 0.020242560654878616f, -0.026980053633451462f, -0.051967330276966095f,
    -0.13135696947574615f, -0.06422846019268036f, 0.06703533977270126f, -0.032655250281095505f, 0.18885575234889984f, 0.3752286434173584f, 0.2523544430732727f, -0.01772916130721569f,
    -0.054058995097875595f, 0.09863239526748657f, -0.2409818321466446f, -0.04276060685515404f, -0.06988014280796051f, -0.15868587791919708f, -0.027262864634394646f, -0.07640641182661057f,
    -0.13846135139465332f, -0.10346554964780807f, 0.33680784702301025f, 0.16723677515983582f, 0.11812091618776321f, -0.13227063417434692f, 0.08721015602350235f, 0.09565857797861099f,
    0.35773488879203796f, 0.4852690100669861f, -0.2572953402996063f, 0.042759545147418976f, 0.27819642424583435f, 0.26733583211898804f, 0.16827410459518433f, -0.12786968052387238f,
    0.13636599481105804f, 0.47708797454833984f, 0.07625935971736908f, 0.35379263758659363f, 0.2536529004573822f, 0.1358509361743927f, 0.5356494188308716f, -0.16415804624557495f,
    -0.4528091549873352f, 0.03127412497997284f, -0.08873055875301361f, 0.18296504020690918f, 0.2253585010766983f, -0.17188888788223267f, -0.07375767827033997f, 0.14458432793617249f,
    0.043832745403051376f, -0.17156310379505157f, -0.0178050696849823f, 0.21470333635807037f, 0.055764369666576385f, -0.011210523545742035f, 0.04062008112668991f, 0.06670904159545898f,
    0.07419197261333466f, 0.16383351385593414f, 0.06197548657655716f, 0.10073050111532211f, -0.09294912219047546f, 0.0816025510430336f, -0.059138283133506775f, 0.08547594398260117f,
    -0.19259965419769287f, -0.32711347937583923f, -0.1758171170949936f, -0.005772291216999292f, 0.006487241014838219f, 0.06016692519187927f, 0.13225698471069336f, 0.2015141099691391f,
    -0.03673047944903374f, -0.13966476917266846f, -0.12516753375530243f, -0.269369900226593f, -0.2567286789417267f, -0.04638807475566864f, -0.19900327920913696f, 0.1636793166399002f,
    -0.16710501909255981f, -0.28010836243629456f, -0.1775626391172409f, -0.03718048706650734f, -0.17284297943115234f, -0.2607956528663635f, 0.03416963666677475f, -0.30031514167785645f,
    0.07940004020929337f, 0.26372823119163513f, 0.05223517492413521f, 0.19025075435638428f, -0.10639045387506485f, -0.18377509713172913f, -0.23857520520687103f, 0.03982981666922569f,
    0.0504789762198925f, -0.17634645104408264f, -0.33663812279701233f, 0.6231956481933594f, 0.145424947142601f, 0.5951789617538452f, 0.07495483011007309f, -0.16377072036266327f,
    0.09966351836919785f, -0.3387019634246826f, 0.2548052668571472f, 0.4468482434749603f, 0.4736464321613312f, -0.24826110899448395f, 0.6399956941604614f, -0.0846087858080864f,
    -0.059439368546009064f, -0.22708050906658173f, 0.6250118613243103f, -0.025890657678246498f, 0.1407349556684494f, -0.09538226574659348f, 0.2615923285484314f, 0.023989271372556686f,
    0.11130391061306f, 0.4170193076133728f, 0.002087449189275503f, 0.23180170357227325f, -0.049543384462594986f, -0.11300313472747803f, -0.3491044342517853f, 0.07762293517589569f,
    0.13937972486019135f, -0.07887589931488037f, 0.053211260586977005f, -0.12888097763061523f, 0.028463831171393394f, -0.08172255754470825f, -0.13682377338409424f, 0.1369582712650299f,
    -0.026392990723252296f, -0.06092851981520653f, -0.19857287406921387f, -0.31694138050079346f, -0.06920447200536728f, 0.23599493503570557f, 0.18969771265983582f, 0.14272883534431458f,
    -0.21335144340991974f, 0.09002094715833664f, 0.09666558355093002f, 0.008113131858408451f, -0.1830582469701767f, 0.07384589314460754f, -0.11541281640529633f, 0.11650008708238602f,
    0.04170007258653641f, 0.44303110241889954f, 0.21152427792549133f, 0.20859695971012115f, 0.502165675163269f, -0.031085599213838577f, 0.2495819628238678f, 0.32610422372817993f,
    -0.048264630138874054f, -0.4842053949832916f, -0.13022828102111816f, 0.25598254799842834f, -0.09429166465997696f, -0.13112862408161163f, -0.22864890098571777f, -0.12051137536764145f,
    -0.026510488241910934f, -0.1624889373779297f, -0.0762382298707962f, 0.11691006273031235f, -0.012859510257840157f, 0.3266289532184601f, 0.06437062472105026f, -0.09673172980546951f,
    0.0044779591262340546f, 0.4079478979110718f, 0.31695786118507385f, 0.6432083249092102f, -0.06929384917020798f, -0.10488363355398178f, -0.26887261867523193f, -0.4639316201210022f,
    0.08785947412252426f, 0.4078156650066376f, 0.2809825539588928f, 0.29012539982795715f, 0.6583497524261475f, -0.04918449744582176f, -0.05395541712641716f, -0.06328125298023224f,
    -0.07889974117279053f, -0.04210079461336136f, -0.05506553128361702f, -0.032242149114608765f, -0.025486918166279793f, 0.006725525017827749f, -0.018358292058110237f, -0.05042588710784912f,
    -0.030223330482840538f, 0.016071859747171402f, -0.020938418805599213f, -0.027009816840291023f, -0.015841765329241753f, 0.005971473176032305f, 0.001586148631758988f, -0.22992515563964844f,
    0.17105284333229065f, 0.08053500950336456f, 0.13519948720932007f, -0.14291928708553314f, 0.1985178142786026f, 0.04394428804516792f, -0.048325762152671814f, 0.1945483386516571f,
    0.4020816683769226f, 0.1599225252866745f, -0.060524459928274155f, -0.08575455844402313f, 0.21916624903678894f, -0.1256333589553833f, 0.01790645532310009f, -0.24861562252044678f,
    0.18898805975914001f, 0.06211119517683983f, -0.08426589518785477f, -0.12575651705265045f, -0.04887174442410469f, -0.18036048114299774f, -0.36262914538383484f, -0.15584369003772736f,
    -0.04242702201008797f, -0.01817956194281578f, 0.11979084461927414f, 0.2715966999530792f, 0.15014459192752838f, -0.12320708483457565f, -0.22289080917835236f, -0.14830324053764343f,
    -0.033408936113119125f, 0.05917709320783615f, -0.09031596034765244f, -0.0007385561475530267f, -0.04554351791739464f, -0.31566497683525085f, 0.0005932379863224924f, -0.06332769244909286f,
    -0.13499398529529572f, -0.010694879107177258f, -0.6362082958221436f, 0.5526211261749268f, -0.0002615640696603805f, 0.1375662088394165f, -0.32486826181411743f, -0.007089356426149607f,
    0.40529492497444153f, 0.0697966068983078f, 0.006487238220870495f, 0.5439152717590332f, 0.417723149061203f, -0.1986999809741974f, 0.12053333222866058f, -0.06018323078751564f,
    0.04940393939614296f, -0.11255238205194473f, 0.3721185028553009f, 0.1569807380437851f, 0.35167574882507324f, 0.10250990837812424f, 0.14112906157970428f, 0.34730225801467896f,
    -0.09420037269592285f, -0.04987960681319237f, 0.04883133992552757f, 0.06660636514425278f, 0.27237826585769653f, 0.35829034447669983f, -0.03993886709213257f, 0.02009757049381733f,
    0.1560434103012085f, 0.018965810537338257f, -0.15089155733585358f, 0.03295543044805527f, 0.0266187135130167f, 0.05767620727419853f, -0.12244876474142075f, 0.13019081950187683f,
    0.17770688235759735f, 0.2615003287792206f, -0.14973407983779907f, 0.08286166936159134f, 0.2512204349040985f, -0.08782552182674408f, 0.00594135420396924f, -0.1993609368801117f,
    -0.15427187085151672f, -0.4174463152885437f, 0.34692758321762085f, -0.08324608951807022f, -0.3256084620952606f, 0.5009972453117371f, 0.6421801447868347f, 0.06586261093616486f,
    0.5447077751159668f, 0.005245211534202099f, 0.0806310623884201f, 0.3068767488002777f, -0.015505305491387844f, 0.31904828548431396f, 0.17350682616233826f, -0.40789955854415894f,
    -0.015339414589107037f, -0.1336578130722046f, 0.3250008523464203f, 0.30993396043777466f, 0.11074025928974152f, 0.01879917085170746f, 0.11515068262815475f, -0.07730337232351303f,
    -0.027170218527317047f, -0.3801923394203186f, -0.17904497683048248f, -0.12369030714035034f, 0.5046277642250061f, 0.5967769026756287f, -0.3238788843154907f, 0.1195007935166359f,
    0.37202712893486023f, 0.27747100591659546f, -0.02170247957110405f, 0.0976126492023468f, 0.12010304629802704f, 0.10139917582273483f, -0.14827845990657806f, -0.07905787229537964f,
    -0.29473286867141724f, -0.10946761816740036f, 0.07345886528491974f, -0.3106797933578491f, 0.0125211076810956f, 0.15159982442855835f, 0.046103790402412415f, -0.1774030476808548f,
    -0.21522779762744904f, -0.1177014485001564f, 0.07749830931425095f, 0.1087079718708992f, 0.16630399227142334f, 0.11701464653015137f, 0.008333350531756878f, -0.11060988903045654f,
    0.2414121776819229f, 0.15614314377307892f, 0.30062544345855713f, 0.04699258878827095f, -0.11750258505344391f, 0.22131139039993286f, 0.0700463280081749f, -0.18998916447162628f,
    -0.1093420758843422f, 0.2051670402288437f, 0.14952294528484344f, 0.26122960448265076f, -0.10147283226251602f, 0.18126128613948822f, -0.16020190715789795f, -0.10299690812826157f,
    -0.017787225544452667f, -0.1592707335948944f, -0.09183485060930252f, -0.06846117228269577f, -0.016825813800096512f, 0.5163372755050659f, 0.14260365068912506f, 0.1407255083322525f,
    0.253637433052063f, -0.012151319533586502f, 0.21541881561279297f, -0.13313820958137512f, 0.46963778138160706f, 0.3087412118911743f, 0.09753977507352829f, 0.29615160822868347f,
    0.0008817035122774541f, -0.02005232311785221f, 0.4987291097640991f, -0.03975197300314903f, -0.15212388336658478f, 0.14539243280887604f, 0.04461914300918579f, -0.024806886911392212f,
    -0.037447407841682434f, -0.09131702780723572f, -0.018995733931660652f, -0.12841029465198517f, -0.1854805201292038f, 0.3165068030357361f, -1.0690217018127441f, -0.43837445974349976f,
    0.2815048098564148f, -0.3385362923145294f, 0.3163994550704956f, -0.10130134969949722f, 0.0025553142186254263f, -0.08038267493247986f, 0.01817373000085354f, 0.08225797861814499f,
    0.10346084088087082f, -0.2783015966415405f, -0.0067551638931035995f, -0.20325005054473877f, -0.266875684261322f, -0.1390077769756317f, 0.2927080988883972f, 0.44693323969841003f,
    0.2012677639722824f, -0.2825201749801636f, -0.23383097350597382f, -0.12385232001543045f, 0.37707024812698364f, 0.24435369670391083f, 0.1296049952507019f, 0.06855916976928711f,
    -0.012484276667237282f, -0.07800495624542236f, -0.10821167379617691f, 0.26646703481674194f, 0.007078893948346376f, 0.2031053900718689f, 0.25938481092453003f, 0.13338105380535126f,
    -0.30051979422569275f, -0.42927277088165283f, -0.191767618060112f, 0.2826780676841736f, 0.2347591668367386f, 0.11821472644805908f, -0.3451106548309326f, -0.23437295854091644f,
    -0.13373146951198578f, 0.05057400092482567f, 0.06094273552298546f, 0.18657152354717255f, -0.22287535667419434f, 0.14643548429012299f, -0.11440049856901169f, -0.02056286297738552f,
    -0.09866131097078323f, -0.1571478545665741f, -0.27783164381980896f, -0.0014964932342991233f, -0.12207383662462234f, 0.026269540190696716f, -0.14647448062896729f, -0.1284838169813156f,
    -0.06551306694746017f, -0.11062122881412506f, 0.29281923174858093f, 0.020433783531188965f, 0.1323007345199585f, 0.22608444094657898f, 0.08273757994174957f, -0.021856239065527916f,
    -0.012129919603466988f, -0.6025931239128113f, 0.6627500057220459f, -0.6412213444709778f, 0.16937941312789917f, -0.1499911993741989f, 0.13521690666675568f, 0.7081493735313416f,
    -0.686174750328064f, 0.1342836618423462f, 0.1423536241054535f, 0.05780186131596565f, 0.23649801313877106f, -0.04417858272790909f, 0.12878218293190002f, -0.058331627398729324f,
    -0.01374732330441475f, 0.486835241317749f, 0.047880809754133224f, -0.08041230589151382f, -0.008028262294828892f, 0.20035912096500397f, -0.08183245360851288f, -0.2306184023618698f,
    0.12910175323486328f, 0.04686997830867767f, -0.26699647307395935f, 0.07327497750520706f, 0.2336481362581253f, -0.5276415348052979f, 0.17916493117809296f, 0.033602017909288406f,
    -0.11895710229873657f, 0.05921504646539688f, -0.0014198063872754574f, -0.4615737497806549f, -0.032607387751340866f, 0.06631752103567123f, 0.008577794767916203f, -0.180099755525589f,
    0.0720178484916687f, 0.19489973783493042f, -0.09756818413734436f, -0.04661393165588379f, 0.2484491616487503f, -0.08225946128368378f, -0.21860633790493011f, 0.4983459413051605f,
    -0.1585540920495987f, -0.08088476210832596f, -0.052023325115442276f, 0.13490796089172363f, -0.04265471547842026f, -0.11059783399105072f, 0.03516274690628052f, -0.004324616398662329f,
    -0.20884253084659576f, -0.09651404619216919f, -0.031190790235996246f, -0.060771603137254715f, 0.03101407177746296f, -0.10363997519016266f, 0.011694802902638912f, 0.10479236394166946f,
    0.029754741117358208f, -0.1816728413105011f, 0.12260516732931137f, 0.09700585156679153f, 0.07196120917797089f, 0.1835407167673111f, 0.0634557232260704f, -0.025777466595172882f,
    -0.002610457595437765f, 9.421574172949335e-39f, 1.29013107494254e-38f, -1.278126711518055e-38f, 1.5017211174721908e-39f, -9.66525997589542e-40f, 1.4878782504625116e-38f, -1.1045645461938654e-38f,
    -7.313298212597218e-39f, 1.1666096981689289e-38f, -1.7633854395857174e-38f, 1.169276369146539e-38f, 3.4545776638475775e-39f, -0.00231728283688426f, -0.007142453920096159f, -0.01262709777802229f,
    -0.01712142676115036f, -0.019585540518164635f, -0.01926029659807682f, -0.01645640656352043f, -0.013824786990880966f, -0.013539581559598446f, -0.015290661714971066f, -0.01655593328177929f,
    -0.015294520184397697f, -0.011230590753257275f, -0.006220738869160414f, -0.002351893810555339f, -0.00048811823944561183f, 0.0007245573797263205f, 0.002559180371463299f, 0.005365235265344381f,
    0.008799199014902115f, 0.012436655350029469f, 0.015812840312719345f, 0.018565166741609573f, 0.020538337528705597f, 0.021997058764100075f, 0.022845938801765442f, 0.02218642085790634f,
    0.019511163234710693f, 0.015008986927568913f, 0.00971126276999712f, 0.004711673129349947f, 0.00132669135928154f, -0.002145502483472228f, -0.006669876631349325f, -0.011755908839404583f,
    -0.015301535837352276f, -0.016319354996085167f, -0.014446936547756195f, -0.010009999386966228f, -0.0040916334837675095f, 0.0021255132742226124f, 0.0077737742103636265f, 0.011727431789040565f,
    0.012747117318212986f, 0.010843534953892231f, 0.007245051208883524f, 0.0034941970370709896f, 0.0009630064014345407f, -0.08302662521600723f, 0.011447355151176453f,
};

// ---------------------------------------------------------------------------
// BE-100 Deluxe (EL34) - BE TEST SM58 (A2 Nano, 1871 weights)
//   Source: [AMP] BE100DLX-BE TEST SM58 - STD.nam
//   SlimmableContainer submodel 0 (max_value=0.5, low-CPU)
// ---------------------------------------------------------------------------
NAM_A2_MODEL_DATA NAM_A2_ALIGN32
inline constexpr float kWeightsBe100[nam_a2_daisy::kA2WeightCount] = {
    2.0343220233917236f, 3.9956679344177246f, -5.3282389640808105f, 0.8185616731643677f, 0.7424985766410828f, 0.04244527220726013f, -0.36958199739456177f, -0.7519242763519287f,
    -1.120087742805481f, 1.226078987121582f, 0.9929890632629395f, 0.09773776680231094f, -0.39675983786582947f, -0.9921974539756775f, -1.3066716194152832f, -0.9449881911277771f,
    -0.9415024518966675f, -0.28728577494621277f, 0.47445255517959595f, 0.7882522344589233f, 1.3447095155715942f, 0.36571958661079407f, 0.4635768532752991f, -0.13409946858882904f,
    -0.7466713190078735f, -1.650406837463379f, -0.9417989253997803f, 0.580054759979248f, 0.7372785806655884f, -0.13518555462360382f, -0.8584043979644775f, -1.9773483276367188f,
    -1.2516964673995972f, -0.42332619428634644f, -0.48165735602378845f, -0.007488294504582882f, 0.9218618869781494f, 2.2280313968658447f, 1.3691684007644653f, -0.4710034430027008f,
    -0.3984273076057434f, -0.2912600338459015f, 1.064388632774353f, 1.7730205059051514f, 1.0752122402191162f, -0.5450037121772766f, -0.5878544449806213f, -0.5558434128761292f,
    1.3203449249267578f, 2.6044442653656006f, 1.4560829401016235f, 0.7332097887992859f, 0.7396895885467529f, 0.4163520634174347f, -1.5645016431808472f, -2.6133673191070557f,
    -1.5339120626449585f, 1.1612191200256348f, 1.1389458179473877f, 2.158811092376709f, -1.2690699100494385f, -0.5835122466087341f, 0.610073983669281f, 0.4296927750110626f,
    0.5372694730758667f, -0.07822903990745544f, -0.17898568511009216f, -0.3700830042362213f, 0.32131707668304443f, 0.38390570878982544f, 0.4621325135231018f, -0.36962559819221497f,
    -0.7568234801292419f, -0.7207659482955933f, -0.44801461696624756f, 0.142595112323761f, 0.25439199805259705f, 0.15180180966854095f, -0.22299522161483765f, -0.19969703257083893f,
    0.7822179198265076f, -0.08127201348543167f, -0.12810219824314117f, -0.37620797753334045f, -0.2077268809080124f, -0.33092859387397766f, -0.6585623025894165f, -0.14345574378967285f,
    -0.3099837601184845f, -0.28003937005996704f, -0.06362549215555191f, 0.05709238350391388f, 0.7030942440032959f, 0.10188206285238266f, 0.2415122091770172f, 0.06698271632194519f,
    0.0060362243093550205f, -0.3783018887042999f, 0.027696462348103523f, 0.05411939695477486f, -0.0683475211262703f, 0.19736546277999878f, 0.16353586316108704f, 0.1439485400915146f,
    -0.8329564929008484f, -0.28139528632164f, -0.3619830012321472f, -0.3435746133327484f, -0.164251446723938f, -0.18723972141742706f, 0.927631676197052f, -0.036721423268318176f,
    -0.0013536929618567228f, -0.10871374607086182f, -0.030795805156230927f, -0.30265989899635315f, 0.3689194321632385f, 0.024834835901856422f, 0.20612160861492157f, 0.1342865526676178f,
    0.15915583074092865f, 0.15780743956565857f, -0.479608952999115f, -0.0719841793179512f, 0.08132291585206985f, -0.08388471603393555f, -0.2456510365009308f, -0.32434549927711487f,
    0.8537562489509583f, 0.9711276292800903f, 0.04505481570959091f, 0.046163853257894516f, 0.5842172503471375f, -1.686550498008728f, 0.03619850426912308f, -0.271282434463501f,
    0.7260226011276245f, -0.6579247117042542f, 0.26648232340812683f, -0.4802628457546234f, 0.28741300106048584f, -0.07857922464609146f, -0.08437894284725189f, -0.09270884841680527f,
    -0.3665648102760315f, 0.15991060435771942f, -0.3454991579055786f, 0.1230616495013237f, 0.12374008446931839f, 0.25887808203697205f, -0.0013840203173458576f, -0.09120819717645645f,
    -0.43697574734687805f, 0.24832133948802948f, 0.18008166551589966f, -0.020455684512853622f, -0.10054134577512741f, 0.00031104625668376684f, -0.9992789030075073f, 0.05452010780572891f,
    -0.09498410671949387f, -0.3293237090110779f, -0.3662981688976288f, -0.033646970987319946f, -0.5036054849624634f, -0.20731036365032196f, -0.2334747016429901f, -0.46853259205818176f,
    -0.30518782138824463f, -0.44812411069869995f, 0.5429368019104004f, 0.1874494105577469f, 0.20792165398597717f, 0.3530825078487396f, 0.3234277665615082f, 0.2976638972759247f,
    0.012378222309052944f, -0.13896872103214264f, -0.2243555337190628f, 0.05186856910586357f, 0.10509683936834335f, 0.2244245857000351f, 0.49901312589645386f, -0.06058039888739586f,
    -0.1961137354373932f, -0.10266842693090439f, -0.05060901865363121f, -0.07471314817667007f, 0.5114114284515381f, -0.1770935207605362f, -0.1547107994556427f, 0.07517316192388535f,
    0.2237309068441391f, 0.031035367399454117f, -0.3928622603416443f, -0.21438072621822357f, -0.24768206477165222f, -0.3424057066440582f, -0.046776361763477325f, -0.17726880311965942f,
    0.7121660113334656f, 0.36722496151924133f, 0.11104341596364975f, 0.2346627414226532f, -0.11702625453472137f, -0.8799374103546143f, -1.7812272310256958f, -0.00878997053951025f,
    0.374689519405365f, 0.5319685339927673f, -0.11746742576360703f, -0.44541728496551514f, -0.573965847492218f, 0.7602648735046387f, -0.1652916818857193f, 0.343163400888443f,
    -0.22846777737140656f, -0.11031433939933777f, -0.11210428178310394f, -0.09399618208408356f, -0.21307775378227234f, -0.4506612718105316f, -0.3093322217464447f, -0.08983886986970901f,
    0.1316991150379181f, -0.05790248513221741f, 0.07203206419944763f, -0.14757300913333893f, 0.07461187243461609f, 0.3208933174610138f, 0.2127421796321869f, 0.05288940668106079f,
    0.010570511221885681f, -0.12033731490373611f, 0.22057273983955383f, 0.20465481281280518f, 0.137190580368042f, 0.031750183552503586f, -0.08298268914222717f, -0.14940184354782104f,
    -0.29651692509651184f, -0.30056121945381165f, -0.8225248456001282f, -0.051849767565727234f, -0.08921962231397629f, -0.08715077489614487f, -0.24116270244121552f, -0.16257475316524506f,
    -0.0010935370810329914f, -0.0868954062461853f, 0.032897744327783585f, 0.13384632766246796f, 0.057768646627664566f, 0.19745607674121857f, -0.30800142884254456f, -0.21624654531478882f,
    -0.13469147682189941f, -0.0634833499789238f, 0.09919487684965134f, 0.38120341300964355f, -0.054357871413230896f, -0.16788528859615326f, 0.044280342757701874f, 0.07881003618240356f,
    0.32297927141189575f, 0.6168614029884338f, 0.006280009169131517f, 0.04754236713051796f, 0.1523708552122116f, 0.1153966560959816f, 0.23644956946372986f, 0.2350192666053772f,
    0.7451367378234863f, 0.40170010924339294f, 0.2572883665561676f, -0.4807860851287842f, 1.1611870527267456f, 0.5382004380226135f, -0.16986137628555298f, 0.17239758372306824f,
    -0.4096282720565796f, -0.2258520871400833f, -0.49552372097969055f, 0.6322430968284607f, 0.32095417380332947f, -0.7279464602470398f, -0.3119313716888428f, -0.691123902797699f,
    0.013323204591870308f, 0.33387938141822815f, -0.028720317408442497f, -0.03769708052277565f, 0.14596165716648102f, 0.06210510805249214f, 0.14401604235172272f, 0.41612178087234497f,
    -0.488969624042511f, -0.03463806211948395f, 0.12150713801383972f, 0.03662421554327011f, 0.08445852994918823f, 0.40324416756629944f, -0.0018339988309890032f, -0.03932946175336838f,
    0.016199177131056786f, -0.02194572426378727f, 0.08385319262742996f, 0.22411441802978516f, 0.17599175870418549f, -0.03637222945690155f, -0.022939404472708702f, -0.12436415255069733f,
    -0.00021285992988850921f, 0.010385147295892239f, 0.29750534892082214f, -0.04618227854371071f, -0.020954696461558342f, -0.12640342116355896f, -0.08593390882015228f, -0.12758323550224304f,
    -0.35265931487083435f, -0.056595031172037125f, -0.051247306168079376f, -0.09902578592300415f, -0.21826961636543274f, -0.4617284834384918f, 0.21714676916599274f, 0.23963817954063416f,
    0.2508503496646881f, 0.07812055200338364f, -0.1325274109840393f, 0.10195454955101013f, -0.5407099723815918f, 0.17294763028621674f, 0.19102713465690613f, 0.001819524564780295f,
    -0.10566650331020355f, 0.13121247291564941f, 0.32288500666618347f, -0.029368387535214424f, -0.040485043078660965f, -0.05304284021258354f, 0.20206806063652039f, 0.502114474773407f,
    -0.15722787380218506f, -0.783165454864502f, 0.013527504168450832f, 0.2869788408279419f, -0.1961844116449356f, -0.2587222158908844f, -0.46302685141563416f, 0.6840717792510986f,
    0.21456065773963928f, -0.19361397624015808f, -0.791095495223999f, -0.3193938434123993f, 0.3500277101993561f, 0.10058621317148209f, 0.07229556143283844f, 0.17657123506069183f,
    -0.03473779559135437f, -0.4415297508239746f, -0.28404393792152405f, 0.012184923514723778f, 0.083823561668396f, 0.02032695896923542f, -0.04859108105301857f, 0.039247967302799225f,
    -0.39544782042503357f, 0.011466646566987038f, 0.058389849960803986f, 0.0074016680009663105f, -0.038287848234176636f, 0.034222204238176346f, 0.4869978725910187f, -0.008833406493067741f,
    -0.006082787644118071f, -0.02071889117360115f, -0.02161440998315811f, 0.04482554644346237f, -0.10598170757293701f, 0.042505331337451935f, 0.014222340658307076f, -0.023370755836367607f,
    0.07814346998929977f, 0.09238685667514801f, -0.5480112433433533f, 0.04051705449819565f, 0.027405863627791405f, 0.003578105941414833f, 0.07683417946100235f, 0.06570351868867874f,
    0.12434912472963333f, 0.023778410628437996f, 0.03380030393600464f, 0.044834963977336884f, 0.050746530294418335f, -0.03168195113539696f, 0.30689913034439087f, 0.0312500037252903f,
    -0.05829521268606186f, -0.05307140201330185f, 0.00820277538150549f, -0.12926210463047028f, -1.2238470315933228f, 0.029189862310886383f, -0.027919746935367584f, -0.041567545384168625f,
    0.00815759226679802f, -0.10187733173370361f, -0.4112056791782379f, 0.023396126925945282f, 0.02411692775785923f, 0.005364954471588135f, 0.018469883129000664f, -0.0352335162460804f,
    -0.5967515707015991f, -1.019718885421753f, -0.7786698341369629f, -0.21891193091869354f, 0.134989932179451f, -1.027052640914917f, -0.26943883299827576f, 0.465506911277771f,
    0.4569946229457855f, 0.4518515467643738f, -0.39551931619644165f, -0.8819689750671387f, 0.24311116337776184f, 0.7174928784370422f, -0.34097880125045776f, 0.18138226866722107f,
    0.03211871162056923f, -0.20981095731258392f, 0.05657882243394852f, 0.007751233410090208f, 0.010794024914503098f, 0.001981692388653755f, -0.03338337689638138f, 0.07388670742511749f,
    -0.35963553190231323f, -0.006768625695258379f, 0.003583116689696908f, 0.00882586557418108f, -0.008112764917314053f, 0.05708926543593407f, 0.045617133378982544f, -0.013584718108177185f,
    -0.019994953647255898f, 0.006017387378960848f, 0.02203444391489029f, 0.05477937310934067f, 0.11312755942344666f, -0.026421431452035904f, -0.05452684685587883f, -0.039560187608003616f,
    -0.050904955714941025f, -0.00647902162745595f, -1.0353174209594727f, -0.012720880098640919f, -0.0167476087808609f, -0.02246391773223877f, -0.02102080173790455f, -0.006082072388380766f,
    0.25827574729919434f, 0.01157884206622839f, -0.005443620029836893f, -0.00830724649131298f, -0.0019764071330428123f, -0.016951220110058784f, -0.0024188505485653877f, 0.02466612122952938f,
    0.03293515741825104f, 0.03331657499074936f, 0.04787376895546913f, 0.0016383846523240209f, -0.3879910111427307f, 0.0028825257904827595f, 0.013832127675414085f, 0.010319377295672894f,
    0.021050814539194107f, 0.012568062171339989f, -0.6434841156005859f, 0.00013493942969944328f, 0.011035045608878136f, 0.017234940081834793f, 0.023176750168204308f, 0.06199202686548233f,
    -0.4656603932380676f, -0.4264509677886963f, -0.1882893145084381f, 0.02310001477599144f, -0.34881651401519775f, 0.5759021639823914f, -0.17353321611881256f, -0.08006924390792847f,
    0.6945631504058838f, -0.02144554816186428f, -0.425582617521286f, -0.009921113029122353f, 0.2520829141139984f, -0.03772613778710365f, -0.8991655707359314f, 0.6243252158164978f,
    0.035556402057409286f, -0.01630006730556488f, -0.22678333520889282f, -0.10486920177936554f, -0.46924203634262085f, -0.311172753572464f, -0.4705450236797333f, -0.8110239505767822f,
