#pragma once
/*
    model_data_nam_a2.h

    NAM A2 model weight collection for the A2Player runtime.

    This file is analogous to model_data_nam.h for the legacy WaveNet module.
    All models here must use the A2 Nano/Lite architecture:
      C=3 channels, 23 layers, 1871 weights (kA2WeightCount).

    To add a new model:
      1. Convert the .nam JSON file to a float array (same format as below).
      2. Declare the array with NAM_A2_MODEL_DATA (read-only weights; see the
         macro in nam_a2_runtime.h — defaults to .rodata / SRAM under BOOT_SRAM).
      3. Add a NamA2ModelEntry entry to kNamA2Models[] (set outputGain from the
         value nam_to_cpp_array.py suggests, for loudness matching).
      4. The MODEL parameter's valueBinCount and names update automatically from
         kNamA2Models (kNamA2ModelCount and the .name fields).
*/

#include "nam_a2_runtime.h"   // for NAM_A2_MODEL_DATA, NAM_A2_ALIGN32, kA2WeightCount
#include <cstddef>

namespace nam_a2_models
{

// Extracted 1871 weights from: [AMP] BE100DLX-BE TEST - DI.nam
// ---------------------------------------------------------------------------
// Source: [AMP] BE100DLX-BE TEST - DI.nam  (1871 weights)
// ---------------------------------------------------------------------------
NAM_A2_MODEL_DATA NAM_A2_ALIGN32
inline constexpr float kWeightsBe100[nam_a2_daisy::kA2WeightCount] = {
    -0.41550299525260925f, -0.41133949160575867f, -1.4098888635635376f, 0.15571057796478271f, -0.2118457406759262f, -0.021724339574575424f, 0.5601813793182373f, -0.4289415180683136f,
    -0.3513032793998718f, 0.13880378007888794f, -0.25432515144348145f, 0.05762088671326637f, 0.5396178364753723f, -0.6411648988723755f, -0.34666118025779724f, 0.11363424360752106f,
    -0.1458343267440796f, -0.05126312002539635f, 0.9319063425064087f, -0.7608886361122131f, -0.21189868450164795f, -0.331520676612854f, -0.018850866705179214f, -0.37413856387138367f,
    -0.505790114402771f, 0.14681759476661682f, 0.7872492074966431f, -0.22409409284591675f, -0.3832591772079468f, -0.2901095449924469f, -0.4172208607196808f, -0.213892862200737f,
    0.6896436810493469f, -0.18164457380771637f, -0.2363061010837555f, -0.11317089200019836f, -0.14010363817214966f, 0.07375306636095047f, 0.6830686926841736f, -0.10973001271486282f,
    0.27628687024116516f, -0.465587317943573f, 0.3907168209552765f, 0.4292367696762085f, -0.5128534436225891f, -0.11237864196300507f, 0.4865611791610718f, -0.4654757082462311f,
    0.36613696813583374f, 0.5436553955078125f, -0.3831375539302826f, -0.1693030446767807f, 0.44554272294044495f, -0.352725088596344f, 0.3456457257270813f, 0.4616582691669464f,
    -0.5982716083526611f, 0.10137882828712463f, 0.11090199649333954f, 0.04205866903066635f, 0.6279006004333496f, -0.018831748515367508f, 0.706466019153595f, -0.6671817898750305f,
    0.005652206484228373f, -0.4254883825778961f, -0.027051856741309166f, 1.033606767654419f, -0.25507041811943054f, -0.7297065854072571f, 0.13023947179317474f, -0.5170450210571289f,
    0.09779087454080582f, -0.25315654277801514f, -0.0702957808971405f, -0.12271352857351303f, 0.019233502447605133f, 0.09335895627737045f, 0.1391191929578781f, -0.20559731125831604f,
    -0.22502663731575012f, -0.03869086876511574f, -0.1235358864068985f, 0.10920126736164093f, -0.2171832025051117f, -0.07607059180736542f, -0.39854511618614197f, 0.17803780734539032f,
    0.08299790322780609f, -0.1412065327167511f, 0.13199886679649353f, -0.1129898875951767f, -0.5728495717048645f, -0.1699834018945694f, -0.1032196506857872f, -0.05833195149898529f,
    -0.3249092996120453f, -0.0679805651307106f, 0.27684229612350464f, 0.18180173635482788f, -0.19388467073440552f, -0.2316969484090805f, -0.07773557305335999f, -0.2472987025976181f,
    0.16074196994304657f, -0.24079886078834534f, -0.07617631554603577f, 0.019472016021609306f, 0.10731477290391922f, -0.2885850667953491f, 0.2091180831193924f, 0.14508192241191864f,
    0.3436763286590576f, 0.20072290301322937f, 0.0877971351146698f, 0.23719792068004608f, 0.1607808917760849f, -0.3015301525592804f, -0.015336908400058746f, -0.08118593692779541f,
    0.01232165563851595f, -0.12609831988811493f, -0.4477051794528961f, 0.17750777304172516f, 0.10276516526937485f, 0.17690038681030273f, -0.14555644989013672f, 0.19923926889896393f,
    -0.216351717710495f, 0.2534359395503998f, 0.3312225937843323f, 0.052257902920246124f, 0.5922951102256775f, -0.20394496619701385f, 1.6652474403381348f, -0.5312380790710449f,
    0.06887837499380112f, -0.7225844860076904f, 0.13221420347690582f, 0.48080408573150635f, 0.1320398896932602f, -0.5448316931724548f, -0.4296163320541382f, -0.3320912718772888f,
    0.3903409540653229f, -0.1802743375301361f, 0.26190832257270813f, 0.06616853177547455f, -0.21846404671669006f, -0.2787380814552307f, -0.36987724900245667f, -0.28726038336753845f,
    0.6400616765022278f, 0.11141067743301392f, 0.34549838304519653f, 0.4608989357948303f, 0.24735572934150696f, 0.5763023495674133f, -0.12805354595184326f, -0.1502835601568222f,
    -0.07423600554466248f, -0.031173141673207283f, 0.07643593847751617f, -0.15926600992679596f, 0.3497619032859802f, 0.16706125438213348f, -0.06255753338336945f, 0.0851183831691742f,
    -0.04977164790034294f, -0.045489758253097534f, 0.8540831208229065f, 0.07525063306093216f, 0.3284750282764435f, 0.4575473666191101f, 0.18484637141227722f, 0.5381146669387817f,
    -0.042499229311943054f, -0.22885511815547943f, -0.24079501628875732f, -0.36309316754341125f, -0.2319866120815277f, -0.37731972336769104f, 0.43699926137924194f, 0.30496102571487427f,
    0.2281363606452942f, -0.07273043692111969f, 0.20363666117191315f, 0.060850128531455994f, -0.7172756195068359f, -0.06090346351265907f, 0.08707677572965622f, 0.22688224911689758f,
    0.5136176943778992f, -0.017893370240926743f, -0.2631664276123047f, -0.37810656428337097f, -0.13474740087985992f, -0.031610775738954544f, -0.31865185499191284f, 0.13236993551254272f,
    -0.4499279260635376f, -0.08836424350738525f, -0.06286174803972244f, -0.03417561575770378f, -0.9830774068832397f, -0.9429610967636108f, -0.08727676421403885f, -0.3442575931549072f,
    0.4242424964904785f, 0.14545269310474396f, -0.26754623651504517f, 0.46470001339912415f, -0.12252761423587799f, -0.8565742373466492f, 0.6717237234115601f, 0.07744799554347992f,
    0.17234645783901215f, -0.06281808763742447f, 0.3011670410633087f, -0.0423152931034565f, 0.003327913349494338f, 0.13389582931995392f, 0.006637168116867542f, 0.06247560307383537f,
    -0.48071256279945374f, 0.012741973623633385f, 0.007719957269728184f, -0.03419142961502075f, 0.01747792586684227f, -2.2672489649266936e-05f, 0.04991956055164337f, 0.021664690226316452f,
    -0.008917958475649357f, -0.0942768007516861f, 0.0002400061785010621f, -0.006422189995646477f, -0.7331782579421997f, -0.101103775203228f, -0.0751766636967659f, -0.07542924582958221f,
    0.06933915615081787f, -0.044611554592847824f, 0.4026239514350891f, 0.012652198784053326f, 0.006321513094007969f, 0.023308366537094116f, 0.10238330066204071f, 0.09127794206142426f,
    -0.22387678921222687f, 0.04725228622555733f, 0.034815359860658646f, 0.029887495562434196f, -0.16676220297813416f, -0.14443019032478333f, 0.42176732420921326f, 0.06677968055009842f,
    0.17983576655387878f, 0.07852312177419662f, 0.14449506998062134f, 0.5931375622749329f, -0.08353188633918762f, 0.010109664872288704f, -0.051378704607486725f, -0.05474166199564934f,
    -0.31569480895996094f, -0.6370448470115662f, -0.5314254760742188f, -0.054631754755973816f, -0.09818850457668304f, -0.006601123604923487f, 0.1341715157032013f, 0.08398019522428513f,
    -0.4572335183620453f, -0.17407137155532837f, -0.1903986632823944f, -0.06720750778913498f, 0.1122337281703949f, 0.43947988748550415f, -0.8490935564041138f, 0.2841515839099884f,
    -0.24761708080768585f, -0.6428607702255249f, 0.5199037194252014f, -0.5176937580108643f, -0.31755930185317993f, 0.3097096085548401f, -0.42171141505241394f, 0.004771137610077858f,
    -0.19758377969264984f, -0.08793513476848602f, 0.2595768868923187f, 0.008085275068879128f, 0.016070641577243805f, 0.026563862338662148f, 0.05164400488138199f, 0.047468215227127075f,
    -1.0824955701828003f, 0.01913762465119362f, 0.011711392551660538f, 0.04215019568800926f, 0.0723431333899498f, 0.03046104684472084f, -0.28883740305900574f, -0.015495078638195992f,
    -0.028801368549466133f, -0.046176958829164505f, -0.10636211931705475f, -0.057108208537101746f, -0.178748220205307f, -0.0015182100469246507f, -0.002600686624646187f, -0.02497793175280094f,
    0.0032230564393103123f, 0.05075588449835777f, 0.5717921853065491f, 0.024773215875029564f, 0.027653254568576813f, 0.02164326049387455f, 0.046657923609018326f, 0.09122844785451889f,
    -0.07645522803068161f, -0.013219168409705162f, -0.02689613215625286f, 0.027054017409682274f, -0.05391610786318779f, -0.14928945899009705f, 0.6447203755378723f, 0.03116835281252861f,
    0.0470564141869545f, 0.0456693060696125f, 0.020375866442918777f, -0.2711479663848877f, -0.4865669906139374f, 0.011365965008735657f, 0.003531258786097169f, 0.0003484662447590381f,
    -0.016110114753246307f, -0.16292735934257507f, -0.11614970117807388f, -0.04779085889458656f, -0.07565189152956009f, -0.06261855363845825f, -0.0037940782494843006f, 0.5251078605651855f,
    -0.5037767887115479f, 0.08259467780590057f, -0.6544272899627686f, 0.24608173966407776f, -0.5451812148094177f, -0.45212522149086f, -0.19760720431804657f, 0.8191113471984863f,
    -0.2888562083244324f, -0.2470899522304535f, 0.3903734087944031f, -0.5634807348251343f, -0.11603348702192307f, -2.089335430355277e-05f, -0.5027928948402405f, -0.43035632371902466f,
    -0.12712742388248444f, 0.17427551746368408f, 0.11795424669981003f, -0.007065118756145239f, 0.04588289186358452f, 0.0007572210743092f, -0.1271795630455017f, -0.030735906213521957f,
    -0.9048178791999817f, 0.058860842138528824f, 0.02467728964984417f, 0.017002888023853302f, 0.051776450127363205f, 0.025659486651420593f, -0.34805193543434143f, 0.0004672109498642385f,
    -0.033357080072164536f, 0.0016286178724840283f, 0.07728252559900284f, 0.010850243270397186f, -0.31936144828796387f, -0.025249553844332695f, -0.020573798567056656f, -0.03731044754385948f,
    -0.09521117061376572f, -0.07810340821743011f, -0.27050039172172546f, 0.013641870580613613f, 0.002987043699249625f, 0.008326642215251923f, 0.027606651186943054f, 0.011563249863684177f,
    0.04852830991148949f, 0.015421243384480476f, 0.014273109845817089f, 0.02725924737751484f, 0.06052215024828911f, 0.02987760864198208f, -0.6463916301727295f, 0.009855043143033981f,
    0.01535747479647398f, 0.02903885766863823f, 0.060382258147001266f, 0.12416878342628479f, -0.3757144808769226f, 0.00695215305313468f, 0.009068991057574749f, 0.007526097819209099f,
    0.0026367881800979376f, 0.006520671304315329f, -0.18427149951457977f, -0.0099451569840312f, -0.012909556739032269f, -0.023413099348545074f, -0.03584041818976402f, -0.06406677514314651f,
    -0.7365871667861938f, -0.09671077132225037f, -0.27079206705093384f, 0.21012093126773834f, 0.5711745619773865f, 0.253550261259079f, -1.0779694318771362f, 0.30703532695770264f,
    0.09474851191043854f, 0.4460718035697937f, 0.13027484714984894f, -0.262387752532959f, 0.38257935643196106f, -0.2909189462661743f, 0.48937973380088806f, 0.4976557493209839f,
    -0.3234352469444275f, 0.13343094289302826f, -0.48531392216682434f, -0.06076354905962944f, -0.07652871310710907f, -0.08306080102920532f, -0.13983534276485443f, -0.18430224061012268f,
    -0.3203185498714447f, -0.026972593739628792f, -0.003925508353859186f, -0.0235445536673069f, 0.03690282627940178f, -0.0268454197794199f, -0.19347698986530304f, 0.04197995364665985f,
    0.03920866176486015f, 0.04383349418640137f, 0.052612386643886566f, 0.11833912134170532f, 0.2995465099811554f, 0.0017802731599658728f, 0.0001614086068002507f, 0.007863325998187065f,
    0.01346943061798811f, 0.01886157877743244f, 0.10709793865680695f, 0.002144718077033758f, 0.003058984410017729f, 0.0030340543016791344f, -0.002211205195635557f, 0.006190165411680937f,
    0.2455381453037262f, -0.0007420227047987282f, -0.0005975491367280483f, -0.0039504817686975f, -0.005468396004289389f, -0.0018678122432902455f, 0.2954596281051636f, -0.01985376700758934f,
    -0.024418385699391365f, -0.03957010433077812f, -0.06839510798454285f, -0.09657354652881622f, 0.2108645886182785f, -0.015739182010293007f, -0.004582212306559086f, -0.01422504149377346f,
    0.0012790844775736332f, -0.018780218437314034f, 0.1891268640756607f, 0.013999903574585915f, 0.012170516885817051f, 0.019290056079626083f, 0.025030137971043587f, 0.051711611449718475f,
    0.6189390420913696f, -0.14843899011611938f, 0.34658360481262207f, 0.08357027918100357f, -0.2406747192144394f, -1.6909586191177368f, 0.9923544526100159f, 0.1332550197839737f,
    0.39370593428611755f, -0.07776648551225662f, 0.06171850487589836f, -0.06526823341846466f, -0.1602042317390442f, -0.3092707693576813f, 0.2726214826107025f, 0.5400223731994629f,
    0.2519015371799469f, -0.1952606737613678f, -0.01304620411247015f, 0.24800851941108704f, -0.3861258029937744f, 0.6032769680023193f, -0.0016159976366907358f, 0.008521035313606262f,
    -0.9595336318016052f, 0.05060773342847824f, -0.015100184828042984f, 0.05551206320524216f, -0.09062314033508301f, 0.07460734248161316f, 0.15755797922611237f, 0.26822593808174133f,
    -0.8048112988471985f, 0.9834705591201782f, -0.14627878367900848f, -0.030153663828969002f, -0.0844215452671051f, -0.19003695249557495f, -0.05379708111286163f, -0.40079784393310547f,
    -0.28774765133857727f, -0.5842557549476624f, 1.2639364004135132f, 0.0017215983243659139f, -0.021403050050139427f, -0.20805422961711884f, -0.17783589661121368f, -0.10088635236024857f,
    -0.10214914381504059f, -0.22561098635196686f, 0.24576449394226074f, -0.10497380048036575f, 0.2017410695552826f, -0.025301868095993996f, 0.32668566703796387f, 0.0138817448168993f,
    -0.06596660614013672f, -0.047568429261446f, -0.19484420120716095f, -0.3142300844192505f, -0.6128365993499756f, -0.04421410709619522f, -0.11551593989133835f, -0.05261759087443352f,
    -0.09749194979667664f, -0.1797620803117752f, -0.23965230584144592f, 0.06246266886591911f, 0.05054401606321335f, -0.0047992803156375885f, 0.3141608238220215f, 0.20491649210453033f,
    -0.7137598395347595f, -0.021104132756590843f, 0.03618282079696655f, 0.22525109350681305f, -0.2036788910627365f, 0.8711276054382324f, 0.9435005187988281f, 1.5042407512664795f,
    0.7957545518875122f, -0.095610611140728f, 1.1745095252990723f, 0.10769072920084f, -0.06648470461368561f, -0.9080525636672974f, -0.21380047500133514f, -0.9760156869888306f,
    0.017123008146882057f, -0.12678846716880798f, 0.3656357526779175f, -0.16003644466400146f, -0.2111995965242386f, -0.11565624177455902f, -0.09683297574520111f, 0.09969198703765869f,
    -0.5034403800964355f, 0.10229960829019547f, 0.07595919072628021f, 0.05933235213160515f, -0.13339896500110626f, -0.16713468730449677f, -0.09735766053199768f, 0.20644360780715942f,
    0.1951504796743393f, 0.25029152631759644f, 0.32295122742652893f, 0.48976919054985046f, -0.9709579944610596f, -0.15795744955539703f, -0.07729867845773697f, -0.17408302426338196f,
    -0.1406065970659256f, -0.28981462121009827f, -0.2673647701740265f, -0.11446335166692734f, -0.018726781010627747f, -0.26346826553344727f, -0.2141527235507965f, 0.09172605723142624f,
    0.04417606070637703f, 0.13793158531188965f, 0.21203108131885529f, 0.348372220993042f, 0.5714927911758423f, 0.3934464156627655f,-0.5256768465042114f, -0.48500627279281616f,
    -0.6233736276626587f, -0.46483302116394043f, -0.23777839541435242f, -0.4649920165538788f, -0.5555617213249207f, -0.16712580621242523f, 0.07655871659517288f, 0.10740625858306885f,
    -0.16782090067863464f, -0.04030998423695564f, -0.0301921796053648f, 0.33350905776023865f, 0.03081830032169819f, 0.10585606843233109f, 0.16435635089874268f, -0.2441047579050064f,
    0.8850306272506714f, 0.21024422347545624f, 0.09866342693567276f, 0.05976904556155205f, 0.40683022141456604f, 0.08557777106761932f, -0.07546091824769974f, -0.6286343932151794f,
    -0.3741738498210907f, 0.4633287191390991f, -0.27778753638267517f, -0.4315199851989746f, 0.30731576681137085f, 0.08750960230827332f, 0.3386024236679077f, -0.755182683467865f,
    0.09288589656352997f, -0.13515345752239227f, -0.14613524079322815f, -0.1386672854423523f, -0.1274595707654953f, 0.00396213261410594f, -0.2653319835662842f, -0.9545778036117554f,
    0.4505358636379242f, 0.27506107091903687f, -0.033310484141111374f, -0.09662006795406342f, 0.10864505916833878f, -0.023222599178552628f, -0.2681827247142792f, 0.0829898864030838f,
    -0.1397668421268463f, -0.03430929034948349f, 0.08009246736764908f, -0.2813672721385956f, 0.21703289449214935f, 0.16328728199005127f, 0.1887866109609604f, 0.23161064088344574f,
    0.284458726644516f, 0.35328415036201477f, -0.36090901494026184f, -0.034320469945669174f, 0.004128682427108288f, 0.04431920126080513f, -6.530355312861502e-05f, -0.030563469976186752f,
    -0.14675426483154297f, 0.021963194012641907f, -0.01935911737382412f, -0.07093340158462524f, -0.04677977040410042f, -0.09581101685762405f, -0.4442414939403534f, -0.051402151584625244f,
    -0.03708148002624512f, -0.05555569753050804f, -0.05140913277864456f, -0.0843738317489624f, -0.5852808952331543f, 0.10422556102275848f, 0.068930983543396f, 0.08182424306869507f,
    0.13603010773658752f, 0.20608346164226532f, 0.8987254500389099f, 0.07328208535909653f, 0.036424048244953156f, 0.06754635274410248f, 0.09575089067220688f, 0.08816926181316376f,
    -0.25697270035743713f, -0.1105920672416687f, -0.31483060121536255f, 0.2733461260795593f, -0.06053037941455841f, -1.2615528106689453f, -0.2849368155002594f, 0.21650172770023346f,
    0.8119147419929504f, -0.11686966568231583f, 0.06669407337903976f, 0.7702924013137817f, -0.7659087777137756f, -0.14793094992637634f, -0.2656915485858917f, 0.35290947556495667f,
    0.10253217816352844f, -0.274224191904068f, 0.09110833704471588f, 0.06613768637180328f, 0.000898773199878633f, -0.040277522057294846f, -0.007981414906680584f, 0.019436364993453026f,
    0.9156319499015808f, -0.17110022902488708f, -0.10962264239788055f, -0.03640332072973251f, -0.20951899886131287f, -0.18253900110721588f, -0.40980154275894165f, -0.10621871799230576f,
    -0.11465790867805481f, -0.13628804683685303f, -0.2567477822303772f, -0.4161471426486969f, 0.019858751446008682f, 0.055901914834976196f, 0.10711292922496796f, 0.17674297094345093f,
    0.14333081245422363f, 0.14466987550258636f, -0.3901127576828003f, 0.10075284540653229f, 0.10085813701152802f, 0.050399426370859146f, 0.10956217348575592f, 0.20597706735134125f,
    -0.39860931038856506f, 0.027849944308400154f, 0.005081774201244116f, 0.013340277597308159f, 0.033583320677280426f, 0.15594826638698578f, -0.7166023254394531f, -0.02233334444463253f,
    -0.12122457474470139f, -0.1501464694738388f, -0.033206406980752945f, 0.10404197871685028f, 1.181894063949585f, 0.017986243590712547f, 0.15782426297664642f, 0.16911987960338593f,
    -0.0036695331800729036f, -0.06917564570903778f, -0.307824969291687f, -0.06245085969567299f, -0.058670010417699814f, -0.10801710933446884f, -0.18988901376724243f, -0.30208757519721985f,
    0.6898526549339294f, 0.12759609520435333f, 0.027356790378689766f, 0.13173793256282806f, -0.24635742604732513f, -0.8658214211463928f, -0.0227828286588192f, -0.5462908148765564f,
    0.5991186499595642f, 0.7687779664993286f, 0.5074847340583801f, 0.724894642829895f, 0.5569087266921997f, 0.5529558062553406f, -0.42859846353530884f, 0.05372866988182068f,
    0.27976495027542114f, 0.38330647349357605f, -0.5243140459060669f, -0.023020688444375992f, 0.004298972897231579f, -0.030756821855902672f, 0.10412172228097916f, -0.041721418499946594f,
    0.012399791739881039f, 0.06311091780662537f, 0.0345306470990181f, 0.04286743327975273f, -0.06126796454191208f, 0.08109965175390244f, 0.5754345059394836f, -0.02428632602095604f,
    -0.0231357142329216f, -0.0019946428947150707f, 0.0321645587682724f, -0.04453291743993759f, 0.8152816891670227f, -0.007977902889251709f, -0.009513086639344692f, -0.04051462560892105f,
    -0.05820762366056442f, -0.3278520107269287f, -0.06210797652602196f, 0.011850759387016296f, 0.017012620344758034f, 0.05184519663453102f, 0.0659618079662323f, 0.25695234537124634f,
    -0.6085559129714966f, 0.00892836507409811f, -0.006981710437685251f, 0.005209967028349638f, -0.03247470408678055f, -0.004183528944849968f, -0.5005453824996948f, -0.04592190682888031f,
    -0.05819069594144821f, -0.09878728538751602f, -0.16953696310520172f, -0.4022134840488434f, 0.4077512323856354f, 0.05604421719908714f, 0.06329362094402313f, 0.09979972243309021f,
    0.1535131335258484f, 0.34642916917800903f, 0.18855440616607666f, -0.004356442019343376f, -0.013701241463422775f, -0.012537898495793343f, 0.0019073113799095154f, -0.0296397116035223f,
    0.6309100985527039f, -0.5165839791297913f, 0.06280592828989029f, 0.09615600854158401f, -1.3212593793869019f, -0.8864650726318359f, 0.021242303773760796f, -0.1955210119485855f,
    -0.7716253399848938f, 0.7334859371185303f, -0.6776406168937683f, 0.37421801686286926f, 0.9694327116012573f, -0.40984007716178894f, 0.2855975925922394f, 0.18605318665504456f,
    -0.5988653302192688f, 0.13966356217861176f, -0.10694006085395813f, 0.044040314853191376f, 0.04570525139570236f, 0.08324872702360153f, 0.09156856685876846f, 0.10235674679279327f,
    -1.332194447517395f, -0.05091401934623718f, -0.05219295993447304f, -0.09599264711141586f, -0.10471246391534805f, -0.12014184892177582f, -0.5473052859306335f, -0.008724771440029144f,
    -0.0058682505041360855f, -0.019669033586978912f, -0.023231901228427887f, -0.0033886400051414967f, -0.01142161525785923f, 0.008750690147280693f, -0.000490721664391458f, -0.0030016223900020123f,
    0.004675483331084251f, 0.006715149153023958f, 0.4029272496700287f, -0.00916805025190115f, 0.0014923462877050042f, 0.004820831120014191f, -0.001154823461547494f, -0.0004108584253117442f,
    0.44829338788986206f, -0.0037338382098823786f, -0.0004822720948141068f, -0.002669847570359707f, -0.0022421625908464193f, -0.016876263543963432f, 0.5068175792694092f, 0.0029131793417036533f,
    0.010266204364597797f, 0.023304050788283348f, -0.038696493953466415f, -0.18809719383716583f, -0.48245757818222046f, -0.018224889412522316f, -0.014442711137235165f, -0.03857950121164322f,
    0.05011957511305809f, 0.23045898973941803f, -0.9809563755989075f, 0.023568155243992805f, 0.00021558033768087626f, 0.014824891462922096f, -0.0222510676831007f, -0.022179454565048218f,
    0.0333392508327961f, 0.46818917989730835f, 0.3365532159805298f, 0.2741852402687073f, 0.5439953207969666f, -1.627534031867981f, 0.23802430927753448f, -0.5374987125396729f,
    0.2503075897693634f, -0.9743720293045044f, 0.022076543420553207f, -0.8758363723754883f, -0.3009169399738312f, -1.3328213691711426f, -0.2698230743408203f, -0.1804298609495163f,
    -0.15345413982868195f, -0.44216597080230713f, 0.4860866665840149f, -0.013060870580375195f, -0.01206841692328453f, -0.011035946197807789f, -0.01124273706227541f, -0.045863229781389236f,
    -0.2725517153739929f, 0.013588367961347103f, -0.009347696788609028f, -0.03816306218504906f, -0.030278924852609634f, -0.002939429134130478f, -0.21176230907440186f, 0.02727280929684639f,
    0.023104626685380936f, 0.03003699891269207f, 0.016800303012132645f, 0.06905166059732437f, -0.7855038642883301f, -0.00016591018356848508f, -0.0002773594460450113f, -0.00019433230045251548f,
    -0.0001465856039430946f, 0.003241217229515314f, 0.45993152260780334f, 0.0012878895504400134f, -0.00011815735342679545f, 0.0034763850271701813f, -0.0011181908193975687f, 0.003742717672139406f,
    0.7655555605888367f, 0.0028142097871750593f, 0.0013173666084185243f, 0.0040109604597091675f, 0.0008932218770496547f, 0.018344733864068985f, 0.5989607572555542f, 0.0005253995186649263f,
    0.00042682388448156416f, -0.002798733999952674f, -0.0020240978337824345f, -0.009351584129035473f, -0.661245584487915f, -0.00022133068705443293f, -0.002977206837385893f, -0.0025334933307021856f,
    -0.013741997070610523f, 0.02263513393700123f, -0.27792418003082275f, -0.0004914483288303018f, 0.0062020341865718365f, 0.011442327871918678f, 0.005441610235720873f, 0.018734347075223923f,
    -0.7567212581634521f, -0.0578516460955143f, -0.26796624064445496f, -0.5697401165962219f, -1.2874747514724731f, -0.138457253575325f, 0.5200631618499756f, 0.3885214626789093f,
    -0.9928467273712158f, 0.7594615817070007f, 0.12568560242652893f, -0.256003737449646f, 0.7285465598106384f, -0.6591842770576477f, -0.2369251549243927f, 0.614895761013031f,
    -0.6002267003059387f, -0.2288311868906021f, -0.3496338129043579f, 0.002192637650296092f, -0.05060535669326782f, 0.006305310875177383f, -0.045174550265073776f, -0.015910198912024498f,
    -0.1239076778292656f, 0.1402931809425354f, -0.010711726732552052f, 0.25939592719078064f, -0.2561573088169098f, 0.20639094710350037f, -0.1614307463169098f, 0.3581719696521759f,
    -0.5382983684539795f, 0.556273341178894f, -0.018062397837638855f, -0.046873848885297775f, 0.015617203898727894f, 0.02281627617776394f, -0.0899159163236618f, -0.027018196880817413f,
    0.08651623129844666f, 0.050197355449199677f, 0.039087194949388504f, 0.07911267131567001f, -0.3337474465370178f, 0.25806665420532227f, -0.816068172454834f, 0.267423540353775f,
    -0.07693524658679962f, -0.0670129731297493f, -0.005113829858601093f, 0.019630735740065575f, 0.06790482997894287f, 0.000819762353785336f, -0.0650000125169754f, 0.20157690346240997f,
    -0.1308915764093399f, 0.2747214138507843f, -0.17550933361053467f, 0.22725194692611694f, -0.13055001199245453f, -0.09427675604820251f, -0.33015474677085876f, -0.8031756281852722f,
    -0.11794506758451462f, -0.05299752950668335f, -0.16391779482364655f, 0.006876984611153603f, -0.14722618460655212f, -0.0037597520276904106f, -0.22766029834747314f, -0.022844253107905388f,
    -0.2757619023323059f, -0.0032140593975782394f, -0.1028219610452652f, 0.1340170055627823f, -0.23445551097393036f, -0.6085640788078308f, 0.42010703682899475f, 0.18307828903198242f,
    0.00992552936077118f, 0.10803720355033875f, 0.08187790215015411f, 0.015260319225490093f, 0.14448115229606628f, 0.17639818787574768f, 0.14362753927707672f, 0.15415552258491516f,
    0.23648227751255035f, 0.19027279317378998f, 0.25431597232818604f, 0.5380380749702454f, 0.12747570872306824f, -1.3602064847946167f, 0.027765262871980667f, 0.03401298075914383f,
    -0.0077749029733240604f, 0.012181092984974384f, -0.03888784348964691f, 0.1519913226366043f, -0.049162473529577255f, 0.2383187711238861f, 0.04181080311536789f, 0.07985414564609528f,
    0.07816991209983826f, 0.1291196644306183f, 0.27438998222351074f, 0.49909037351608276f, 1.2920624017715454f, 0.09816860407590866f, -0.16516628861427307f, 0.035573333501815796f,
    -0.1581941395998001f, 0.07680721580982208f, -0.12246578186750412f, 0.07003966718912125f, -0.2502796947956085f, 0.04353945329785347f, -0.36780408024787903f, 0.1422460526227951f,
    -0.4267348051071167f, -0.057155776768922806f, -0.9258725643157959f, -0.7623863220214844f, -0.12572672963142395f, -0.034084923565387726f, -0.07771407812833786f, 0.010021904483437538f,
    0.10434456914663315f, -0.24161073565483093f, 0.13930311799049377f, 0.01544715091586113f, -0.03168032690882683f, 0.048044487833976746f, 0.06986911594867706f, -0.0039544194005429745f,
    0.2834565043449402f, -0.52195143699646f, 0.8515061736106873f, -0.08454980701208115f, -0.16011124849319458f, -0.14762011170387268f, -0.13274766504764557f, 0.013703742995858192f,
    -0.3085561692714691f, 0.18537753820419312f, -0.14086222648620605f, 0.08541707694530487f, -0.18254023790359497f, -0.021660635247826576f, -0.3286701440811157f, 0.0734248012304306f,
    -0.4753331243991852f, -0.3433802127838135f, 0.6888797879219055f, 0.09148893505334854f, 0.7224029302597046f, 1.231734275817871f,0.12107310444116592f, -0.0014588820049539208f,
    -0.6068517565727234f, 1.779370665550232f, -0.6232714653015137f, 0.1379336267709732f, 1.4950156211853027f, -0.8355764746665955f,0.26442191004753113f, 0.27703171968460083f,
    0.32804906368255615f, -0.06654775142669678f, 0.1095934733748436f, -0.07480688393115997f, 0.006573635619133711f, 0.001852560555562377f, 0.003645878052338958f, 0.006115662399679422f,
    0.0054671624675393105f, 0.0045508285984396935f, 0.007500537671148777f, 0.0018802646081894636f, 0.009707680903375149f, 0.01023587305098772f, 0.0015011961804702878f, 0.007960614748299122f,
    0.007545086555182934f, 0.026259565725922585f, -0.6496801376342773f, -0.013677570037543774f, -0.002719131764024496f, -0.006478487513959408f, -0.009955620393157005f, -0.00951051339507103f,
    -0.0060661667957901955f, 0.0011382164666429162f, -0.006015259772539139f, -0.009920798242092133f, -0.014716099016368389f, -0.008821024559438229f, -0.014038358815014362f, -0.019913850352168083f,
    -0.02820921130478382f, -0.5325950384140015f, -0.05350026860833168f, -0.05843466892838478f, -0.0446833111345768f, -0.053857967257499695f, -0.048211462795734406f, -0.060462579131126404f,
    -0.06962674111127853f, -0.06132110580801964f, -0.06649788469076157f, -0.07214044779539108f, -0.08483812212944031f, -0.09324487298727036f, -0.1328512579202652f, -0.13102121651172638f,
    -0.34663739800453186f, -0.027149491012096405f, -0.039087407290935516f, -0.026275457814335823f, -0.037691108882427216f, -0.046128060668706894f, -0.036570511758327484f, -0.05535712465643883f,
    -0.028606818988919258f, -0.06339119374752045f, -0.034824710339307785f, -0.023791057989001274f, -0.04379499703645706f, -0.015945594757795334f, -0.03185932710766792f, 0.9216465950012207f,
    0.005899163894355297f, 9.956777648767456e-05f, -0.0013157480861991644f, -0.03622383624315262f, -0.012193209491670132f, -0.0266351830214262f, -0.03409945219755173f, -0.0451098196208477f,
    -0.022691452875733376f, -0.09476562589406967f, -0.06983968615531921f, -0.0856020376086235f, -0.08594929426908493f, -0.09909568727016449f, -0.5073371529579163f, -0.0107448510825634f,
    -0.0346125029027462f, -0.025706660002470016f, -0.05344794690608978f, -0.0748930349946022f, -0.03521525114774704f, -0.0278480164706707f, -0.07799992710351944f, -0.03717778995633125f,
    -0.13680188357830048f, -0.11907994002103806f, -0.041342686861753464f, -0.13596300780773163f, 0.017204545438289642f, -0.4592320919036865f, -0.18477100133895874f, -0.15689560770988464f,
    -0.16980621218681335f, -0.1561625599861145f, -0.14271098375320435f, -0.15756593644618988f, -0.18048857152462006f, -0.09890570491552353f, -0.1437571793794632f, -0.04911470785737038f,
    -0.06432570517063141f, -0.06834796816110611f, 0.12302089482545853f, -0.023121153935790062f, 0.0888613685965538f, -0.267673134803772f, -0.19439075887203217f, -0.18531158566474915f,
    -0.14336535334587097f, -0.10644366592168808f, -0.1249779760837555f, -0.17650309205055237f, -0.04742700606584549f, -0.1413584053516388f, -0.08247341215610504f, -0.10836846381425858f,
    -0.2130771428346634f, 0.0008428814471699297f, -0.2995206117630005f, 0.5542978644371033f, -0.2511817216873169f, -0.19866293668746948f, -0.17746441066265106f, -0.1564301997423172f,
    -0.11650827527046204f, -0.1419084370136261f, -0.14929528534412384f, -0.021339289844036102f, -0.13009130954742432f, 0.004070513416081667f, 0.014613036066293716f, 0.022112270817160606f,
    0.2306811362504959f, -0.11298588663339615f, 0.11842894554138184f, -0.04337116330862045f, 0.8678871393203735f, -0.03152640163898468f, 2.3288683891296387f, 0.30682092905044556f,
    0.4964196979999542f, -0.38739585876464844f, 0.4433979094028473f, -0.09621850401163101f, 1.1902825832366943f, 0.15733131766319275f, 0.4631941318511963f, -0.7978980541229248f,
    0.3979269862174988f, 0.4979289770126343f, -0.5492932200431824f, 0.10804978013038635f, 0.4740249216556549f, -0.054664164781570435f, 0.2812325358390808f, -0.03346725180745125f,
    0.1957133710384369f, -0.6826684474945068f, -0.5172170996665955f, 0.1141398474574089f, -0.0280609093606472f, 0.29567569494247437f, -0.37892553210258484f, 0.6546902656555176f,
    0.34085503220558167f, -0.18474556505680084f, -0.0074346656911075115f, -0.33451223373413086f, 0.2571886479854584f, -0.5823009014129639f, -0.37289246916770935f, 0.18855316936969757f,
    -0.11602137982845306f, -0.08163034915924072f, -0.2934027910232544f, -0.11152499914169312f, 0.4675474166870117f, 0.07140025496482849f, -0.06877309083938599f, 0.21905145049095154f,
    -0.21477845311164856f, -0.11557354778051376f, -0.1086583212018013f, -0.09246619045734406f, 0.031103435903787613f, 0.011035307310521603f, -0.008657366968691349f, 0.20627719163894653f,
    -0.11212360858917236f, -0.03632493317127228f, -0.05874135345220566f, 0.2844681739807129f, 0.008930807933211327f, 0.5951054096221924f, -0.7311686873435974f, -0.04929310828447342f,
    0.20794764161109924f, 0.08081897348165512f, -0.1084744781255722f, -0.4460192322731018f, -0.5136277675628662f, 0.03615103289484978f, -0.08987950533628464f, 0.057886455208063126f,
    -0.07227747142314911f, 0.595393717288971f, 0.53235924243927f, 0.5223416686058044f, 0.7856229543685913f, 0.32703930139541626f, 0.37826353311538696f, 0.29826462268829346f,
    1.2972252368927002f, -0.5467275977134705f, 0.21831704676151276f, 0.6289408802986145f, 0.261576771736145f, 0.189825177192688f, -0.4831450283527374f, -0.4175443947315216f,
    0.4971260726451874f, 0.7517589926719666f, -0.2789611220359802f, 0.5348082780838013f, 1.0042105913162231f, 0.14636552333831787f,0.15729208290576935f, -0.146728977560997f,
    0.23379817605018616f, -0.0019773077219724655f, 0.1773488074541092f, -0.6616474390029907f, -0.528896689414978f, -0.45270800590515137f, -0.5066685080528259f, -0.43270957469940186f,
    -0.7787252068519592f, 0.12650033831596375f, -0.06361306458711624f, -0.1858850121498108f, -0.30371394753456116f, -0.291791170835495f, -0.07610583305358887f, 0.12903591990470886f,
    -0.015127001330256462f, 0.2280052751302719f, 0.006693601608276367f, 0.180272176861763f, 0.06989812850952148f, 0.01623830571770668f, -0.06931505352258682f, -0.007689105812460184f,
    0.035276420414447784f, 0.21722134947776794f, 0.13495872914791107f, -0.1825980246067047f, -0.03551549091935158f, -0.32600903511047363f, -0.0022020931355655193f, -0.01480356976389885f,
    -0.41148051619529724f, 0.32675856351852417f, -0.5445698499679565f, 0.2241283506155014f, -0.5781025886535645f, 0.1260451078414917f, 0.24611937999725342f, 0.09792806208133698f,
    -0.2492436319589615f, -0.02776493690907955f, -0.7554351091384888f, 0.9224287867546082f, 0.49071261286735535f, -0.2955801486968994f, 0.4260872006416321f, -0.18141694366931915f,
    0.25504830479621887f, -0.49508315324783325f, -0.16505029797554016f, -0.04518923908472061f, -0.7392306923866272f, 0.9646643400192261f, -0.35643231868743896f, -1.1479089260101318f,
    1.424404263496399f, -0.04604385420680046f, 1.2142564058303833f, 0.06399188935756683f, 0.3957985043525696f, -0.44371920824050903f, -0.11593673378229141f, -1.123901128768921f,
    0.3769284188747406f, 0.05654827877879143f, -0.28891822695732117f, -0.08275355398654938f, 0.7445182800292969f, -0.0484345443546772f, -0.05558358505368233f, -0.07026071101427078f,
    -0.029875941574573517f, -0.1647133231163025f, -0.30910956859588623f, -0.21219025552272797f, -0.2024194598197937f, -0.3057647943496704f, -0.1195429116487503f, -0.05805239826440811f,
    0.3025021553039551f, -0.07117107510566711f, -0.11113057285547256f, -0.1314011514186859f, -0.048325471580028534f, 0.0789634957909584f, 0.6656188368797302f, -0.10088057070970535f,
    -0.13247275352478027f, -0.04376387223601341f, 0.033851638436317444f, 0.08161403983831406f, 0.30215877294540405f, 0.03537199646234512f, -0.034553464502096176f, 0.056519508361816406f,
    0.15410304069519043f, 0.30633822083473206f, -0.2716941833496094f, 0.07277332991361618f, 0.09295237064361572f, -0.0023353155702352524f, -0.030310021713376045f, -0.022486669942736626f,
    0.4549545645713806f, 0.06892573833465576f, 0.058321770280599594f, 0.31281039118766785f, 0.0823267474770546f, 0.4321920871734619f, -0.4385828375816345f, 0.04030928760766983f,
    -0.09200507402420044f, 0.0477064773440361f, -0.01448278222233057f, 0.472891241312027f, -0.11341159045696259f, -0.05252809450030327f, -0.14485718309879303f, -0.4278804063796997f,
    -0.14251647889614105f, -0.19283440709114075f, 0.3436894416809082f, 0.16541650891304016f, 0.44043615460395813f, 0.4477534890174866f, 0.5453153252601624f, 0.8068843483924866f,
    1.0853240489959717f, -0.10073991864919662f, 0.626777708530426f, 0.4556175470352173f, -0.7080386281013489f, 0.07215980440378189f, 0.4071202874183655f, -0.7296848893165588f,
    0.40662091970443726f, -0.21777138113975525f, -0.32618287205696106f, 0.40759479999542236f, 0.8053579926490784f, -0.010328964330255985f, -0.0992063581943512f, -0.06872624903917313f,
    0.016061069443821907f, 0.009787742979824543f, -0.8469213247299194f, -0.0858398973941803f, 0.02441795915365219f, 0.008344435133039951f, 0.060627665370702744f, -0.0399511493742466f,
    -0.05322309210896492f, -0.05455871298909187f, 0.09612549096345901f, 0.05373120307922363f, -0.05229250714182854f, -0.0912037119269371f, 0.15089347958564758f, 0.0019703747238963842f,
    -0.12061449140310287f, -0.06123494729399681f, -0.11160661280155182f, -0.10864625871181488f, 0.13577187061309814f, 0.12008888274431229f, 0.2601054012775421f, 0.3132273554801941f,
    0.254771888256073f, 0.44941288232803345f, -0.6456234455108643f, 0.01719575561583042f, 0.21411392092704773f, 0.19159142673015594f, 0.19298367202281952f, 0.26669469475746155f,
    -0.2443101853132248f, -0.3232137858867645f, -0.20704832673072815f, -0.30833378434181213f, -0.3413066267967224f, -0.3462402820587158f, 0.09247986972332001f, 0.12072420865297318f,
    0.11378543823957443f, 0.16762013733386993f, 0.21793174743652344f, 0.08935808390378952f, 0.8351515531539917f, 0.5631149411201477f, 0.43460899591445923f, 0.6321714520454407f,
    0.7333381772041321f, 0.7624183893203735f, -0.1100628525018692f, 0.7332556843757629f, 0.9378265738487244f, 0.03370034694671631f,0.29313185811042786f, -0.26157259941101074f,
    0.21559321880340576f, -0.5841504335403442f, -0.0372764952480793f, -0.5842243432998657f, 0.49116769433021545f, 0.7716047167778015f, 0.028820179402828217f, -0.6462754011154175f,
    0.3944408595561981f, 0.22603341937065125f, -0.4317176640033722f, -0.26823097467422485f, 0.351597398519516f, -0.24634751677513123f, -0.21206150949001312f, -0.05875198170542717f,
    -0.12031540274620056f, -0.03102872148156166f, -0.015636039897799492f, -0.24819278717041016f, -0.34254518151283264f, -0.4127819836139679f, -0.22222411632537842f, -0.022299017757177353f,
    0.03527039289474487f, 0.24885740876197815f, 0.16130688786506653f, -0.09337648004293442f, 0.0735970288515091f, 0.018375402316451073f, 0.04521038755774498f, -0.04055222123861313f,
    -0.12371370196342468f, -0.0541209802031517f, -0.16568642854690552f, -0.1552494466304779f, 0.21863991022109985f, 0.012092037126421928f, 0.08061137795448303f, 0.05524517223238945f,
    0.0818619653582573f, 0.08076555281877518f, -0.013795618899166584f, 0.06315925717353821f, 0.20818187296390533f, 0.1009698435664177f, 0.2732480466365814f, 0.26520055532455444f,
    0.22649015486240387f, 0.023801706731319427f, 0.021489137783646584f, 0.011439640074968338f, 0.008837131783366203f, -0.03342714533209801f, 0.2829999029636383f, 0.028009960427880287f,
    0.045824047178030014f, 0.05403396114706993f, 0.009304721839725971f, -0.07298912107944489f, 0.22872060537338257f, -0.025873610749840736f, -0.010713680647313595f, 0.013731352984905243f,
    -0.001681177644059062f, 0.03358818218111992f, 0.09221464395523071f, -0.06572431325912476f, 0.3265325129032135f, -0.3695468008518219f, 0.47654610872268677f, 1.083475947380066f,
    -0.7549189329147339f, 0.4556109309196472f, -0.5294704437255859f, -1.3586084842681885f, 0.11780395358800888f, -1.0632318258285522f, 1.0565407276153564f, -1.2397308349609375f,
    0.8679370880126953f, -0.8331537246704102f, 0.09476611018180847f, 0.054703500121831894f, 0.208424910902977f, 0.017346499487757683f, 0.010590902529656887f, 0.03230201452970505f,
    0.006052353419363499f, 0.032817546278238297f, 0.43040230870246887f, 0.018894808366894722f, 0.01861940324306488f, 0.02009441703557968f, 0.033367663621902466f, -0.016453055664896965f,
    0.10553738474845886f, -0.0007417539600282907f, 0.0018802706617861986f, -0.010464795865118504f, 0.02190479077398777f, -0.03221411257982254f, 0.40743914246559143f, 0.007825173437595367f,
    0.00625332398340106f, 0.021152915433049202f, 0.011242176406085491f, 0.0653030052781105f, 0.4843654930591583f, 0.022201286628842354f, 0.028139879927039146f, 0.040840864181518555f,
    0.08173123747110367f, 0.09469811618328094f, 0.05731644108891487f, 0.003374279709532857f, 0.009108735248446465f, 0.0004070664872415364f, 0.0065117403864860535f, -0.007938696071505547f,
    -0.7580541968345642f, 0.029654068872332573f, -0.019897641614079475f, 0.026129424571990967f, 0.003083820454776287f, 0.06822001934051514f, 0.032546285539865494f, 0.02058127336204052f,
    -0.06188364699482918f, -0.008521326817572117f, 0.04062345623970032f, 0.047169215977191925f, -0.16547580063343048f, -0.021686499938368797f, -0.03162967413663864f, -0.02473779022693634f,
    0.012988769449293613f, -0.04527514800429344f, 0.09643042832612991f, -0.28493157029151917f, 0.13631904125213623f, -0.3533639907836914f, -0.6555231809616089f, -0.12545831501483917f,
    -0.06127762421965599f, -0.4830898344516754f, 0.12386411428451538f, 0.026747528463602066f, 0.29790452122688293f, 0.09333565831184387f, 0.1122700646519661f, -0.7900004386901855f,
    0.8895716667175293f, 0.14599914848804474f, 0.2429385930299759f, 0.03796888887882233f, 0.43564021587371826f, -0.037493493407964706f, -0.01733921468257904f, -0.17765313386917114f,
    -0.02018670178949833f, -0.44931671023368835f, 0.1761598289012909f, 0.027515409514307976f, 0.008840477094054222f, -0.10290051251649857f, -0.050844691693782806f, -0.25908511877059937f,
    0.1619674265384674f, 0.04551369324326515f, 0.018377428874373436f, 0.06920535862445831f, -0.017811249941587448f, 0.15837019681930542f, -0.3702481985092163f, -0.06846933811903f,
    -0.09356797486543655f, -0.2000834345817566f, -0.237360417842865f, -0.39716586470603943f, 1.3243213891983032f, 0.01270010694861412f, -0.02129868045449257f, -0.08968948572874069f,
    -0.09158837050199509f, -0.2515660524368286f, -0.4904949367046356f, 0.054860394448041916f, 0.05636928975582123f, 0.09672871232032776f, 0.12136770784854889f, 0.13913977146148682f,
    0.9121324419975281f, 0.01898820511996746f, -0.0015796056250110269f, 0.15819577872753143f, -0.006829302292317152f, 0.3356235921382904f, -0.145863875746727f, -0.08141575753688812f,
    -0.07188791036605835f, 0.06816160678863525f, -0.011373458430171013f, 0.11134015023708344f, -0.1714710146188736f, -0.0746796503663063f, -0.04263833910226822f, -0.06961099803447723f,
    -0.013103189878165722f, -0.17818748950958252f, 0.2333517223596573f, -0.1576804369688034f, 0.29119637608528137f, -0.25618574023246765f, -0.23963478207588196f, 1.0287082195281982f,
    -0.059923820197582245f, 0.4162098467350006f, -0.00858832336962223f, 0.5327888131141663f, 0.11612158268690109f, 0.18631941080093384f, -0.07476914674043655f, -0.32249006628990173f,
    -0.3899204134941101f, -0.36959829926490784f, -0.3457287847995758f, 0.4948616325855255f, -0.35605674982070923f, -0.03943803161382675f, -0.019129682332277298f, -0.004800694994628429f,
    -0.06618048250675201f, 0.030969779938459396f, -0.10755588859319687f, 0.07451075315475464f, -0.10920374095439911f, 0.07838854193687439f, -0.009115086868405342f, -0.22475142776966095f,
    -0.06449803709983826f, -0.021172719076275826f, -0.02336195297539234f, -0.0419638492166996f, -0.0361335389316082f, -0.01673412136733532f, -0.011042367666959763f, -0.01567859947681427f,
    -0.016553375869989395f, -0.03467334434390068f, -0.009087794460356236f, -0.06813541054725647f, 0.02387777529656887f, -0.12333302944898605f, 0.029432980343699455f, 0.2050296664237976f,
    0.07691177725791931f, -0.0058540948666632175f, -0.006357088685035706f, -0.019311323761940002f, -0.007333089131861925f, 0.028125040233135223f, 0.045392293483018875f, -0.007646502926945686f,
    0.08896460384130478f, -0.07704377174377441f, 0.12240655720233917f, -0.042298752814531326f, 0.04426901042461395f, 0.08681832998991013f, -0.03525011986494064f, 0.026497293263673782f,
    0.09494166821241379f, 0.05795135721564293f, 0.043159786611795425f, 0.06725442409515381f, 0.05997848883271217f, -0.20668117702007294f, 0.0101802159857634f,
};

// ---------------------------------------------------------------------------
// Source: [AMP] JCM800-2203-MODIFIED-HI The Sound - DI.nam  (1871 weights)
// ---------------------------------------------------------------------------
NAM_A2_MODEL_DATA NAM_A2_ALIGN32
inline constexpr float kWeightsJcm800[nam_a2_daisy::kA2WeightCount] = {
    -0.7465822100639343f, -1.7277847528457642f, -1.571211338043213f, 0.21259765326976776f, -0.12820520997047424f, 0.36932653188705444f, 0.34170451760292053f, 0.6715201735496521f,
    -0.35767725110054016f, 0.203086718916893f, -0.20282064378261566f, 0.44109290838241577f, 0.35871946811676025f, 0.4292032718658447f, -0.33770135045051575f, 0.15179288387298584f,
    -0.04792407900094986f, 0.3613968789577484f, 0.6829249858856201f, 0.359148770570755f, -0.18929407000541687f, -0.2537004053592682f, 0.11311830580234528f, -0.43890202045440674f,
    -0.6380392909049988f, -0.21334496140480042f, 0.4496718943119049f, -0.08965671062469482f, -0.24046461284160614f, -0.2894389033317566f, -0.4974203109741211f, -0.5435632467269897f,
    0.4292929768562317f, -0.07166299968957901f, -0.11246047168970108f, -0.13534976541996002f, -0.23153738677501678f, -0.28193846344947815f, 0.3422461450099945f, -0.26389530301094055f,
    -0.5205384492874146f, 0.4361819922924042f, -0.2305508255958557f, -0.048359256237745285f, -0.1395633965730667f, -0.283764123916626f, -0.24418140947818756f, 0.47450804710388184f,
    -0.2000727504491806f, 0.1957944631576538f, -0.002245192416012287f, -0.3135479986667633f, -0.36871665716171265f, 0.6488664746284485f, -0.29437461495399475f, -0.051380455493927f,
    -0.14331836998462677f, 0.15505482256412506f, -0.15885765850543976f, -0.07049519568681717f, 0.6113609671592712f, 0.30017873644828796f, 0.2825106382369995f, -0.7190367579460144f,
    0.5067470669746399f, 0.3206883668899536f, -0.3484750986099243f, 0.26486340165138245f, 0.25708699226379395f, -0.4613793194293976f, 0.5924763083457947f, -0.3810098469257355f,
    0.21014462411403656f, -0.2664639353752136f, -0.023147249594330788f, -0.06899965554475784f, -0.24134550988674164f, 0.08202285319566727f, -0.11077288538217545f, 0.17306503653526306f,
    0.022313768044114113f, 0.015615114942193031f, -0.027145281434059143f, 0.18683560192584991f, -0.09631212800741196f, -0.06142332777380943f, -0.3421124815940857f, 0.17662930488586426f,
    0.043547965586185455f, 0.07263392210006714f, -0.23377275466918945f, -0.15504513680934906f, -0.5462170243263245f, 0.2690407931804657f, 0.0890970528125763f, 0.11684626340866089f,
    0.017100589349865913f, 0.3386596441268921f, -0.36509138345718384f, -0.10200139135122299f, -0.20277363061904907f, -0.30124372243881226f, 0.028405997902154922f, -0.26595088839530945f,
    0.021284466609358788f, -0.11526742577552795f, 0.10874313861131668f, -0.12103350460529327f, -0.10549313575029373f, -0.43726882338523865f, -0.37348172068595886f, -0.11959183216094971f,
    -0.03086487017571926f, -0.2578822076320648f, -0.12212643027305603f, -0.32735297083854675f, -0.27261799573898315f, -0.1619793027639389f, 0.16946865618228912f, -0.08685603737831116f,
    0.3111940920352936f, -0.14139772951602936f, -0.4696424901485443f, 0.11724302172660828f, 0.04016079753637314f, 0.19332492351531982f, 0.03611920773983002f, 0.029947983101010323f,
    -0.6116772890090942f, 0.11513450741767883f, 0.25053200125694275f, 0.11825849860906601f, 1.4032273292541504f, 0.019904199987649918f, 1.5732589960098267f, -0.4772193729877472f,
    0.1941368579864502f, -1.1000763177871704f, 0.1521671861410141f, 0.5685888528823853f, 0.05160012096166611f, -0.7011944651603699f, -0.6383203268051147f, -0.40040323138237f,
    0.4241032600402832f, -0.14521047472953796f, 0.2418227642774582f, 0.03613780438899994f, -0.005897936876863241f, -0.041732169687747955f, 0.028139274567365646f, -0.026046818122267723f,
    -0.3251630365848541f, 0.3040149211883545f, 0.19075389206409454f, 0.00034287243033759296f, 0.13170398771762848f, 0.4345795810222626f, 0.4148724377155304f, -0.07067955285310745f,
    -0.012178093194961548f, 0.03654583543539047f, -0.07372518628835678f, -0.07670951634645462f, 0.7778000235557556f, 0.0030470413621515036f, 0.06558047235012054f, 0.010770504362881184f,
    -0.053449325263500214f, -0.27242887020111084f, 0.47499391436576843f, -0.40839987993240356f, -0.3651851713657379f, 0.04140036925673485f, -0.19166184961795807f, 0.6855288147926331f,
    0.6626399159431458f, 0.054220326244831085f, -0.05844944342970848f, -0.09798657894134521f, -0.07274117320775986f, -0.054847195744514465f, 0.33064404129981995f, -0.03374454006552696f,
    -0.12082266062498093f, -0.02784247323870659f, -0.10788392275571823f, -0.005117714870721102f, 0.46032628417015076f, 0.20743165910243988f, 0.29275497794151306f, 0.5596042275428772f,
    0.3049512803554535f, -0.03042142651975155f, -1.0509274005889893f, 0.003943332005292177f, 0.07417356967926025f, 0.010012524202466011f, 0.15754814445972443f, 0.5653840899467468f,
    -0.2694687247276306f, -0.013712923973798752f, -0.16738580167293549f, 0.2020658552646637f, -1.0234650373458862f, 0.39368322491645813f, 0.08103735744953156f, 0.16363893449306488f,
    -0.742371141910553f, -0.6651366949081421f, 0.10502373427152634f, 0.2982174754142761f, 0.7149904370307922f, -0.6694381237030029f, -0.17505650222301483f, -0.2528465688228607f,
    0.216839000582695f, 0.012394694611430168f, 0.38258519768714905f, 0.007821453735232353f, 0.035292599350214005f, -0.017124343663454056f, -0.007984757423400879f, 0.037103764712810516f,
    -0.401860773563385f, 0.01956716552376747f, 0.026791762560606003f, 0.044660162180662155f, 0.04501761123538017f, 0.10930860042572021f, -0.2563551664352417f, -0.008733908645808697f,
    -0.04010311886668205f, 0.014442583546042442f, -0.0024372064508497715f, -0.07524733245372772f, -0.6672234535217285f, -0.02554122917354107f, -0.057457659393548965f, -0.039386749267578125f,
    -0.029502416029572487f, -0.05601959303021431f, 0.15956182777881622f, 0.19480006396770477f, 0.13130420446395874f, 0.14105260372161865f, 0.29676517844200134f, 0.3578317165374756f,
    -0.7108562588691711f, -0.03870174661278725f, 0.018246814608573914f, -0.008835233747959137f, -0.0772392600774765f, -0.11158978939056396f, 0.08963800966739655f, -0.020448841154575348f,
    -0.04187804460525513f, -0.03046535514295101f, -0.014313954859972f, -0.034536875784397125f, -0.016795428469777107f, 0.01911248452961445f, 0.031097885221242905f, 0.03659076243638992f,
    0.03618187829852104f, 0.051718588918447495f, 0.023731570690870285f, 0.014982481487095356f, 0.03108392283320427f, 0.021051064133644104f, -0.010352849029004574f, -0.016656454652547836f,
    0.04929836094379425f, -0.15741141140460968f, -0.004945006221532822f, -0.6115831732749939f, -0.42539355158805847f, -0.3288162648677826f, -1.9738941192626953f, 0.7750124931335449f,
    -0.4338047206401825f, -0.8836221098899841f, 0.29881125688552856f, 0.7493895292282104f, -1.0389386415481567f, 0.46842700242996216f, -0.11607516556978226f, -0.6309035420417786f,
    -0.2632916569709778f, -0.2567046880722046f, 0.39854559302330017f, 0.02437620796263218f, 0.032752640545368195f, 0.0605400986969471f, 0.06463558226823807f, 0.10307812690734863f,
    -0.8690706491470337f, -0.022352011874318123f, -0.022733820602297783f, -0.03318524360656738f, -0.035518985241651535f, -0.04663961008191109f, 0.818656861782074f, -0.0068550691939890385f,
    -0.0021621319465339184f, -0.021191880106925964f, -0.005019469652324915f, -0.016024412587285042f, -0.11048487573862076f, -0.02269941195845604f, 0.006052870769053698f, -0.01682852767407894f,
    -0.03899628296494484f, -0.07982558757066727f, -0.17154556512832642f, -0.018621152266860008f, -0.04975619539618492f, -0.027261000126600266f, -0.09743907302618027f, -0.254603773355484f,
    -0.5233515501022339f, 0.016982439905405045f, 0.014856019988656044f, 0.03785530850291252f, 0.08655497431755066f, 0.21378301084041595f, -0.28308194875717163f, 0.02620546519756317f,
    -0.06047787144780159f, -0.01960248313844204f, -0.05174950137734413f, -0.21172742545604706f, -0.13890807330608368f, 0.015620549209415913f, 0.07160280644893646f, -0.004898401442915201f,
    0.05131037160754204f, 0.020249955356121063f, -0.10636710375547409f, -0.01236134022474289f, 0.04290987551212311f, -0.025174623355269432f, 0.022749455645680428f, 0.0722813829779625f,
    0.05638022720813751f, 0.2045574188232422f, 0.010715731419622898f, 0.27392685413360596f, 0.2970415949821472f, 1.3163297176361084f, 1.1171247959136963f, 0.6756789684295654f,
    -0.12718087434768677f, -0.18060562014579773f, -0.36412471532821655f, -0.049510739743709564f, -0.033779218792915344f, 0.07643032819032669f, -0.6651543974876404f, -0.2090308964252472f,
    -0.21182987093925476f, 0.23279698193073273f, 0.2549261450767517f, -0.02196415513753891f, -0.017023824155330658f, -0.02203507535159588f, -0.03707093745470047f, -0.12539684772491455f,
    0.002103293314576149f, 0.04077765718102455f, 0.03260113671422005f, 0.04550320655107498f, 0.04718610271811485f, 0.07629677653312683f, 0.608245313167572f, -0.002667398424819112f,
    0.004469328559935093f, 0.0058859786950051785f, 0.012021683156490326f, 0.044435739517211914f, 0.2536607086658478f, 0.007232995703816414f, -0.004012363497167826f, -0.004696773365139961f,
    0.0017577297985553741f, 0.02069356106221676f, -0.504895806312561f, -0.1392194926738739f, -0.16004541516304016f, -0.27479416131973267f, -0.18742404878139496f, -0.3850022554397583f,
    0.044603340327739716f, 0.009382249787449837f, 0.04028501734137535f, 0.03524252027273178f, 0.030320681631565094f, 0.05248658359050751f, -0.6953818202018738f, -0.03159153461456299f,
    -0.032864104956388474f, -0.0470530167222023f, -0.05241585522890091f, -0.05370574817061424f, -0.43338412046432495f, 0.0457674041390419f, 0.04375174641609192f, 0.06680674105882645f,
    0.08690917491912842f, 0.085934579372406f, 0.40165987610816956f, -0.004184333607554436f, -0.0003363863506820053f, -0.0004944056272506714f, -0.001875089481472969f, 0.00571224233135581f,
    -0.5431172251701355f, -0.1949840635061264f, 0.12089908123016357f, 0.20123843848705292f, 1.1924631595611572f, 0.8047273755073547f, 0.25926533341407776f, -0.4096420109272003f,
    -0.23227299749851227f, -0.06625000387430191f, -0.3646322190761566f, -0.051450684666633606f, 0.4566984474658966f, -0.2318950742483139f, -0.02736707217991352f, 0.6165024042129517f,
    -0.402361124753952f, 0.07155609875917435f, -0.3809159994125366f, -0.014635655097663403f, -0.013314184732735157f, -0.015389397740364075f, -0.014335919171571732f, -0.014415843412280083f,
    -0.7058513164520264f, 0.03578989580273628f, 0.0342814140021801f, 0.05458219349384308f, 0.10759787261486053f, 0.15875044465065002f, 0.014431498013436794f, 0.00905371829867363f,
    0.006252962164580822f, 0.006073596887290478f, 0.006689364090561867f, 0.006023595109581947f, -0.4743651747703552f, -0.0027030734345316887f, -0.007766081485897303f, -0.01176324300467968f,
    -0.027140215039253235f, -0.02534935623407364f, -0.3437611162662506f, 0.0016070535639300942f, 0.01331284549087286f, -0.0007716011605225503f, 0.02389266900718212f, 0.021233413368463516f,
    -0.03159420192241669f, 0.0032563158310949802f, 0.009360110387206078f, 0.015906130895018578f, 0.025989346206188202f, 0.01692800223827362f, 0.5466820597648621f, 0.0005000543314963579f,
    0.0015294646145775914f, 0.003338822163641453f, 0.011640696786344051f, 0.0203030277043581f, 0.5271599888801575f, -0.005221700295805931f, -0.00966477207839489f, -0.004230048041790724f,
    -0.015013255178928375f, -0.011483282782137394f, -0.24190831184387207f, -0.0008565347525291145f, -0.002588981995359063f, -0.0029662675224244595f, -0.009258914738893509f, -0.010121872648596764f,
    0.5924730896949768f, -0.3267178237438202f, -0.009519324637949467f, 0.3492119610309601f, 0.9706351161003113f, -1.3647129535675049f, -0.9188820123672485f, 0.22099953889846802f,
    0.19772322475910187f, 0.5048274993896484f, 0.4607321619987488f, 0.10419491678476334f, 0.16730515658855438f, 0.08695043623447418f, 0.19320152699947357f, 0.6168665885925293f,
    0.2568235993385315f, -0.22635503113269806f, -0.032859593629837036f, 0.10793135315179825f, -0.10190466791391373f, 0.47614967823028564f, 0.08405829221010208f, 0.2825443148612976f,
    -0.07626968622207642f, -0.006393630523234606f, -0.15576715767383575f, 0.09184230118989944f, 0.12954269349575043f, 0.014652096666395664f, -0.1813710778951645f, 0.14739030599594116f,
    -0.09659002721309662f, 0.20027105510234833f, -0.08943651616573334f, 0.4233909547328949f, 0.7273030877113342f, 0.13405734300613403f, 0.17322880029678345f, 0.19769951701164246f,
    -0.05413752794265747f, -0.12387769669294357f, -0.12005423754453659f, 0.19867239892482758f, -0.04871359467506409f, 0.06940992921590805f, 0.18578626215457916f, 0.12715353071689606f,
    -0.5444849133491516f, -0.05919722840189934f, 0.0918833315372467f, 0.2520112693309784f, 0.18515710532665253f, -0.7831847071647644f, 0.09247532486915588f, -0.18259038031101227f,
    -0.050513073801994324f, -0.010767611674964428f, -0.09285560250282288f, -0.004773295484483242f, -0.16124311089515686f, -0.15918125212192535f, 0.06046569347381592f, -0.24796274304389954f,
    -0.10007282346487045f, -0.20574213564395905f, -0.038733936846256256f, 0.15084215998649597f, 0.5070461630821228f, -0.040886521339416504f, 0.3131506145000458f, -0.2671933174133301f,
    -0.7804069519042969f, 0.34041666984558105f, 0.006167721934616566f, -0.025996943935751915f, -0.5154668092727661f, -0.8714943528175354f, 1.1296671628952026f, 0.19723571836948395f,
    0.6804839372634888f, -0.2489117532968521f, 0.20704343914985657f, 0.7654591202735901f, 0.25331658124923706f, 0.4837936758995056f, -0.5541418790817261f, -0.833202064037323f,
    -0.1286475509405136f, -0.1831347942352295f, 0.16264265775680542f, -0.16176675260066986f, -0.0877305269241333f, -0.157647043466568f, -0.11744433641433716f, -0.226315438747406f,
    -0.32661524415016174f, -0.008790143765509129f, -0.05960067734122276f, 0.001663091592490673f, 0.00857736635953188f, -0.06259190291166306f, -0.07318667322397232f, 0.017137674614787102f,
    0.04028208181262016f, 0.030918680131435394f, 0.03474226966500282f, 0.029427271336317062f, -0.3218797445297241f, 0.26095473766326904f, 0.08856856822967529f, 0.09163779765367508f,
    0.0869675725698471f, 0.6077152490615845f, -0.22269520163536072f, -0.011369547806680202f, 0.06297454237937927f, -0.2510981857776642f, -0.2762991487979889f, -0.05513773858547211f,
    -0.08425214886665344f, 0.060387611389160156f, 0.08310695737600327f, 0.30821672081947327f, 0.35698091983795166f, 0.6888421177864075f, -0.22600588202476501f, 0.3147567808628082f,
    -0.1784435361623764f, 0.2509971261024475f, -0.20930033922195435f, 0.03168060630559921f, 0.48430508375167847f, -0.22771698236465454f, -0.02314174175262451f, -0.04989810660481453f,
    -0.10931701213121414f, 0.03494192287325859f, 0.3649051785469055f, -0.16215156018733978f, -0.15463151037693024f, -0.17398735880851746f, -0.2691037952899933f, 0.3211253881454468f,
    0.7058777213096619f, 0.6187328696250916f, -0.05378316342830658f, 0.12162134796380997f, 1.339037537574768f, 1.1377488374710083f, -0.6423524618148804f, -0.29246842861175537f,
    -0.6675270795822144f, 0.6233710646629333f, -0.7388191819190979f, -0.0969405546784401f, -0.18599042296409607f, -1.0628279447555542f, 0.01434042863547802f, -0.12350378185510635f,
    0.15358857810497284f, 0.13376887142658234f, 0.3070867657661438f, -0.0024866051971912384f, -0.048893123865127563f, -0.023243743926286697f, -0.026631107553839684f, -0.008248773403465748f,
    -0.691538393497467f, 0.017919426783919334f, 0.1299215704202652f, -0.012261959724128246f, 0.19211238622665405f, 0.1287851631641388f, -0.22423574328422546f, 0.007449864409863949f,
    -0.0015569912502542138f, -0.08337289094924927f, -0.05542225390672684f, -0.1752152144908905f, -0.4551258087158203f, -0.028246846050024033f, 0.058057572692632675f, 0.026717279106378555f,
    0.03426506370306015f, -0.04428751766681671f, -0.07593598961830139f, 0.1385599970817566f, 0.0007525907130911946f, 0.20415213704109192f, 0.03788990527391434f, 0.33393150568008423f,
    -0.4136550724506378f, 0.004170440137386322f, -0.012820189818739891f, 0.08134324848651886f, -0.03927135840058327f, 0.05473259091377258f, -0.5935022830963135f, 0.009407136589288712f,
    -0.008341447450220585f, 0.017246078699827194f, -0.055934689939022064f, -0.012062887661159039f, -0.7843416333198547f, -0.046851370483636856f, 0.04743832349777222f, -0.04473632201552391f,
    0.06721877306699753f, 0.2115546464920044f, 0.9123028516769409f, 0.013337058015167713f, 0.0273481085896492f, 0.0526118203997612f, 0.044573526829481125f, 0.01107384730130434f,
    -0.15198945999145508f, -0.5592828392982483f, -0.11889936774969101f, -0.3868141174316406f, -0.2179306000471115f, 0.5396650433540344f, -0.1783982366323471f, 0.01715325564146042f,
    0.031654708087444305f, 0.4097647964954376f, -0.3481084406375885f, 0.0355379693210125f, -0.5930073261260986f, 1.0238105058670044f, 0.43582284450531006f, 0.40409260988235474f,
    0.09934822469949722f, 0.4804648160934448f, 0.2504836916923523f, 0.016221679747104645f, 0.033105939626693726f, 0.007297908421605825f, 0.022905264049768448f, 0.005296665709465742f,
    0.32856112718582153f, -0.05019642412662506f, -0.09788588434457779f, -0.02876889705657959f, -0.13553845882415771f, -0.031092772260308266f, -0.32531145215034485f, -0.01498837023973465f,
    -0.02341865561902523f, 0.0026228511705994606f, -0.048657238483428955f, -0.03718501701951027f, 0.3050263226032257f, -0.017883088439702988f, -0.08977069705724716f, -0.07388468831777573f,
    -0.08533678948879242f, -0.2845413088798523f, 0.1554604470729828f, 0.004789896309375763f, 0.12295515090227127f, 0.056756842881441116f, 0.20573532581329346f, 0.22363822162151337f,
    -0.08124670386314392f, 0.0815013200044632f, 0.11237815767526627f, 0.07116569578647614f, 0.15519052743911743f, 0.2884460687637329f, -0.560344934463501f, 0.05843278020620346f,
    0.03257589042186737f, 0.04128163307905197f, 0.03951720520853996f, 0.1603216528892517f, 0.515419065952301f, -0.014565725810825825f, -0.0467662587761879f, -0.007883492857217789f,
    -0.13175562024116516f, -0.15755261480808258f, -0.6127234697341919f, -0.050654612481594086f, -0.05711919441819191f, -0.050048988312482834f, -0.07210547477006912f, -0.20496180653572083f,
    0.8640083074569702f, 0.040045831352472305f, 0.30146104097366333f, 0.035962749272584915f, -0.31379252672195435f, -0.1521712839603424f, -0.7125242948532104f, -0.3051181137561798f,
    -0.1118815466761589f, 0.45823636651039124f, 0.7435979843139648f, -0.32560035586357117f, 0.6122390031814575f, 0.12433658540248871f, 0.48480767011642456f, -0.7742499113082886f,
    0.10212133079767227f, 0.5754973888397217f, -0.3056497871875763f, -0.00015513316611759365f, -0.008440450765192509f, 0.003707644995301962f, -0.0341598279774189f, 0.005744725465774536f,
    0.6534423828125f, 0.003265700303018093f, 0.019524147734045982f, 0.004307706840336323f, 0.05943629890680313f, 0.008222995325922966f, 0.6067279577255249f, 0.02098197676241398f,
    0.016543062403798103f, 0.016979342326521873f, 0.02067035436630249f, -0.009894736111164093f, 0.4135412275791168f, -0.005725258495658636f, 0.005462873727083206f, -0.009056209586560726f,
    -0.009333428926765919f, -0.011863910593092442f, 0.5727640390396118f, 0.013451545499265194f, 0.002062198705971241f, 0.01302266027778387f, 0.02426622062921524f, 0.02647627517580986f,
    0.9235681891441345f, 0.014109272509813309f, -0.00025051445118151605f, -0.006809862796217203f, 0.01850617676973343f, 0.029015427455306053f, 0.38057300448417664f, -0.04190980643033981f,
    -0.018436910584568977f, -0.028553631156682968f, -0.09346108883619308f, 0.013571367599070072f, 0.6679347157478333f, 0.04598652943968773f, 0.030384976416826248f, 0.020469198003411293f,
    0.10869167000055313f, 0.0018733886536210775f, 0.35132864117622375f, -0.05146203935146332f, -0.050014153122901917f, -0.13763107359409332f, -0.17429852485656738f, -0.3006519377231598f,
    0.14543940126895905f, -0.29217836260795593f, 0.23452603816986084f, -0.08007671684026718f, 0.4289529621601105f, -1.5357156991958618f, -1.7344179153442383f, -0.26539134979248047f,
    0.28900474309921265f, 0.6488407254219055f, -1.030942440032959f, 0.18946529924869537f, 0.6738771796226501f, -0.003773934207856655f, 0.8587896823883057f, -0.4081297516822815f,
    -0.5563598871231079f, 0.5635524988174438f, -0.3665314018726349f, -0.005358914379030466f, -0.00864915270358324f, -0.011153917759656906f, -0.01761176437139511f, -0.02295592986047268f,
    -0.9525583386421204f, 0.012686444446444511f, 0.014166874811053276f, 0.014267455786466599f, 0.025955930352211f, 0.042409103363752365f, -0.3962744176387787f, -0.00788282509893179f,
    -0.005684063769876957f, 0.005000942852348089f, -0.002429001033306122f, -0.0011918502859771252f, -0.48263978958129883f, 0.0023191762156784534f, 0.004774593282490969f, -0.0015304475091397762f,
    -0.012666337192058563f, -0.0333143025636673f, -0.8711313605308533f, 0.012951061129570007f, 0.015556050464510918f, 0.0032467718701809645f, 0.011378577910363674f, -0.015921486541628838f,
    -0.49494776129722595f, -0.014926433563232422f, -0.025118397548794746f, 0.0054694791324436665f, 0.024626273661851883f, 0.06555836647748947f, -0.054121583700180054f, 0.007997713051736355f,
    0.0063570342026650906f, -0.0031235686037689447f, 0.004452190361917019f, -0.014431431889533997f, 0.4587477147579193f, -0.01781722530722618f, -0.018140768632292747f, -0.03484870120882988f,
    -0.04984493926167488f, -0.048094864934682846f, 0.5134575963020325f, 0.011305381543934345f, 0.01639539748430252f, 0.050933435559272766f, 0.06283705681562424f, 0.07205703109502792f,
    0.14964045584201813f, 0.4194951355457306f, 0.2305246740579605f, 0.25917917490005493f, -1.3076273202896118f, -0.10881519317626953f, -0.13152456283569336f, -0.30914926528930664f,
    0.32491499185562134f, -0.09246375411748886f, -0.5576364398002625f, -1.2056089639663696f, -0.5857290625572205f, -0.26082921028137207f, 0.1399376094341278f, 0.06968191266059875f,
    -0.39441362023353577f, -0.029359694570302963f, 0.4364132881164551f, 0.0005210614181123674f, 0.0012386782327666879f, 0.002726491540670395f, 0.0007286579930223525f, 0.01105409860610962f,
    -0.3400031328201294f, -0.004587274044752121f, -0.003206293797120452f, 0.000981671386398375f, -6.770794425392523e-05f, 0.007316076662391424f, -0.7583997845649719f, 0.004041871055960655f,
    0.0034213061444461346f, -0.0024211076088249683f, 0.005538842175155878f, -0.017180610448122025f, -0.04667985439300537f, -0.0028786405455321074f, -0.002502524061128497f, 0.0006176976603455842f,
    0.0040717963129282f, -0.011248419992625713f, -0.5169237852096558f, -0.001985094742849469f, -0.002566946903243661f, 0.004049068782478571f, 0.0012129121460020542f, -0.0077588181011378765f,
    0.09378794580698013f, 0.0062620267271995544f, 0.007866823114454746f, -0.0007626640144735575f, 0.0009784991852939129f, 0.02095937170088291f, -0.19206582009792328f, 2.62092817138182e-05f,
    0.0003751365002244711f, 2.721957025642041e-05f, -0.0009447030606679618f, -0.005441190674901009f, -0.30583131313323975f, 0.003194233635440469f, 0.0016511734575033188f, 0.003847567131742835f,
    0.0028024627827107906f, -0.0018824849976226687f, 0.3719916045665741f, -0.0008142450824379921f, -0.001453867764212191f, -0.002096434822306037f, -4.4085667468607426e-05f, 0.006056471262127161f,
    0.43710482120513916f, -0.11755435913801193f, 0.2590970993041992f, 0.24200356006622314f, -0.4782484769821167f, 0.5611857771873474f, -2.184396982192993f, 0.41280511021614075f,
    -1.0047224760055542f, 0.9250286817550659f, 0.7682133913040161f, -0.5200477242469788f, 0.39591315388679504f, -0.46545666456222534f, -0.0777471661567688f, 0.716059684753418f,
    -0.6440374851226807f, 0.2109079509973526f, -0.19657094776630402f, -0.02331477403640747f, 0.007856445387005806f, -0.1609271913766861f, -0.010445321910083294f, 0.00606626458466053f,
    0.12290333211421967f, -0.14107999205589294f, 0.3576994240283966f, -0.16833674907684326f, 0.22929368913173676f, -0.19831989705562592f, 0.28091534972190857f, -0.1867177039384842f,
    0.009171009995043278f, -0.05904333293437958f, 0.04233448579907417f, 0.1644522249698639f, 0.0992412343621254f, 0.35466310381889343f, -0.1524510532617569f, 0.30627402663230896f,
    0.008663732558488846f, 0.03584040328860283f, 0.1887325793504715f, 0.13700798153877258f, -0.15202845633029938f, 0.29852113127708435f, 0.9546746015548706f, 1.279279351234436f,
    0.1462622880935669f, -0.18033386766910553f, -0.003357456997036934f, -0.1533016562461853f, -0.02378409169614315f, -0.2618371844291687f, -0.06659136712551117f, -0.1446995884180069f,
    -0.20256464183330536f, -0.5334599018096924f, -0.2248128205537796f, -0.3233169913291931f, 0.24131935834884644f, 0.4648572504520416f, 0.8387001156806946f, 0.18908333778381348f,
    -0.05055023357272148f, 0.0077697159722447395f, -0.0848742127418518f, -0.04733039066195488f, -0.013993620872497559f, 0.028936011716723442f, 0.02344519831240177f, -0.047008663415908813f,
    0.05537605658173561f, 0.016979657113552094f, 0.133624866604805f, -0.037537891417741776f, -0.1887701004743576f, -0.37255001068115234f, 0.2506624162197113f, -0.013459119945764542f,
    0.07467284798622131f, 0.09885157644748688f, 0.11966896057128906f, -0.051524240523576736f, 0.11491905897855759f, 0.004488514270633459f, 0.0728936418890953f, 0.13853508234024048f,
    0.04147786647081375f, 0.21876093745231628f, 0.11967570334672928f, 0.33011484146118164f, 0.5972124338150024f, 0.23167629539966583f, 0.009874538518488407f, -0.036726903170347214f,
    -0.029122820124030113f, -0.04716530814766884f, 0.043098822236061096f, 0.017804807052016258f, -0.14174945652484894f, -0.12138701230287552f, -0.17219926416873932f, -0.05353560298681259f,
    -0.1777636557817459f, -0.1489991843700409f, -0.5800319314002991f, 0.22976718842983246f, 0.7990093231201172f, -0.3421713709831238f, 0.07713470607995987f, -0.17189757525920868f,
    0.14947570860385895f, -0.2165166437625885f, 0.08278537541627884f, -0.20091554522514343f, 0.04968186095356941f, -0.008766193874180317f, 0.401672899723053f, -0.3633175492286682f,
    0.7504454851150513f, -0.41176825761795044f, -0.6648125052452087f, 0.06392215937376022f, 0.15635623037815094f, 0.3519403636455536f, 0.04483568295836449f, 0.23019279539585114f,
    0.11599908769130707f, 0.2727392613887787f, -0.22832351922988892f, 0.07448927313089371f, 0.05747592821717262f, 0.26921477913856506f, 0.34920233488082886f, 0.3329646587371826f,
    -0.5069149732589722f, 0.3642278015613556f, 0.4339680075645447f, 0.12100324779748917f, -0.06402431428432465f, -0.01449291780591011f, 0.2224310338497162f, 0.13445927202701569f,
    0.03805071860551834f, -0.14529086649417877f, 0.21201157569885254f, -0.03106708824634552f, 0.6614646911621094f, 0.4730665385723114f, 0.8030755519866943f, -0.15690016746520996f,
    -0.4399451017379761f, -0.11588770896196365f, 0.2188747525215149f, -0.3104419410228729f, 0.42186397314071655f, -0.09492313861846924f, -0.7656933069229126f, -0.6151623129844666f,
    -0.567913830280304f, 0.5709937810897827f, 0.00517581682652235f, 0.4049730896949768f, 0.4727044999599457f, -0.2845325469970703f, 0.47598978877067566f, 0.5669973492622375f,
    -0.06276872754096985f, -0.9238898158073425f, -0.17773912847042084f, 0.17418964207172394f, -0.013190425001084805f, -0.015153221786022186f, -0.021079393103718758f, -0.01815957762300968f,
    -0.02482103928923607f, -0.024753540754318237f, -0.02220303751528263f, -0.021630991250276566f, -0.02314400114119053f, -0.030223717913031578f, -0.017914481461048126f, -0.04384242743253708f,
    -0.047008100897073746f, 0.011091229505836964f, -0.2386949211359024f, -0.0037696093786507845f, -0.003931436687707901f, -0.01702362485229969f, -0.018679743632674217f, -0.005720070563256741f,
    -0.03322979807853699f, 0.005653290078043938f, -0.013551412150263786f, -0.03108525648713112f, 0.007855551317334175f, 0.00732697919011116f, -0.04376237839460373f, -0.014221089892089367f,
    -0.12823040783405304f, -1.0672004222869873f, 0.005567571148276329f, 0.003222851315513253f, 0.02042187936604023f, 0.017115961760282516f, 0.010395192541182041f, 0.033684734255075455f,
    0.00380762224085629f, 0.004057367332279682f, 0.033618710935115814f, 0.0048408773727715015f, 0.0008850826416164637f, 0.0305723138153553f, 0.0003981154295615852f, 0.07805991172790527f,
    -0.24505043029785156f, -0.11521988362073898f, -0.07923796027898788f, -0.08530832827091217f, -0.10433739423751831f, -0.10395336151123047f, -0.0821024626493454f, -0.14737825095653534f,
    -0.15477655827999115f, -0.06035852059721947f, -0.15045738220214844f, -0.09906703233718872f, -0.03999171033501625f, -0.20103560388088226f, -0.06455596536397934f, 1.5845890045166016f,
    -0.19589291512966156f, -0.06026117503643036f, -0.06243929639458656f, -0.09622197598218918f, -0.12981553375720978f, -0.16108351945877075f, -0.20246164500713348f, -0.2398512065410614f,
    -0.01098627969622612f, -0.08731921017169952f, -0.15095460414886475f, 0.05855639651417732f, -0.09959502518177032f, -0.0986362025141716f, 0.036828864365816116f, 0.2286539375782013f,
    0.09591250866651535f, 0.14378467202186584f, 0.15540067851543427f, 0.19995900988578796f, 0.19471243023872375f, 0.25855475664138794f, 0.29989057779312134f, 0.03999539092183113f,
    0.24591980874538422f, 0.15863287448883057f, -0.007889035157859325f, 0.06942565739154816f, 0.059427615255117416f, 0.30970728397369385f, -0.02109273336827755f, -0.025490574538707733f,
    -0.025205230340361595f, -0.02610871009528637f, -0.016997365280985832f, -0.0225212462246418f, -0.0212374497205019f, -0.00648417929187417f, -0.027326049283146858f, -0.049509190022945404f,
    0.001117581850849092f, -0.045807138085365295f, -0.008703738451004028f, -0.03405245393514633f, -0.04683078080415726f, 0.04107425734400749f, 0.024613238871097565f, 0.05790981650352478f,
    0.05259261652827263f, 0.06566551327705383f, 0.059357453137636185f, 0.07188120484352112f, 0.055733174085617065f, 0.03149113804101944f, 0.09161489456892014f, 0.059728290885686874f,
    0.02309214323759079f, 0.3284112811088562f, 0.23572245240211487f, 0.4130963981151581f, -0.022334065288305283f, -0.00737332459539175f, -0.043218210339546204f, -0.029370104894042015f,
    -0.04145386815071106f, -0.0506397970020771f, -0.04858395829796791f, -0.033913012593984604f, -0.04524332284927368f, -0.0711529552936554f, -0.08411715179681778f, -0.04483779892325401f,
    -0.31344959139823914f, -0.15902936458587646f, 0.6370264887809753f, 0.6790754795074463f, 0.5281260013580322f, 0.3309745490550995f, -0.05737970396876335f, 0.3330383002758026f,
    0.0864487737417221f, -0.5877043008804321f, -0.0451074093580246f, 0.12585283815860748f, -0.0063606323674321175f, -0.0640813484787941f, 0.4840618669986725f, 0.17686901986598969f,
    -0.014144043438136578f, 0.12972764670848846f, -0.910892128944397f, -0.20368018746376038f, 0.5073924660682678f, 0.058846257627010345f, -0.13840723037719727f, -0.12089741975069046f,
    0.5227639079093933f, 0.3043890595436096f, -0.7236785888671875f, 0.015680618584156036f, -0.053478870540857315f, 0.044121917337179184f, -0.20143741369247437f, 0.14144651591777802f,
    0.3868344724178314f, -0.03748131915926933f, 0.20915359258651733f, -0.11064424365758896f, 0.5694684386253357f, 0.4453800320625305f, 0.10617334395647049f, -0.1922929435968399f,
    0.2231973260641098f, 0.00031939882319420576f, 0.38385945558547974f, -0.6449903249740601f, 0.6021952629089355f, 0.1005052700638771f, -0.2690555453300476f, 0.01805693283677101f,
    -0.030398694798350334f, 0.05337652936577797f, 0.2840081751346588f, -0.11937442421913147f, 0.044866785407066345f, 0.3813501298427582f, -0.06279363483190536f, -0.4095534384250641f,
    0.13386298716068268f, -0.09321914613246918f, -0.34329208731651306f, -0.12216755747795105f, -0.2145407348871231f, 0.4187837839126587f, 0.3559210002422333f, 0.17851100862026215f,
    -0.10927709937095642f, 0.43569260835647583f, -0.13781553506851196f, 0.8000361919403076f, -0.10048949718475342f, -0.13574577867984772f, 0.1747908890247345f, -0.1481534242630005f,
    0.0419723242521286f, -0.1073019877076149f, 0.3720025420188904f, 0.7764811515808105f, 0.9678742289543152f, -0.07918859273195267f, -0.5402911901473999f, 0.19931301474571228f,
    -0.4798603355884552f, -0.07164546102285385f, 0.13788244128227234f, 0.4145006835460663f, 0.15222084522247314f, -0.5093342065811157f, 0.366687536239624f, -0.8894055485725403f,
    -0.5116284489631653f, 0.7513561248779297f, -0.8272174000740051f, -0.22177055478096008f, 0.2577073276042938f, 0.014836215414106846f, -0.22722765803337097f, -0.1928691565990448f,
    -0.6157628297805786f, 0.0256413035094738f, 0.25712114572525024f, -0.06761466711759567f, -0.05862303078174591f, -0.048903003334999084f, -0.34406429529190063f, 0.04564722254872322f,
    0.11318366974592209f, -0.1033083125948906f, 0.1592320054769516f, 0.04784160479903221f, 0.30623432993888855f, 0.09939711540937424f, -0.34605059027671814f, 0.05195682868361473f,
    0.01933492161333561f, 0.015064284205436707f, -0.027544556185603142f, 0.2406667321920395f, 0.5135095715522766f, -0.018260329961776733f, -0.028085170313715935f, 0.01118381880223751f,
    0.03289425000548363f, -0.035850487649440765f, 0.5033994913101196f, -0.030618684366345406f, 0.0028957368340343237f, -0.0337710976600647f, 0.002831856021657586f, -0.1718769520521164f,
    1.107107162475586f, -0.11124875396490097f, -0.2416592836380005f, -0.35394617915153503f, -0.484181672334671f, 0.4680091440677643f, -0.18520887196063995f, -0.06052626669406891f,
    -0.04508437588810921f, -0.20667096972465515f, -0.42470550537109375f, -0.07834303379058838f, 0.18334856629371643f, -0.07935675978660583f, -0.02861618809401989f, 0.11327903717756271f,
    -0.10530515760183334f, -0.10804172605276108f, 0.18506290018558502f, -0.013900973834097385f, -0.6728754043579102f, 0.552143931388855f, 0.20118601620197296f, -0.1229383572936058f,
    -0.3283703625202179f, -0.5384241342544556f, -0.7274892926216125f, 0.4267289340496063f, -0.25079235434532166f, -0.6445736885070801f, -0.002887969370931387f, 0.45370587706565857f,
    -0.600250780582428f, -0.31836581230163574f, -0.6894280314445496f, 0.01799802854657173f, 0.2542479932308197f, -0.012411669827997684f, 0.037285130470991135f, 0.09841656684875488f,
    0.11129876971244812f, 0.07421351969242096f, -0.7196297645568848f, -0.09643196314573288f, -0.10595312714576721f, -0.13079160451889038f, -0.14701683819293976f, -0.15636350214481354f,
    0.3376951813697815f, -0.10498688369989395f, -0.1695682257413864f, -0.21999743580818176f, -0.2795655429363251f, -0.18333928287029266f, 0.1272675096988678f, -0.04178057983517647f,
    -0.047698572278022766f, -0.04543747380375862f, -0.07649100571870804f, -0.10459355264902115f, 0.3018198609352112f, 0.023262418806552887f, 0.018296077847480774f, 0.017168093472719193f,
    0.021783718839287758f, 0.05437925085425377f, 0.2956949770450592f, 0.047045473009347916f, 0.05149862542748451f, 0.031472284346818924f, 0.027223700657486916f, 0.14680959284305573f,
    0.9053624868392944f, 0.010988786816596985f, 0.032337382435798645f, -0.055342335253953934f, -0.028896387666463852f, -0.293753057718277f, -0.06070323288440704f, -0.08917947113513947f,
    -0.00819745846092701f, -0.0013414446730166674f, -0.10628647357225418f, -0.15557913482189178f, 0.9430299401283264f, -0.08996813744306564f, -0.08299951255321503f, 0.0476868562400341f,
    0.06357323378324509f, 0.1461285799741745f, 0.3584182560443878f, 0.9216997623443604f, 0.3378979563713074f, 0.4677463471889496f, 0.7271533608436584f, 0.15370163321495056f,
    -0.2024737149477005f, 0.7650251388549805f, 0.7479554414749146f, 0.09502119570970535f, -0.9750506281852722f, 0.9650869965553284f, 0.29423782229423523f, 0.34251338243484497f,
    0.935038685798645f, 0.011008964851498604f, 0.09174402058124542f, 0.4174919128417969f, 1.0187478065490723f, -0.19477494060993195f, -0.11075906455516815f, -0.15875375270843506f,
    -0.07289246469736099f, -0.2445864975452423f, -0.7682225108146667f, 0.07474183291196823f, 0.0232006274163723f, 0.06517083197832108f, 0.011038321070373058f, 0.08113370835781097f,
    -0.4644806683063507f, 0.09080114960670471f, 0.044527098536491394f, 0.07326391339302063f, 0.022203795611858368f, 0.08260566741228104f, -0.6170005798339844f, -0.29538124799728394f,
    -0.3676212728023529f, -0.031868577003479004f, -0.3264387547969818f, -0.1080942451953888f, 0.570125162601471f, 0.10722708702087402f, 0.1268600970506668f, -0.01589571312069893f,
    0.1437663584947586f, -0.06962163001298904f, 0.23536911606788635f, 0.10459854453802109f, 0.13597285747528076f, 0.0053438227623701096f, 0.09533081948757172f, 0.10533621907234192f,
    -0.14310753345489502f, -0.19228693842887878f, -0.3001517653465271f, -0.37923309206962585f, -0.4657759666442871f, -0.5567744970321655f, -0.2794532775878906f, 0.07341082394123077f,
    0.13347463309764862f, 0.17270946502685547f, 0.2529110908508301f, 0.33749040961265564f, 0.7419071197509766f, 0.09061922132968903f, 0.12067737430334091f, 0.16188164055347443f,
    0.14759361743927002f, 0.2099366933107376f, 1.0254008769989014f, -0.36913660168647766f, 0.6759945750236511f, 0.003571223234757781f, -1.2282874584197998f, -0.12446166574954987f,
    -0.033117346465587616f, 0.1367410123348236f, -0.03977258503437042f, -0.6374344229698181f, 0.14797323942184448f, -1.0312764644622803f, 0.16062816977500916f, -0.42377573251724243f,
    0.6776238679885864f, 0.14184407889842987f, -0.6773195862770081f, -0.458764910697937f, 0.7868991494178772f, -0.13028112053871155f, -0.223117396235466f, -0.27160605788230896f,
    -0.41342902183532715f, -0.5726898312568665f, -0.4215407073497772f, 0.02026735246181488f, 0.06762875616550446f, 0.09843658655881882f, 0.07627791166305542f, 0.09062118083238602f,
    -0.22259315848350525f, -0.0001773586991475895f, -0.03473176807165146f, -0.0523698590695858f, -0.05206982418894768f, -0.08804655075073242f, -1.0466337203979492f, -0.3687570095062256f,
    -0.4412809908390045f, -0.3837031424045563f, -0.21237672865390778f, -0.2909732162952423f, 0.3181586265563965f, 0.12076509743928909f, 0.13914427161216736f, 0.1193040981888771f,
    0.11889106035232544f, 0.06582841277122498f, 0.1438770890235901f, -0.050391536206007004f, -0.06857385486364365f, -0.06573682278394699f, -0.04144598916172981f, -0.03255359083414078f,
    -0.12640196084976196f, -0.055831652134656906f, -0.05011157691478729f, -0.04039912670850754f, -0.15221910178661346f, -0.26078280806541443f, 0.5048271417617798f, 0.011130855418741703f,
    0.026723463088274002f, 0.048878226429224014f, 0.09917032718658447f, 0.1498998999595642f, -0.14294041693210602f, -0.00384666514582932f, -0.0045425728894770145f, -0.009607948362827301f,
    -0.027913609519600868f, -0.06018245220184326f, -1.6053121089935303f, 0.19064439833164215f, -0.1368117481470108f, -1.3266241550445557f, -0.8852722644805908f, 0.18188896775245667f,
    0.6189767122268677f, -0.18292710185050964f, 1.1831470727920532f, -0.6045916080474854f, 0.047918129712343216f, 0.6723757386207581f, -0.2897965908050537f, 1.0909371376037598f,
    -0.030743299052119255f, -0.7556241154670715f, -0.04501253738999367f, -0.28464603424072266f, -0.1786947399377823f, -0.003140852553769946f, -0.007178957108408213f, -0.01538167055696249f,
    -0.02472580224275589f, -0.029464449733495712f, -0.05243818834424019f, -0.004796585999429226f, -0.010817417874932289f, -0.015899090096354485f, -0.016515998169779778f, -0.005559146404266357f,
    -0.3511597216129303f, 0.003735338104888797f, 0.006557003129273653f, 0.010080180130898952f, 0.006333529949188232f, -0.01650480180978775f, -0.8377450704574585f, 0.02633490227162838f,
    0.15033821761608124f, 0.02048676833510399f, 0.10380739718675613f, -0.09168639779090881f, -0.050383660942316055f, -0.006889544427394867f, -0.021713316440582275f, -0.031606875360012054f,
    -0.061540037393569946f, 0.08836113661527634f, 0.2677094340324402f, -0.027581097558140755f, -0.09722226858139038f, -0.05826936662197113f, -0.03478815034031868f, -0.027392666786909103f,
    -0.07955890893936157f, 0.001572265406139195f, -0.0003030263469554484f, -0.00013592399773187935f, 0.013871338218450546f, 0.03126978501677513f, 0.38025328516960144f, -0.006463451776653528f,
    -0.01110757328569889f, -0.018354754894971848f, -0.03194630146026611f, -0.03953373804688454f, -0.29426681995391846f, -0.0011192710371688008f, 0.0006423800368793309f, 0.0003373124054633081f,
    -0.0005756135797128081f, -0.02713567577302456f, -0.12494613230228424f, 0.4534871280193329f, 0.009586174041032791f, 0.12915809452533722f, 0.06407031416893005f, -0.12197158485651016f,
    -1.5867788791656494f, 0.5653539299964905f, 0.03257928788661957f, -0.5005724430084229f, 0.6078447699546814f, -0.033377233892679214f, 0.28403541445732117f, 0.8630964756011963f,
    0.0786096528172493f, 0.24822966754436493f, -0.024557800963521004f, -0.0745074450969696f, 0.2171022891998291f, -0.0012335407081991434f, 0.02397048845887184f, -0.009638331830501556f,
    0.041327718645334244f, -0.19119225442409515f, 0.19933488965034485f, -0.01082924846559763f, -0.015553374774754047f, -0.025724025443196297f, -0.0663752481341362f, -0.016223477199673653f,
    -0.02608710154891014f, -0.013102006167173386f, -0.034649189561605453f, -0.04137083515524864f, -0.1232842430472374f, 0.14501109719276428f, 0.41059401631355286f, -0.004515664651989937f,
    0.0351194329559803f, -0.01722130924463272f, 0.05557196959853172f, -0.3321124017238617f, 0.21925684809684753f, -0.015485203824937344f, -0.020551534369587898f, -0.03969654068350792f,
    -0.09608561545610428f, -0.024183103814721107f, -0.12935484945774078f, -0.01748279295861721f, -0.05265217274427414f, -0.06263632327318192f, -0.1929926872253418f, 0.25575268268585205f,
    0.5287380814552307f, 0.014319688081741333f, -0.025707706809043884f, 0.00011678723967634141f, -0.06324812024831772f, 0.21946953237056732f, -0.1143856793642044f, 0.010329251177608967f,
    0.007378157693892717f, 0.03514503315091133f, 0.09686924517154694f, 0.04184720292687416f, 0.0580303780734539f, -0.003482086816802621f, 0.033279139548540115f, 0.03118322603404522f,
    0.15451540052890778f, -0.13667555153369904f, -0.4029325246810913f, 0.06504274159669876f, 0.33260130882263184f, -0.22866380214691162f, 0.05165642127394676f, 0.11327935010194778f,
    0.10063197463750839f, 0.4162098467350006f, -0.00858832336962223f, 0.5327888131141663f, 0.11612158268690109f, 0.18631941080093384f, -0.07476914674043655f, -0.32249006628990173f,
    -0.3899204134941101f, -0.36959829926490784f, -0.3457287847995758f, 0.4948616325855255f, -0.35605674982070923f, -0.016363466158509254f, 0.037091489881277084f, -0.026987388730049133f,
    0.031113488599658012f, 0.018564550206065178f, -0.01872537098824978f, 0.11951886862516403f, -0.03904084861278534f, 0.06901586055755615f, 0.2119797021150589f, -0.3092498779296875f,
    -0.2601766586303711f, 0.026805134490132332f, 0.05416111648082733f, 0.012010157108306885f, -0.004747423809021711f, 0.028749996796250343f, -0.08904581516981125f, 0.04958941414952278f,
    -0.12006791681051254f, 0.011384333483874798f, -0.05963191017508507f, -0.0690300315618515f, -0.013437985442578793f, -0.10264754295349121f, -0.11893406510353088f, 0.13028018176555634f,
    0.16341902315616608f, -0.1265219897031784f, -0.08924434334039688f, 0.013990137726068497f, 0.003473244607448578f, -0.11214864253997803f, 0.20349623262882233f, -0.2157677859067917f,
    0.2274775505065918f, -0.27321693301200867f, 0.24769176542758942f, -0.20543618500232697f, 0.0525972805917263f, 0.039211295545101166f, -0.32807213068008423f, 0.38641610741615295f,
    0.18652792274951935f, 0.22664275765419006f, 0.09899147599935532f, 0.006829059682786465f, 0.008631853386759758f, 0.14749620854854584f, 0.01328165018210899f,
};


// ---------------------------------------------------------------------------
// Ampeg SVT Classic – Gain 10, Ultra Lo/Hi, MD 421 (A2 Nano, 1871 weights)
//   Source: Ampeg SVT - Gain 10 Ultra Lo and Hi MD 421.nam
//   SlimmableContainer submodel 0 (max_value=0.5, low-CPU)
// ---------------------------------------------------------------------------
// Ampeg SVT - Gain 10 Ultra Lo and Hi MD 421.nam (1871 weights)
NAM_A2_MODEL_DATA NAM_A2_ALIGN32
inline constexpr float kWeightsAmpegSvt[nam_a2_daisy::kA2WeightCount] = {
    -1.918067216873169f, -1.3604862689971924f, 1.6154484748840332f, 0.3477683663368225f, 0.12823903560638428f, 0.11653127521276474f, 0.03262615203857422f, -0.36670437455177307f,
    -0.7844194769859314f, 0.26786094903945923f, 0.022468900308012962f, -0.018294168636202812f, -0.027830159291625023f, -0.2556135356426239f, -0.5982497930526733f, -0.25361815094947815f,
    -0.00887370016425848f, -0.016014553606510162f, -0.07481894642114639f, 0.1911795735359192f, 0.6874911189079285f, 0.2915246784687042f, -0.46799615025520325f, -0.830572247505188f,
    -0.17393642663955688f, 0.15313968062400818f, 0.22261112928390503f, 0.45681530237197876f, -0.3606976866722107f, -0.6841822862625122f, -0.16319018602371216f, 0.13426029682159424f,
    0.10873112827539444f, -0.3086751103401184f, 0.47215554118156433f, 0.9912335872650146f, 0.17712047696113586f, -0.022391576319932938f, -0.1960373967885971f, -0.15892784297466278f,
    0.501153290271759f, 1.0423755645751953f, 0.23319143056869507f, -0.2892405092716217f, -0.3956744968891144f, -0.19186462461948395f, 0.6263008713722229f, 0.7912135720252991f,
    0.11606312543153763f, -0.3162422776222229f, -0.18263660371303558f, 0.20030106604099274f, -0.6153301000595093f, -0.7734672427177429f, -0.21108226478099823f, 0.25450941920280457f,
    0.2903730273246765f, 0.2103452831506729f, 1.0363761186599731f, 0.5078020095825195f, 0.36614590883255005f, 0.5105382204055786f, 0.23030303418636322f, -0.6099755764007568f,
    0.11259516328573227f, -0.6234291195869446f, -0.30531153082847595f, -1.0195943117141724f, 0.7705307006835938f, -0.05568452924489975f, 0.02145632728934288f, -0.27870234847068787f,
    0.16358020901679993f, 0.2649548351764679f, -0.44444531202316284f, 0.008621291257441044f, 0.04890469089150429f, -0.16511979699134827f, -0.37036287784576416f, 1.588658332824707f,
    -0.10276194661855698f, -0.15385204553604126f, -0.03393400087952614f, -0.31988778710365295f, -0.045264873653650284f, 0.16473431885242462f, 0.016787558794021606f, -0.11894171684980392f,
    -0.17411449551582336f, 0.0862276628613472f, -0.31503093242645264f, -0.6512134075164795f, -0.12992672622203827f, 0.0398397259414196f, -0.08415503054857254f, -0.13629461824893951f,
    -0.43308645486831665f, 0.8379642963409424f, -0.27405691146850586f, 0.03680240362882614f, 0.13412362337112427f, 0.054405517876148224f, -0.2996915578842163f, -0.12379202246665955f,
    0.1697656512260437f, -0.13084222376346588f, 0.06125257536768913f, -0.07352600246667862f, -0.05583516135811806f, -0.12241479009389877f, -0.24297823011875153f, -0.37769171595573425f,
    -0.15050621330738068f, -0.26193127036094666f, -0.29934123158454895f, 1.2651890516281128f, -0.40038034319877625f, 0.20516341924667358f, -0.23268792033195496f, -0.1241704672574997f,
    -0.11036794632673264f, 0.12207247316837311f, 0.3198840618133545f, 0.08000659942626953f, -0.015600744634866714f, 0.017720751464366913f, -0.0891452357172966f, -0.3319185972213745f,
    -0.2900654673576355f, 0.21679119765758514f, 0.052187729626894f, 0.2917720377445221f, -0.03311847895383835f, -0.253976970911026f, -0.5731676816940308f, -0.29440972208976746f,
    -0.5207439661026001f, -0.5498071908950806f, 0.8991603851318359f, 0.32537364959716797f, 0.5843562483787537f, 0.20837324857711792f, -0.36913615465164185f, -0.3156525492668152f,
    -0.09901253134012222f, -0.16458216309547424f, 0.300854355096817f, -0.1607089638710022f, -0.009235196746885777f, 0.006222846452146769f, -0.12524253129959106f, 0.028983943164348602f,
    0.18676446378231049f, -0.039142508059740067f, 0.06810756027698517f, 0.14250294864177704f, -0.23638245463371277f, 0.043101370334625244f, -0.0527300164103508f, -0.31009432673454285f,
    -0.09655413031578064f, -0.17661911249160767f, 0.02384432591497898f, -0.21243014931678772f, 0.07720384746789932f, 0.020479407161474228f, -0.2004924714565277f, -0.11222854256629944f,
    -0.2064277082681656f, -0.38824260234832764f, 0.2394203394651413f, -0.03160516917705536f, -0.027728116139769554f, -0.005522840190678835f, 0.05950923264026642f, 0.12089990079402924f,
    -0.1688678115606308f, 0.2312716543674469f, 0.344414621591568f, 0.11370231211185455f, -0.010305263102054596f, -0.2722092270851135f, 0.2237888127565384f, -0.09645263105630875f,
    -0.15525032579898834f, 0.08833090215921402f, -0.18830540776252747f, -0.20234979689121246f, -0.04189750552177429f, -0.02782762236893177f, -0.1666780263185501f, -0.07925938069820404f,
    -0.031265031546354294f, -0.00819789431989193f, -0.03552437573671341f, 0.22160878777503967f, 0.2513768970966339f, -0.09399248659610748f, 0.07291847467422485f, -0.11469610035419464f,
    -0.08371555805206299f, 0.18116196990013123f, 0.3530246913433075f, 0.2801685929298401f, 0.2200881987810135f, 0.8456135392189026f, 0.43173450231552124f, 0.11271247267723083f,
    0.33023908734321594f, -0.18929007649421692f, 0.05757744982838631f, -0.5765644907951355f, -0.2034284621477127f, -0.2896714508533478f, 0.13458527624607086f, 0.23117458820343018f,
    0.25676432251930237f, -0.05588579177856445f, -0.711621105670929f, -0.06537530571222305f, -0.2812388241291046f, -0.48559001088142395f, -0.33980023860931396f, -0.2644997537136078f,
    -0.5246188044548035f, -0.06054504215717316f, -0.154954731464386f, -0.3639940321445465f, -0.2317477911710739f, -0.13971422612667084f, -0.03302953392267227f, 0.16168689727783203f,
    0.20599645376205444f, -0.1889510452747345f, 0.08056158572435379f, -0.09966827929019928f, -0.33923080563545227f, -0.05557764694094658f, 0.10938838869333267f, -0.13351120054721832f,
    -0.22442449629306793f, -0.19244599342346191f, 0.6911518573760986f, 0.11355692148208618f, 0.15882034599781036f, 0.010759423486888409f, -0.0694359540939331f, 0.25323039293289185f,
    -0.1758689284324646f, -0.16001637279987335f, -0.061459288001060486f, -0.0883181169629097f, -0.02808547019958496f, -0.24572888016700745f, 0.24284495413303375f, -0.0665915235877037f,
    -0.22343918681144714f, -0.37666648626327515f, -0.3277758061885834f, -0.15490375459194183f, 0.4910103678703308f, -0.05254495516419411f, -0.13391593098640442f, -0.24921195209026337f,
    -0.10027571022510529f, -0.03318355605006218f, -0.290727436542511f, -0.26550018787384033f, -0.0484386570751667f, 0.02413831278681755f, 0.17224599421024323f, 0.013752222061157227f,
    0.01714884676039219f, 0.4474812150001526f, 0.05031777173280716f, 0.4956560432910919f, 0.47072941064834595f, -0.13081738352775574f, 0.05850996822118759f, 0.6173502206802368f,
    -0.2996045649051666f, -0.4201097786426544f, -0.39239129424095154f, -0.22636348009109497f, -0.5576384663581848f, 0.11619551479816437f, -0.25959312915802f, 0.13367442786693573f,
    0.5769097805023193f, 0.1766909509897232f, -0.43190228939056396f, 0.11796976625919342f, 0.21954604983329773f, 0.1562509834766388f, 0.09033957868814468f, -0.004324791952967644f,
    0.47611328959465027f, -0.038602832704782486f, -0.014393540099263191f, -0.012149278074502945f, 0.014166595414280891f, 0.11832354217767715f, 0.6458113193511963f, -0.0828656330704689f,
    0.019650958478450775f, -0.17929941415786743f, -0.3113892078399658f, -0.46342045068740845f, -0.2740931212902069f, 0.23493123054504395f, -0.26097288727760315f, -0.3360785245895386f,
    0.009386416524648666f, 0.3631793260574341f, -0.17219136655330658f, -0.07234436273574829f, -0.13863323628902435f, -0.043687500059604645f, -0.0058786324225366116f, -0.11474122107028961f,
    0.07932771742343903f, 0.18939992785453796f, 0.2390223890542984f, 0.2571790814399719f, 0.019403429701924324f, -0.18967865407466888f, -0.042866066098213196f, -0.6097757816314697f,
    -0.4675811529159546f, -0.76272052526474f, -0.25465643405914307f, -0.22912980616092682f, 0.5443180203437805f, -0.06026742234826088f, 0.03612905740737915f, -0.018506139516830444f,
    -0.036355454474687576f, 0.046918835490942f, 0.04382264241576195f, -0.09464617818593979f, -0.13237890601158142f, -0.1763305962085724f, -0.05486910045146942f, 0.025227991864085197f,
    -0.08454450964927673f, 0.35038626194000244f, -0.024675710126757622f, -0.2745981812477112f, -0.35646384954452515f, 0.3193567395210266f, -0.015319062396883965f, -0.3221769630908966f,
    0.42920753359794617f, -0.5552061200141907f, 0.4147402048110962f, 0.15608052909374237f, -0.3929053246974945f, -0.4165146052837372f, -0.493213027715683f, -0.19314496219158173f,
    0.43033695220947266f, -0.20335617661476135f, -0.22098372876644135f, 0.3884962499141693f, 0.07851515710353851f, 0.09092739969491959f, 0.59883052110672f, 0.2793000042438507f,
    -0.6948373317718506f, 0.2372892200946808f, 0.0022304290905594826f, 0.11056488752365112f, -0.03504948690533638f, -0.009062682278454304f, -0.2684897780418396f, -0.019993897527456284f,
    -0.13059648871421814f, 0.007022465113550425f, -0.016814935952425003f, -0.0034469387028366327f, -0.16702939569950104f, 0.23861446976661682f, 0.06381399184465408f, 0.058720577508211136f,
    0.06254372745752335f, 0.1584637314081192f, -0.46580103039741516f, 0.0630994662642479f, 0.07802039384841919f, 0.0712474137544632f, 0.05719109997153282f, 0.054851554334163666f,
    0.8676214814186096f, 0.13577096164226532f, 0.29366376996040344f, 0.2650911808013916f, 0.16004779934883118f, 0.10785829275846481f, -0.21517419815063477f, -0.2919027507305145f,
    -0.3194320499897003f, -0.22023820877075195f, -0.1014886125922203f, -0.34437838196754456f, 0.7774571180343628f, 0.01605253666639328f, -0.06897957623004913f, -0.014021634124219418f,
    -0.056456658989191055f, -0.02522086352109909f, -0.11785447597503662f, 0.06537321209907532f, -0.21137170493602753f, -0.12919066846370697f, -0.08958674967288971f, 0.06956534832715988f,
    -0.36685651540756226f, 0.18336530029773712f, -0.10891895741224289f, -0.06951342523097992f, -0.01943531259894371f, -0.07606030255556107f, -0.1736522912979126f, 0.38790398836135864f,
    0.07436448335647583f, -0.4435335099697113f, 0.3368978202342987f, -0.8479650616645813f, -0.40431106090545654f, 0.54575115442276f, 0.4222469627857208f, 0.13140001893043518f,
    0.16135059297084808f, 0.7354851365089417f, 0.038175068795681f, 0.014812345616519451f, -0.01793443039059639f, 0.09966082870960236f, 0.08603326231241226f, 0.5116859674453735f,
    0.3069480061531067f, -0.07683612406253815f, -0.009003094397485256f, -0.05158305913209915f, -0.0039616781286895275f, -0.0896613597869873f, 0.06981004029512405f, -0.21886050701141357f,
    -0.06025724485516548f, -0.15045058727264404f, -0.049346718937158585f, -0.40034931898117065f, 0.0767890140414238f, 0.25413966178894043f, 0.3693810999393463f, 0.23649346828460693f,
    0.12117832154035568f, 0.2668534517288208f, 0.197191521525383f, 0.1405494064092636f, 0.04122953489422798f, 0.03166710585355759f, -0.08151539415121078f, -0.030020123347640038f,
    -0.08678048849105835f, 0.1665293276309967f, -0.08811619132757187f, 0.05679265037178993f, -0.2066584974527359f, -0.07307732105255127f, -0.10235513746738434f, -0.128223717212677f,
    -0.09517904371023178f, -0.21036405861377716f, -0.242850661277771f, -0.0874977856874466f, -0.38060733675956726f, -0.21193669736385345f, -0.030847474932670593f, -0.010157160460948944f,
    0.005943694151937962f, 0.008796858601272106f, -0.36602649092674255f, -0.48188742995262146f, -0.131614089012146f, -0.10219773650169373f, 0.0005790591822005808f, -0.12975230813026428f,
    -0.518129825592041f, 0.19893686473369598f, 0.06981459259986877f, 0.3548813760280609f, 0.17603322863578796f, 0.3745587468147278f, -0.4314623177051544f, -0.4342432916164398f,
    0.0992225855588913f, 0.46413978934288025f, 0.03265056386590004f, -0.2196030616760254f, 0.4722907543182373f, -0.5207903385162354f, -0.6074284315109253f, 0.7250017523765564f,
    0.04293807968497276f, 0.6034312844276428f, -0.25220227241516113f, -0.07327235490083694f, 0.06674317270517349f, -0.17236921191215515f, 0.2989464998245239f, 0.22924229502677917f,
